Version 7.10.1
Min label:-1.000000
Max label:1.000000
bits:18
0 pairs: 
0 triples: 
lda:0
1 ngram: 5 
0 skip: 
options:
:0
1:-0.920468
2:-2.437823
3:8.304511
4:0.323080
5:1.847684
6:1.328686
7:-1.376180
8:0.509637
9:-1.282286
10:3.036140
11:0.926700
12:-1.160376
13:0.280605
14:0.031279
15:1.062395
16:-1.091295
17:2.892083
18:0.099640
19:1.868336
20:0.462840
21:0.165787
22:-2.565000
23:-1.107198
24:4.851701
25:0.290301
26:0.473665
27:-1.302265
28:-1.788778
132:-0.048602
639:0.106998
2214:0.006643
4388:-0.043845
4389:0.080426
4399:0.040720
5454:0.054605
5802:0.054694
5984:0.093364
5986:-0.039649
5987:-0.006392
5995:0.039764
6968:-0.006392
7022:0.021340
7240:-0.032899
7241:0.095184
7282:-0.047232
7283:0.021340
7512:-0.157983
7514:-0.193451
7515:0.213195
7784:0.041960
7785:0.118033
7787:0.047302
8455:0.025588
8456:-0.032816
9150:0.118546
9410:0.015316
9411:0.118546
9574:0.039382
10214:-0.032816
10474:0.019758
10475:-0.032816
11006:0.065472
11013:-0.136320
11487:0.019090
11489:0.079422
11490:0.098036
11494:-0.136320
12342:0.095184
12602:0.039602
12603:0.095184
12771:0.043715
12847:0.038739
13134:-0.049717
13391:0.104340
13406:-0.182190
13618:0.230808
13666:-0.206832
13667:-0.182190
13890:0.054605
13938:-0.068166
14198:-0.021147
14199:-0.068166
14205:-0.019139
15207:0.025543
15806:0.047642
15807:0.090898
16066:0.025543
16273:-0.193451
16274:0.213195
16326:-0.105388
16327:0.025543
16333:0.088399
17390:-0.039509
17397:0.220022
17934:0.139060
17935:0.091098
18235:0.039764
18466:-0.302273
18467:0.113164
18469:0.138258
18477:-0.048602
18742:0.017795
19225:0.081877
20317:0.090776
22491:-0.006392
23023:-0.105451
23024:-0.239903
23529:0.204530
23530:-0.114870
23540:0.040720
24073:0.081901
25705:0.047302
26249:0.118546
26521:0.045400
26830:0.118546
27677:-0.018883
27736:0.010734
29755:0.010734
30287:0.022533
30342:0.016058
30819:0.040720
30874:0.047302
31883:0.038739
32415:0.039764
32947:-0.011054
33310:0.097294
33479:-0.091570
34011:-0.048602
34646:0.022395
34647:-0.003536
35117:0.021340
35571:0.023024
35572:0.098085
35574:-0.018883
35578:0.088399
35582:-0.091570
35607:0.081877
35765:0.025543
36139:-0.023303
36338:0.040720
36387:0.114425
36388:0.111912
36659:-0.023506
36660:-0.068166
36666:-0.019139
36931:0.111912
37203:0.156758
37204:0.152571
37206:0.043715
37214:0.022533
37245:0.118546
37328:-0.048602
38309:-0.032816
38311:0.097463
38420:0.174058
39809:0.039017
40437:0.095184
40439:0.174058
41181:0.091098
41501:-0.182190
41503:-0.059756
42033:-0.068166
42035:0.090776
42190:0.331688
42192:0.020332
42193:0.027249
42266:-0.091570
42565:0.111912
43581:-0.092326
43582:0.123969
43631:0.006643
44161:0.025543
44163:0.089462
44661:-0.058581
44662:0.021340
44693:0.054605
44695:0.123969
45227:-0.139626
45757:-0.384597
45780:-0.030100
46576:0.104340
47057:-0.041714
47058:0.021340
47355:0.209206
47613:0.042463
47614:0.230808
47615:-0.114617
47616:0.300605
47622:0.199621
47624:-0.023303
47885:-0.077200
47888:0.039017
47896:0.081877
48704:0.032748
49768:-0.062990
49824:0.096134
51413:0.047347
51896:0.081901
52480:0.009517
52960:0.199621
53064:0.192846
53065:-0.177419
53596:-0.009273
53597:-0.068166
53603:-0.019139
54036:0.220022
55028:0.004572
55124:0.043715
55396:0.018400
55397:-0.032816
55431:0.039764
55940:0.014477
55941:0.099403
55943:0.017795
57912:-0.030559
57913:0.089561
58697:0.094201
59099:0.027828
59100:0.009270
59229:0.033357
59230:0.099403
60111:0.213195
60348:0.006643
61003:0.010734
61414:-0.179210
62318:0.199621
63376:1.953778
63406:0.048999
63883:0.043715
64210:0.142134
64440:0.199621
65534:0.184326
65806:0.039017
66350:0.098322
66352:-0.003555
66622:0.041253
66624:-0.049717
66625:-0.030100
66631:0.032748
66633:0.038739
67632:-0.304857
67633:0.096134
67643:0.187257
68164:0.016434
68165:-0.003555
70852:-0.055675
71141:-0.063607
71142:0.168127
71143:0.071925
71144:0.039875
71150:0.104340
71152:0.010734
71699:0.089850
71700:0.007789
72229:-0.062990
72877:-0.091570
73534:0.040720
73861:0.017795
74405:0.021340
74677:-0.055097
76015:-0.006392
78396:0.063135
78398:-0.057166
78399:0.049567
79151:0.220022
79255:-0.003555
79517:-0.223060
79518:0.193012
79787:-0.015564
79788:-0.059756
81963:0.111912
81986:0.047302
83105:0.048999
83183:0.014422
83184:-0.140667
83185:0.005963
83186:-0.006392
83194:0.039764
83561:0.089462
83607:0.220022
84543:-0.030100
85087:0.193379
85203:0.047642
85359:-0.095853
85361:0.079422
85362:0.106998
86901:0.220022
87331:0.391984
87333:-0.007286
87334:-0.026554
87340:-0.062990
87342:-0.187844
88581:-0.193451
89113:0.080426
89166:-0.062990
89270:-0.059756
89802:0.060026
89809:-0.136320
90709:-0.223060
90921:0.039017
90980:0.038739
91241:0.096134
91773:-0.003555
92305:-0.179210
92577:0.111912
93913:0.031488
94188:0.010734
94433:0.230808
94669:-0.055097
94670:0.024022
94705:0.054605
94720:0.022533
94903:0.056226
95225:-0.492068
95226:-0.289225
95227:-0.087111
95228:0.039382
95230:0.031488
95234:0.081901
95237:0.221210
95252:0.040720
95435:-0.059220
95436:0.024022
95497:-0.126064
95504:0.220022
95769:-0.384597
95772:0.054694
96041:0.055802
96042:0.089237
96044:-0.018883
96052:-0.091570
96316:0.038739
96317:0.009517
96554:-0.588197
96848:0.039764
97380:-0.011054
97620:0.080426
97890:0.038276
97891:0.025543
97912:-0.091570
98444:-0.048602
98524:-0.062990
99582:0.187257
100040:0.081877
100572:-0.023303
100598:-0.182190
100646:-0.062990
103280:0.098036
103824:0.047347
103838:-0.026554
104370:-0.010615
104371:0.181021
105436:0.096033
105437:-0.118097
106711:0.072019
106712:0.047347
106713:-0.045854
106714:0.056226
107905:-0.008796
107906:0.046077
109024:0.110721
109025:0.111912
109083:0.022533
112221:0.027249
112650:0.217230
112651:0.004572
113612:0.031488
113690:0.048999
113962:-0.018883
114234:-0.206852
114235:-0.182190
114288:-0.055675
114506:0.026362
114548:0.047347
114602:-0.053599
114778:-0.061182
114779:0.150070
114780:0.054945
114781:0.039875
114787:0.104340
114789:0.010734
115357:-0.019139
115461:-0.193451
115612:-0.003536
115615:0.009517
115724:0.016058
115993:0.054255
115994:0.097294
116060:-0.331012
116144:0.097463
116416:0.014882
116417:0.047347
116840:-0.191506
116847:0.088399
117480:0.021052
117481:-0.003536
117740:0.025543
117743:0.016058
118012:0.071182
118013:0.097294
118272:0.174058
118753:0.060465
118754:0.118033
118756:0.047302
118804:-0.157983
118806:-0.193451
118807:0.213195
119336:-0.059756
119338:0.080426
119608:-0.034199
119609:0.025543
119813:-0.019139
119841:-0.011054
119868:0.090776
120140:0.159336
120141:-0.588197
120672:-0.205050
120673:-0.157983
120934:-0.223060
120935:0.193012
121156:-0.335722
121157:0.016058
121204:-0.017909
121205:-0.059756
121464:0.006643
121466:0.096134
121941:-0.044940
121996:0.089462
121998:-0.003555
122473:-0.044924
122474:0.118033
122528:0.123969
122530:-0.179210
123007:-0.068166
123060:-0.139626
123107:-0.019139
123332:-0.066705
123333:0.006643
123355:0.193012
123537:-0.142032
123539:0.017363
123540:0.039875
123546:0.104340
123548:0.010734
123595:0.054694
124396:-0.182183
124397:0.123969
124658:0.230808
125188:0.209206
125372:0.104340
125460:0.267632
125461:0.054694
125462:-0.097680
125463:0.039382
125465:0.031488
125469:0.081901
125472:0.221210
125476:0.097463
127127:-0.006392
130795:-0.035998
130796:0.026362
130797:-0.018339
130798:-0.044940
130802:-0.019139
131067:0.199621
131171:-0.003555
132349:0.217230
132350:0.004572
132699:0.039875
133243:0.087171
133515:0.065272
133516:0.047347
133517:-0.045854
133518:0.049567
134096:0.014882
134097:0.047347
134411:-0.139626
134730:0.104340
136121:0.081877
136749:0.104340
136778:-0.011054
136804:-0.032816
136852:0.104340
138727:0.054694
138877:0.032748
139941:-0.062990
140044:0.039875
140576:0.026790
140577:0.009517
141640:-0.110686
141642:0.056865
141643:0.106998
142069:0.081901
142837:0.068416
142838:0.114847
142840:0.141876
142848:-0.048602
143031:-0.077986
143032:0.006643
143133:0.199621
143381:0.039382
143925:0.006643
143927:0.096134
144197:-0.019195
144198:0.090776
144199:0.055156
144200:-0.118097
145207:0.054605
148427:0.049567
148447:0.139060
148979:0.074899
150577:0.470517
150578:0.039382
150584:0.081901
151436:0.056226
151563:-0.136320
152410:0.081901
152514:-0.013700
152515:0.087955
153046:-0.058660
153318:-0.182190
153582:-0.136320
154224:-0.048602
154323:0.045436
154879:0.106755
154880:0.209206
154882:0.074899
154883:0.184326
156019:-0.136320
156774:-0.019139
157362:-0.026554
158147:0.098036
158679:-0.011066
158680:0.007367
158902:0.088399
159266:0.089561
159313:-0.136320
159561:0.016058
159743:-0.007772
159746:0.017795
159966:0.220022
160602:-0.179210
160864:0.096134
161768:0.081901
162118:-0.044940
162160:0.049567
162294:0.217230
162662:0.025543
162665:0.016058
162692:0.017795
162934:0.075294
162935:0.097463
163333:0.027249
163890:0.081901
164288:0.106998
164820:0.047302
164908:0.123969
165352:0.027249
165884:0.039875
166018:0.031488
166365:0.051122
166366:0.087171
166416:0.043715
167082:0.039382
167377:-0.193451
167480:-0.118097
167614:-0.143354
167615:-0.140667
167997:0.040720
168012:-0.030100
168148:-0.384597
168544:-0.006392
168678:0.018161
168681:-0.018883
168689:-0.091570
169076:-0.026554
169608:-0.018883
170140:0.110721
170141:0.111912
170617:0.090776
171204:0.039382
171736:0.039017
172268:0.256772
172269:0.054605
172327:0.039764
172800:0.074899
172984:0.010734
173010:0.021340
173075:0.142134
173344:-0.139626
173616:0.258956
173617:0.019381
173618:-0.024322
173619:-0.026554
173625:-0.062990
173627:-0.011054
175465:-0.118097
176250:0.017795
177846:0.021141
177901:-0.157983
178407:-0.052165
178408:0.152571
178410:0.043715
178418:0.022533
178601:0.088399
178679:-0.023303
178705:-0.223060
179237:0.154999
179238:-0.588197
180929:-0.091570
181671:-0.050129
181945:-0.068166
183057:0.088399
185185:-0.018883
186251:0.025543
186351:0.088399
186781:0.036657
186783:-0.059185
186784:-0.030100
186790:0.032748
186792:0.038739
188616:0.032748
188720:0.169002
188721:0.139928
189524:-0.032816
190430:0.040720
190449:0.288588
190450:0.019381
190451:-0.026681
190452:-0.026554
190458:-0.062990
190460:-0.011054
190993:0.031488
191537:-0.026554
191809:-0.045529
191863:0.056226
192081:-0.209509
192083:0.080426
192353:-0.153902
192354:0.033555
192355:0.011740
192356:0.027249
192395:0.017795
193036:0.213195
193568:0.039875
193991:0.098036
194523:0.047302
195055:0.094201
195587:0.039875
196119:0.043715
196808:0.080426
197183:-0.044940
197416:0.039764
197655:0.205524
197656:0.025543
197715:-0.030100
197974:0.032748
198247:-0.006392
198504:-0.136320
198779:-0.026554
199311:-0.018883
199539:0.049567
199843:-0.026810
199844:0.089561
200048:0.095184
200096:0.032748
200907:0.039382
201114:-0.059756
201439:0.039017
201935:-0.053074
201971:-0.285081
201972:0.016058
202491:0.219551
202493:0.142134
202494:0.039017
202502:0.081877
202503:0.074899
202765:0.230808
203035:-0.129941
203036:-0.139626
203039:0.048999
203288:-0.030100
203820:0.046960
203821:0.016058
204354:0.111912
204884:-0.149549
204887:0.043715
204895:0.022533
208474:-0.026554
209186:0.088399
210274:0.094201
210546:0.015316
210547:0.118546
210818:-0.003536
210821:0.009517
211090:0.036490
211091:0.007367
211671:0.106998
212518:-0.179210
212790:0.111912
213977:0.036039
213978:0.118642
213980:0.017795
214107:-0.003536
216834:0.047642
216835:0.090898
217135:0.022533
217468:-0.023303
218125:-0.091570
218816:0.031488
219154:-0.056564
219542:0.142134
219686:-0.053599
219687:0.024022
220606:0.039382
221282:0.036490
221391:0.043715
221502:-0.223060
221503:0.193012
221772:-0.041955
221773:0.038326
221783:0.040720
221814:0.021141
221815:0.007367
222346:0.062787
222348:-0.057166
222349:0.049567
222510:0.016058
222878:0.013096
222879:0.099403
222881:0.017795
222987:-0.117950
222990:0.047302
223042:0.123969
223410:0.030867
223411:0.009517
223846:0.230808
224474:-0.103285
224476:0.056865
224477:0.106998
225006:0.042029
225007:0.118033
225009:0.047302
225538:-0.160398
225539:0.016058
225540:0.017545
225541:0.027249
225730:0.021340
226019:-0.154117
226020:0.033555
226021:0.010378
226022:0.094201
226070:0.200288
226071:-0.239903
226072:0.049525
226073:0.039875
226079:0.104340
226081:0.010734
226563:0.221210
226577:-0.118097
226602:-0.100156
226603:0.181021
226605:0.043715
226613:0.022533
226835:-0.048602
227134:-0.036132
227135:0.080426
227145:0.040720
227379:0.032748
227668:0.097373
227669:-0.118097
228198:0.039924
228200:-0.058660
228201:-0.030100
228207:0.032748
228209:0.038739
228730:0.003983
228731:-0.140667
228732:-0.039649
228733:-0.006392
228741:0.039764
229242:0.009517
229262:0.324474
229263:0.096134
229264:-0.012420
229265:-0.026554
229271:-0.062990
229273:-0.011054
229774:0.017795
229794:0.021139
229795:-0.003555
229797:-0.018883
229805:-0.091570
230326:-0.240900
230327:-0.179210
230329:0.138258
230337:-0.048602
230621:-0.223060
230858:0.264291
230862:0.048999
231392:-0.184707
231393:0.039382
231399:0.081901
231922:0.581783
231925:0.039017
231933:0.081877
232454:0.658310
232455:0.230808
232456:-0.028066
232457:0.257272
232463:0.199621
232465:-0.023303
233861:0.089462
234393:-0.281519
234394:-0.043886
234665:-0.068166
236228:0.038739
236254:0.118546
237320:0.097463
238061:0.116587
238062:0.111912
238063:-0.045529
238064:-0.030100
238070:0.032748
238072:0.038739
238709:-0.018883
239494:0.047302
239965:0.082298
239972:-0.136320
240081:0.090898
240267:0.009517
240509:0.026276
240510:0.009270
242147:-0.136320
242211:-0.003555
242395:0.016058
243459:0.213195
244173:0.081877
244680:0.039875
245189:0.025543
245339:-0.019139
245572:0.022533
245587:0.193012
246255:-0.139626
247467:0.088399
248247:0.054694
248429:0.039017
248531:0.220022
248724:0.080426
249547:-0.055097
250028:0.138258
250036:1.912141
250103:-0.172903
250104:-0.139626
250107:0.048999
250110:0.220022
250375:0.300147
250376:0.054605
250647:-0.094765
250648:0.025543
250654:0.088399
250919:0.125642
250921:-0.179210
251191:0.006232
251192:-0.140667
251193:0.005973
251194:-0.006392
251202:0.039764
252768:0.095184
253674:-0.011054
254331:0.022533
254386:0.221210
256254:0.081877
256280:0.193012
256812:-0.030100
257342:-0.019139
258702:-0.047232
258703:0.021340
259246:-0.056564
259247:0.024022
259248:-0.059756
260052:0.096134
260584:-0.205034
260585:-0.157983
261589:0.045400
261590:0.007367
