Version 7.10.1
Min label:-0.115000
Max label:1.000000
bits:18
0 pairs: 
0 triples: 
lda:0
1 ngram: 5 
0 skip: 
options:
:0
1:-0.054575
2:-0.015677
3:0.328809
4:0.156439
5:0.254650
6:0.170352
7:0.012628
8:0.025302
9:-0.065094
10:0.094854
11:0.069019
12:-0.010531
13:0.048133
14:-0.015001
15:0.056688
16:-0.010913
17:0.080212
18:-0.027938
19:0.038567
20:0.003544
21:0.103316
22:-0.085082
23:-0.087371
24:0.073952
25:0.126940
26:0.205885
27:-0.391635
28:-0.153958
132:0.001006
639:0.003437
2214:-0.000633
4388:-0.009634
4389:-0.000989
4399:-0.003399
4683:0.000228
5454:0.000934
5802:0.002778
5984:-0.013704
5986:-0.016192
5987:-0.006029
5995:-0.004116
6968:-0.003358
7022:0.001803
7240:-0.006299
7241:-0.002090
7282:0.009788
7283:0.001803
7512:-0.000650
7514:-0.004701
7515:0.005269
7784:0.005378
7785:-0.000078
7787:0.002794
8455:0.004573
8456:-0.013866
8727:-0.004801
9150:-0.000946
9410:-0.001798
9411:-0.000946
9574:-0.006020
10214:-0.001718
10474:0.002998
10475:-0.001718
10746:-0.004801
11006:0.007361
11007:-0.004801
11013:-0.000940
11487:0.002040
11488:-0.004801
11489:0.003120
11490:0.003699
11494:-0.000940
12342:-0.002090
12602:-0.004165
12603:-0.002090
12771:0.000723
12847:0.006820
12874:-0.000331
13134:0.001958
13135:-0.000331
13141:-0.001400
13391:0.011778
13406:0.001423
13618:0.010458
13666:-0.006727
13667:0.001423
13890:0.000934
13938:0.001957
14198:0.000839
14199:0.001957
14205:0.001233
15207:-0.002064
15806:0.000473
15807:-0.003907
16066:-0.002425
16273:-0.004701
16274:0.005269
16326:-0.009177
16327:-0.002425
16333:-0.002352
17130:0.006465
17390:-0.003302
17391:0.006465
17397:0.007173
17934:0.000279
17935:0.016190
18235:-0.004116
18466:-0.022257
18467:0.005053
18469:0.010838
18477:0.001006
18742:0.001921
19225:0.006107
19251:-0.000331
20317:-0.006915
22491:-0.003358
23023:-0.016473
23024:-0.011276
23529:0.021560
23530:0.003199
23540:-0.003399
23905:0.012982
24073:-0.004422
25705:0.002794
26249:-0.000946
26521:-0.007960
26830:-0.000946
27677:0.004403
27736:0.010146
29755:0.010146
30287:0.002811
30342:0.002157
30819:-0.003399
30874:0.002794
31883:0.006820
32415:-0.004116
32947:0.000649
33310:-0.001548
33479:0.002201
34011:0.001006
34646:-0.013576
34647:-0.001989
35075:-0.011858
35117:0.001803
35571:0.003532
35572:0.001664
35574:0.004403
35578:-0.002352
35582:0.002201
35607:0.006107
35765:-0.002425
36139:0.001728
36338:-0.003399
36387:0.010927
36388:-0.002989
36659:0.000850
36660:0.001957
36666:0.001233
36671:0.013334
36931:-0.002989
37203:0.003407
37204:-0.001001
37206:0.000723
37214:0.002811
37245:-0.000946
37328:0.001006
38309:-0.001718
38311:0.004533
38420:0.004101
38841:-0.004801
39809:0.003435
40437:-0.002090
40439:0.004101
40969:-0.000331
41181:0.016190
41501:0.001423
41503:0.001919
42033:0.001957
42035:-0.006915
42190:0.001946
42192:-0.004262
42193:0.000035
42266:0.002201
42565:-0.002989
43581:-0.003035
43582:0.005669
43631:-0.000633
44161:-0.002425
44163:-0.003045
44661:0.009537
44662:-0.006190
44693:0.000934
44695:0.005669
45225:0.006465
45227:-0.002266
45757:-0.011705
45780:0.001803
46576:0.011778
47057:0.009017
47058:0.001803
47355:0.010189
47613:0.011841
47614:0.010458
47615:-0.000571
47616:0.020865
47622:0.002726
47624:0.001728
47885:0.012555
47888:0.003435
47896:0.006107
48704:0.000202
49768:0.001237
49824:-0.001471
51413:0.002214
51896:-0.004422
52479:0.001064
52480:-0.005223
52960:0.002726
53064:0.007230
53065:-0.012230
53596:0.000923
53597:-0.012813
53603:0.001233
54036:0.007173
54774:-0.011858
55028:0.007056
55124:0.000723
55396:0.002731
55397:-0.001718
55431:-0.004116
55668:-0.004801
55940:-0.000590
55941:0.007108
55943:0.001921
57912:-0.011359
57913:-0.005394
58697:-0.000531
59099:-0.008699
59100:-0.004138
59229:0.017524
59230:0.007108
60111:0.005269
60348:-0.000633
61003:0.010146
61414:0.000199
62318:0.002726
63376:0.079459
63406:0.009851
63883:0.000723
64210:0.008812
64440:0.002726
65534:0.012288
65806:0.003435
66350:-0.003496
66352:-0.004387
66353:0.012982
66622:0.006964
66624:0.001841
66625:0.001803
66631:0.000202
66633:0.006820
67632:-0.031673
67633:-0.001471
67643:-0.000603
68164:-0.019189
68165:0.012179
70852:-0.014418
70853:-0.000240
71141:0.003818
71142:0.005899
71143:0.007096
71144:0.005869
71150:0.011778
71152:0.010146
71685:-0.011858
71699:-0.001503
71700:-0.004101
71971:-0.000331
72229:0.001237
72877:0.002201
73534:-0.003399
73861:0.001921
74405:0.001803
74677:-0.000031
76015:-0.006029
78396:0.005246
78398:0.008397
78399:0.003146
79151:0.007173
79255:-0.004387
79517:-0.011198
79518:0.004788
79787:0.000777
79788:0.001919
81963:-0.002989
81986:0.002794
83105:0.009851
83183:-0.015149
83184:-0.007209
83185:-0.016334
83186:-0.003358
83194:-0.004116
83561:-0.003045
83607:0.007173
84543:0.001803
85087:0.005629
85203:0.000473
85359:-0.009710
85361:0.003416
85362:0.003437
85389:0.001064
86801:0.006465
86901:0.007173
87331:0.040982
87333:0.000480
87334:-0.003841
87340:0.001237
87342:0.001458
87517:0.000228
88581:-0.004701
89113:-0.000989
89166:0.001237
89270:-0.010643
89271:0.023850
89802:0.006290
89803:0.039606
89809:-0.000940
90709:-0.011198
90921:0.003435
90980:0.006820
91241:-0.001471
91773:-0.004387
92305:0.000199
92577:-0.002989
93913:0.004514
94188:0.010146
94433:0.010458
94669:0.000536
94670:-0.000363
94705:0.000934
94720:0.002811
94903:0.002777
95225:-0.029105
95226:0.002910
95227:-0.007842
95228:-0.006020
95230:0.004514
95234:-0.004422
95236:-0.011858
95237:0.010617
95252:-0.003399
95435:-0.001171
95436:-0.000363
95497:-0.000733
95498:0.006465
95504:0.007173
95769:-0.011705
95772:0.002778
96041:0.007835
96042:0.002098
96044:0.004403
96052:0.002201
96316:0.006820
96317:-0.005223
96554:-0.014106
96848:-0.004116
97380:0.000649
97620:-0.000989
97890:0.006005
97891:-0.002064
97912:0.002201
98444:0.001006
98524:0.001237
99508:-0.011858
99582:-0.000603
100040:0.006107
100572:0.001728
100598:0.001423
100646:0.001237
101104:0.013334
103280:0.003699
103824:0.002214
103838:-0.003841
104370:0.003747
104371:-0.000514
105436:0.008236
105437:-0.003720
106711:-0.000563
106712:0.002214
106713:0.007840
106714:0.002777
107905:-0.003804
107906:-0.006405
109024:0.009513
109025:-0.002989
109083:0.002811
112221:0.000035
112420:-0.000240
112650:0.009274
112651:0.007056
113612:0.004514
113690:0.009851
113962:0.004403
114234:-0.006753
114235:0.001423
114288:-0.014689
114289:-0.000240
114506:-0.007559
114548:0.002214
114602:-0.002033
114778:0.006399
114779:0.004632
114780:0.006604
114781:0.005869
114787:0.011778
114789:0.010146
115357:0.001233
115461:-0.004701
115612:-0.001989
115614:0.001064
115615:-0.005223
115723:0.000228
115724:0.002157
115993:0.007715
115994:-0.001548
116060:-0.006317
116144:0.004533
116416:-0.006669
116417:0.002214
116840:-0.012263
116841:-0.012862
116847:-0.002352
117480:-0.013831
117481:-0.001989
117740:-0.002064
117742:0.000228
117743:0.002157
118012:0.008211
118013:-0.001548
118272:0.004101
118753:0.006358
118754:-0.000078
118756:0.002794
118804:-0.000864
118806:-0.004701
118807:0.005269
119336:0.001919
119338:-0.000989
119608:0.003858
119609:-0.002064
119813:0.001233
119841:0.000649
119868:-0.006915
120140:0.003675
120141:-0.014106
120672:-0.001027
120673:-0.000864
120934:-0.011198
120935:0.004788
121156:-0.025144
121157:-0.015115
121204:0.000799
121205:0.001919
121464:-0.000633
121466:-0.001471
121941:0.000385
121996:-0.003045
121998:-0.004387
121999:0.012982
122473:0.002200
122474:-0.000078
122528:0.005669
122530:0.000199
123007:0.001957
123060:-0.002266
123107:0.001233
123332:-0.005492
123333:-0.000633
123355:0.004788
123537:0.002559
123539:0.006190
123540:0.005869
123546:0.011778
123548:0.010146
123595:0.002778
124396:-0.000464
124397:0.005669
124658:0.010458
125188:0.010189
125372:0.011778
125460:0.012292
125461:0.002778
125462:-0.009250
125463:-0.006020
125465:0.004514
125469:-0.004422
125471:-0.011858
125472:0.010617
125476:0.003191
125477:-0.008667
127127:-0.006029
130795:-0.004887
130796:-0.007559
130797:0.003240
130798:0.000385
130802:0.001233
131067:0.002726
131171:-0.004387
132349:0.009274
132350:0.007056
132699:0.005869
133243:0.001774
133515:-0.001540
133516:0.002214
133517:0.008137
133518:0.003146
134096:-0.006372
134097:0.002214
134411:-0.003720
134412:0.026867
134730:0.011778
136121:0.006107
136749:0.011778
136778:0.000649
136804:-0.001718
136852:0.011778
138727:0.002778
138877:0.000202
139941:0.001237
140044:0.005869
140576:-0.000270
140577:-0.003788
141640:-0.010637
141642:0.001302
141643:0.003437
142069:-0.004422
142837:0.016431
142838:0.007424
142840:0.012230
142848:0.001006
143031:-0.006933
143032:-0.000633
143133:0.002726
143381:-0.006020
143925:-0.000633
143927:-0.001471
144197:-0.006830
144198:-0.006915
144199:0.005385
144200:-0.003720
144723:0.013334
145207:0.000934
145739:0.006465
148427:0.003146
148447:0.000279
148979:-0.006834
150348:-0.001400
150577:0.009533
150578:-0.006020
150584:-0.004422
150586:-0.011858
151436:0.002777
151563:-0.000940
151667:0.001064
151980:-0.000240
152410:-0.004422
152514:-0.001403
152515:-0.010176
153046:0.001759
153047:-0.005875
153053:-0.001400
153318:0.001423
153582:-0.000940
154224:0.001006
154323:-0.007765
154879:-0.013890
154880:0.010189
154882:-0.006834
154883:0.012288
154890:0.013334
155710:-0.001400
156019:-0.000940
156774:0.001233
156830:0.012982
157362:-0.003841
158147:0.003699
158679:0.014479
158680:0.009162
158902:-0.002352
159213:-0.004801
159266:-0.005394
159313:-0.000940
159561:0.002157
159743:-0.014649
159746:0.001921
159966:0.007173
160602:0.000199
160864:-0.001471
161768:-0.004422
162118:0.000385
162160:0.003146
162294:0.009274
162662:-0.002064
162664:0.000228
162665:0.002157
162692:0.001921
162934:0.008268
162935:0.004533
163333:0.000035
163890:-0.004422
164288:0.003437
164820:0.002794
164908:0.005669
165352:0.000035
165884:0.005869
166018:0.004514
166365:0.009174
166366:0.001774
166416:0.000723
167082:-0.006020
167377:-0.004701
167480:-0.003720
167614:-0.008647
167615:-0.007209
167997:-0.003399
168012:0.001803
168148:-0.011705
168544:-0.006029
168678:0.023879
168681:0.004403
168689:0.002201
169076:-0.003841
169608:0.004403
170140:0.009513
170141:-0.002989
170617:0.006014
170618:-0.038451
171204:-0.006020
171736:0.003435
172268:0.027490
172269:0.000934
172327:-0.004116
172800:-0.006834
172984:0.010146
173010:0.001803
173075:0.008812
173344:-0.001491
173616:0.021272
173617:-0.001879
173618:0.000646
173619:-0.003841
173625:0.001237
173627:0.000649
175465:-0.003720
176250:0.001921
177846:-0.009704
177901:-0.000864
178407:-0.010586
178408:-0.000931
178410:0.000723
178414:-0.001400
178418:0.002811
178601:-0.002352
178679:0.001728
178705:-0.011198
179237:0.003945
179238:-0.014106
180929:0.002201
181671:-0.014733
181672:-0.000240
181945:0.001957
183057:-0.002352
185185:0.004403
186251:-0.002425
186351:-0.002352
186781:0.007386
186783:0.001222
186784:0.001803
186790:0.000202
186792:0.006820
188616:0.000202
188720:0.002521
188721:0.034374
189524:-0.001718
190430:-0.003399
190449:0.021175
190450:-0.001879
190451:0.000670
190452:-0.003841
190458:0.001237
190460:0.000649
190993:0.004514
191537:-0.003841
191809:0.001724
191810:-0.000331
191816:-0.001400
191863:0.002777
192081:0.002939
192083:-0.000989
192353:-0.009309
192354:0.001163
192355:-0.004392
192356:0.000035
192395:0.001921
193036:0.005269
193568:0.005869
193991:0.003699
194523:0.002794
195055:-0.000531
195587:0.005869
196119:0.000723
196808:-0.000989
197183:0.000385
197416:-0.004116
197655:0.010021
197656:0.010580
197715:0.001803
197974:0.000202
198247:-0.003358
198459:0.006465
198504:-0.000940
198779:-0.003841
199311:0.004403
199539:0.003146
199843:-0.009836
199844:-0.005394
200022:-0.011858
200048:-0.002090
200096:0.000202
200907:-0.006020
201114:0.001919
201439:0.003435
201935:-0.012790
201936:-0.000240
201971:-0.031957
201972:-0.015115
202491:0.021447
202493:0.008812
202494:0.003435
202502:0.006107
202503:-0.006834
202765:0.010458
203035:-0.008907
203036:-0.002266
203039:0.009851
203288:0.001803
203583:0.001064
203820:0.010669
203821:0.002143
204354:-0.002989
204884:-0.039756
204887:0.000723
204895:0.002811
208474:-0.003841
209186:-0.002352
210274:-0.000531
210546:-0.002077
210547:-0.000946
210818:-0.001989
210820:0.001064
210821:-0.005223
211090:0.015424
211091:0.009162
211671:0.003437
212518:0.000199
212790:-0.002989
213977:-0.001153
213978:0.004938
213980:0.001921
214107:-0.001989
214807:-0.001400
214911:0.000228
216834:0.000473
216835:-0.003907
217135:0.002811
217468:0.001728
218125:0.002201
218151:-0.004801
218816:0.004514
219154:-0.000268
219263:-0.001400
219542:0.008812
219686:-0.001473
219687:-0.000363
220606:-0.006020
221282:-0.008494
221391:0.000723
221502:-0.011198
221503:0.004788
221772:-0.004841
221773:0.002327
221783:-0.003399
221814:0.014837
221815:0.009162
222346:0.004205
222348:0.007644
222349:0.003146
222457:-0.000331
222510:-0.015115
222557:-0.001400
222878:0.000498
222879:0.007108
222881:0.001921
222987:-0.004022
222990:0.002794
223042:0.005669
223410:-0.000192
223411:-0.003788
223846:0.010458
224474:-0.008960
224476:0.001238
224477:0.003437
225006:0.004538
225007:-0.000078
225009:0.002794
225538:-0.016285
225539:0.002143
225540:-0.004465
225541:0.000035
225730:0.001803
226019:-0.008128
226020:0.001163
226021:-0.004671
226022:-0.000531
226070:0.030105
226071:-0.011276
226072:0.007677
226073:0.005869
226079:0.011778
226081:0.010146
226563:0.010617
226577:-0.003720
226602:-0.028417
226603:-0.000514
226605:0.000723
226613:0.002811
226835:0.001006
227134:-0.006591
227135:-0.000989
227145:-0.003399
227379:0.000202
227668:0.008165
227669:-0.003720
228198:0.007047
228200:0.001670
228201:0.001803
228207:0.000202
228209:0.006820
228730:-0.015610
228731:-0.007209
228732:-0.016067
228733:-0.006029
228741:-0.004116
229242:-0.005223
229262:0.029692
229263:-0.001471
229264:0.000568
229265:-0.003841
229271:0.001237
229273:0.000649
229774:0.001921
229794:0.006367
229795:0.012179
229797:0.004403
229805:0.002201
230326:-0.026849
230327:0.000199
230329:0.010838
230337:0.001006
230621:-0.011198
230858:0.011196
230862:0.009851
231392:-0.012386
231393:-0.006020
231399:-0.004422
231401:-0.011858
231922:0.034244
231925:0.003435
231933:0.006107
232454:0.033285
232455:0.010458
232456:-0.003138
232457:0.027856
232463:0.002726
232465:0.001728
233861:-0.002832
233862:0.002154
234393:-0.006698
234394:0.004379
234665:0.001957
236228:0.006820
236254:-0.000946
237320:0.004533
238061:0.014125
238062:-0.002989
238063:0.001583
238064:0.001803
238070:0.000202
238072:0.006820
238709:0.004403
239494:0.002794
239965:0.007838
239966:-0.004801
239972:-0.000940
240081:-0.003907
240267:-0.005223
240509:-0.007702
240510:-0.004138
242147:-0.000940
242211:-0.004387
242212:0.012982
242395:0.002157
243459:0.005269
244173:0.006107
244275:-0.001400
244680:0.005869
245189:-0.002425
245339:0.001233
245572:0.002811
245587:0.004788
246255:-0.002266
246651:0.012982
247467:-0.002352
248247:0.002778
248429:0.003435
248531:0.007173
248724:-0.000989
249547:0.001016
250028:0.010838
250036:-0.000669
250103:-0.008159
250104:-0.001491
250107:0.009851
250110:0.007173
250313:-0.000240
250375:0.020504
250376:0.000934
250647:-0.007755
250648:-0.002425
250654:-0.002352
250919:0.008023
250921:0.000199
251191:-0.015311
251192:-0.007209
251193:-0.016316
251194:-0.006029
251202:-0.004116
252768:-0.002090
253674:0.000649
254331:0.002811
254386:0.010617
256254:0.006107
256280:0.004788
256812:0.001803
257342:0.001233
258702:0.009500
258703:0.001803
259246:0.000324
259247:-0.000363
259248:0.001919
260052:-0.001471
260584:-0.001009
260585:-0.000864
261589:0.015905
261590:0.009162
