Version 7.10.1
Min label:-1.000000
Max label:1.000000
bits:18
0 pairs: 
0 triples: 
lda:0
1 ngram: 5 
0 skip: 
options:
:0
1:0.641247
2:8.608297
3:5.321231
4:-1.206776
5:-5.713937
6:5.067464
7:4.474003
8:4.285590
9:0.043425
10:2.803572
11:-1.984369
12:1.023987
13:2.279284
14:-2.386301
15:0.837354
16:-2.009858
17:-2.267174
18:-3.601909
19:5.565021
20:1.596046
21:4.975197
22:-5.385988
23:0.545521
24:-0.995413
25:-7.945457
639:0.023446
2214:0.060630
5454:0.133315
5984:-0.202895
5986:-0.161800
5987:-0.160367
5993:-0.127047
5995:0.054469
6968:-0.160367
7240:-0.008811
7247:-0.183944
7512:0.056890
7784:-0.041715
7785:0.057050
7786:-0.350085
7787:-0.307487
7819:-0.127047
7923:-0.035022
7924:-0.021601
8878:0.017752
9633:0.014619
9682:-0.075181
9942:-0.058476
9943:-0.075181
11487:0.017752
11490:0.023446
12602:-0.008811
12609:-0.183944
12847:0.036775
12874:0.087604
13134:-0.467882
13135:0.087604
13406:-0.094380
13666:-0.170795
13667:-0.094380
13673:-0.042700
13938:0.089787
14198:0.022057
14199:0.089787
15207:0.133389
16598:0.133315
16858:0.088714
16859:0.133315
17177:-0.127047
17403:0.007983
17662:0.132170
17922:0.074177
17923:0.132170
18466:0.115144
18467:0.019998
19225:0.059845
19251:0.087604
19299:-0.127047
22491:-0.160367
23023:0.015181
23024:-0.029393
23529:-0.033678
23530:-0.009780
23536:-0.042700
25705:-0.294666
25977:0.019063
26521:-0.030317
26522:0.047592
26558:-0.024795
27677:0.080324
30874:-0.307487
31351:0.014619
31883:0.036775
32415:0.054469
33479:-0.092127
34010:-0.042700
34376:0.085101
34377:0.010102
35571:0.240220
35572:0.138499
35574:0.080324
35582:-0.092127
35607:0.059845
36139:0.060699
36659:0.022057
36660:0.089787
36671:0.258282
36925:0.049401
37203:-0.193440
37204:-0.029645
37777:-0.075181
38466:-0.042700
39809:-0.123939
39810:0.060320
39907:0.150836
40969:0.087604
40971:-0.043407
41501:-0.094380
41660:-0.094380
41713:-0.064363
41760:-0.042700
42033:0.089787
42190:-0.009402
42193:0.007703
42245:0.047020
42266:-0.092127
42810:0.111690
43049:-0.137720
43631:0.060630
44161:0.090713
44163:-0.005910
44693:0.133315
44695:-0.064363
45225:-0.042081
45227:0.047020
45757:0.132170
45780:-0.100117
47057:-0.030089
47613:0.104345
47616:0.094705
47617:0.007983
47624:0.060699
47887:0.091767
47888:-0.043708
47894:0.044999
47896:0.059845
48172:0.111690
49236:-0.127047
52428:0.044999
52749:0.011590
53064:-0.064363
53492:-0.257479
53596:0.064800
53597:0.049336
55431:0.054469
55457:-0.075181
55940:-0.012113
58697:0.007703
59099:-0.071330
59100:-0.075181
60295:-0.024795
61415:0.065232
63376:0.060699
63860:0.090713
64392:0.133315
65002:0.007983
65806:0.100046
65807:0.090713
66350:0.040433
66352:0.177057
66622:-0.050036
66624:-0.165100
66625:-0.100117
66633:0.036775
67632:0.094705
71141:0.483768
71142:0.151271
71148:-0.183944
71699:-0.015126
71706:-0.183944
71971:0.087604
72773:-0.042700
72877:-0.092127
75483:0.037988
76015:-0.160367
76800:0.010102
77332:-0.007786
77333:0.047592
78214:0.010102
79255:0.177057
79787:-0.171360
79788:0.030442
81986:-0.307487
83183:-0.124637
83185:-0.131776
83186:-0.160367
83192:-0.127047
83194:0.054469
83561:-0.005910
84543:-0.059379
85087:0.306860
85090:-0.029393
85359:-0.024795
85362:0.023446
86801:-0.042081
86985:0.085101
87331:0.098508
87333:0.171177
87334:-0.044756
90422:0.014619
90921:-0.074920
90922:0.090713
90980:0.036775
91773:0.177057
94173:0.090713
94965:-0.137720
95225:-0.503384
95226:0.132170
95237:-0.042081
95509:0.082020
95769:0.132170
95784:0.014619
96041:0.233688
96042:0.096578
96044:0.080324
96052:-0.092127
96316:0.036775
96499:-0.003913
96554:0.306860
96848:0.054469
97890:-0.042352
97891:0.133389
97912:-0.092127
100040:0.059845
100572:0.060699
100598:-0.094380
101104:0.258282
103280:0.023446
103838:-0.013467
104096:-0.030089
104370:-0.357198
104371:-0.012503
105252:0.065232
105436:-0.094873
105437:0.068209
105443:0.111690
105445:0.014619
106711:0.161336
106712:-0.192287
107269:0.111690
107373:0.150836
108177:-0.075181
111689:-0.029393
112221:0.007703
113962:0.080324
114234:-0.129495
114235:-0.094380
114241:-0.042700
114246:0.256724
114247:0.049401
114506:0.089787
114778:0.506855
114779:0.151271
115884:0.012947
116060:-0.074923
116627:0.111690
116948:0.002368
117112:0.133315
117210:0.085101
117211:0.010102
117740:0.150836
118272:0.306860
118275:-0.029393
118749:0.111690
118753:-0.033773
118754:0.057050
118755:-0.350085
118756:-0.294666
118804:-0.043407
119336:0.030442
119608:-0.042352
119609:0.133389
119767:-0.043407
120140:0.339367
120141:0.306860
120624:0.215740
120672:-0.126680
120673:-0.043407
121156:0.094705
121204:-0.171360
121205:0.030442
121464:0.060630
121467:0.037988
121941:0.068209
121996:-0.005910
121998:0.177057
122473:-0.056459
122474:0.057050
122528:-0.064363
122531:0.065232
123060:0.047020
123537:0.173323
123864:0.130158
123865:-0.005910
124928:0.114149
124929:0.047020
125190:-0.137720
125191:0.215740
127127:-0.160367
130795:-0.007702
130796:0.089787
130797:-0.047304
130798:0.068209
130804:0.111690
130806:0.014619
131171:0.177057
132971:-0.058476
132972:-0.075181
133460:-0.183944
133515:0.220134
133516:-0.192287
133564:0.085101
134411:0.012131
134412:0.083578
136121:0.059845
137916:-0.183944
138345:0.111690
139409:-0.127047
141163:0.060320
141210:-0.183944
141640:-0.025517
141643:0.023446
141695:-0.005910
142601:0.044999
142837:0.150228
142838:0.063989
143109:0.007983
143665:-0.257479
143925:0.060630
143928:0.037988
144191:0.256724
144199:-0.047304
144200:0.068209
144206:0.111690
144208:0.014619
144723:0.249894
145787:-0.257479
147915:0.082020
148979:-0.561080
148980:0.177057
148990:-0.092127
149511:0.371737
149512:0.065232
149804:-0.127047
152514:0.060630
153046:-0.410039
153047:0.028528
153318:-0.094380
154323:-0.030089
154324:0.047592
154879:1.578972
154880:-0.118840
154881:0.082932
154882:0.253219
154884:0.082020
154888:-0.257479
154890:0.258282
154891:0.199993
155178:-0.183944
156242:-0.042700
157362:-0.044756
158147:0.023446
160865:0.037988
162118:0.068209
162662:0.150836
162936:0.017752
163333:0.007703
164288:0.023446
164820:-0.307487
164908:-0.064363
165352:0.007703
166367:0.019063
166368:0.010102
167480:0.068209
168012:-0.100117
168148:0.132170
168544:-0.160367
168678:-0.146988
168681:0.080324
169076:-0.044756
169608:0.080324
171736:-0.074920
171737:0.090713
172268:0.094705
172327:0.054469
172800:0.253252
172801:-0.042081
173072:0.073367
173073:0.133315
173344:0.046904
173616:0.175862
173617:0.061425
173618:0.143499
173619:-0.044756
175465:0.068209
177901:-0.043407
178407:-0.378544
178408:-0.004284
178679:0.060699
179237:0.339367
179238:0.306860
180855:0.010102
180929:-0.092127
181945:0.089787
185185:0.080324
185480:0.085101
186251:0.090713
186781:-0.091118
186783:-0.119670
186784:-0.100117
186792:0.036775
189252:-0.056809
189253:-0.089681
190449:0.168941
190450:0.061425
190451:0.143499
190452:-0.013467
191537:-0.013467
191809:-0.467882
191810:0.087604
192081:-0.009780
192353:0.113819
192354:0.035198
192356:0.007703
193459:0.010102
193991:0.023446
194523:-0.294666
194687:0.090713
195055:0.007703
197071:-0.029393
197183:0.068209
197416:0.054469
197715:-0.059379
198187:-0.686868
198188:0.033405
198247:-0.160367
198732:0.007983
198779:-0.013467
199032:0.036775
199311:0.080324
201439:0.051134
201440:0.060320
201971:0.094705
202493:0.076273
202494:0.130919
202500:0.044999
202502:0.059845
202503:-0.529800
202504:-0.064363
203035:-0.470209
203036:0.047020
203288:-0.059379
203820:0.152469
203821:-0.028996
204702:0.037988
208474:-0.044756
208642:0.044999
210274:0.007703
210818:-0.075181
211090:-0.241464
211139:0.010102
211671:0.023446
213977:-0.046364
215443:0.002368
217468:0.060699
218125:-0.092127
219217:0.150836
220412:0.082020
220750:-0.030317
221282:-0.003913
221283:0.047592
221772:-0.199207
221773:0.030442
221814:-0.366292
221978:0.007983
222346:0.255122
222347:-0.192287
222987:-0.096273
222989:-0.346713
222990:-0.307487
223944:-0.024795
224378:0.144691
224379:-0.005910
224474:-0.024795
224477:0.023446
225006:-0.060770
225007:0.057050
225008:-0.347141
225009:-0.307487
225538:0.142321
225539:-0.028996
225541:0.007703
226019:0.126410
226020:0.035198
226022:0.007703
226070:0.356910
226071:-0.029393
226554:-0.042081
226577:0.068209
226602:-0.376042
226603:-0.012503
227086:0.132170
227668:-0.053602
227669:0.068209
227675:0.111690
227677:0.014619
227923:-0.183944
228198:-0.091118
228200:-0.116433
228201:-0.100117
228209:0.036775
228730:-0.102686
228732:-0.161834
228733:-0.160367
228739:-0.127047
228741:0.054469
229262:0.168439
229263:0.037988
229264:0.179632
229265:-0.044756
229794:0.170608
229795:0.177057
229797:0.080324
229805:-0.092127
230326:-0.222853
230327:0.065232
231924:-0.685465
231925:-0.043708
231931:0.044999
231933:0.059845
232454:-0.504706
232457:0.094705
232458:0.007983
232465:0.060699
233757:0.044999
233861:-0.031460
233862:0.061908
234393:-0.159497
234394:-0.094380
234400:-0.042700
234665:0.089787
236228:0.036775
238061:-0.043801
238063:-0.165100
238064:-0.059379
238072:0.036775
238177:0.065232
238709:0.080324
239494:-0.294666
240026:0.276505
240027:-0.192287
240239:0.085101
240240:0.010102
240908:-0.029393
241863:0.010102
242211:0.177057
242927:-0.029393
243115:0.044999
243743:-0.183944
244807:-0.042700
245237:0.044999
246119:0.037988
246255:0.047020
247183:0.065232
248429:0.051134
248961:0.135158
248962:0.037988
249843:0.215740
250103:0.261031
250104:0.046904
250375:0.094705
250919:0.004401
250922:0.065232
251191:-0.100022
251193:-0.173116
251194:-0.160367
251200:-0.127047
251202:0.054469
255982:0.199993
256254:0.059845
256812:-0.100117
259193:-0.331924
259248:0.030442
260584:-0.167993
260585:-0.043407
261589:-0.258314
