Version 7.10.1
Min label:-1.000000
Max label:1.000000
bits:18
0 pairs: 
0 triples: 
lda:0
1 ngram: 5 
0 skip: 
options:
:0
1:9.100690
2:11.541627
3:-11.313518
4:-2.057520
5:-3.283297
6:7.463086
7:-1.586208
8:-14.006663
9:-11.479417
10:-5.097079
11:42.815186
12:13.994100
13:17.470215
14:-16.596321
15:17.819960
16:1.984380
17:-2.235993
18:10.604373
19:22.670437
20:11.058490
21:18.662926
22:-11.249352
23:2.837991
24:22.796429
25:17.100464
132:-0.103429
2214:0.027145
5984:0.284928
5986:-0.160779
5987:-0.172217
6968:-0.172217
7240:0.049821
7512:-0.030406
7784:0.029138
7786:0.060566
7924:-0.030804
8455:0.019381
8618:0.088191
8878:0.031159
8879:0.088191
9150:0.031287
9410:0.001000
9411:0.031287
9682:-0.030804
9942:0.086194
9943:-0.030804
10474:0.019381
11487:0.034528
11489:0.011034
12602:0.049512
12874:0.005840
13134:0.277843
13135:0.005840
13406:-0.077939
13666:-0.158615
13667:-0.077939
13938:-0.024564
14198:-0.174292
14199:-0.024564
15207:0.088191
18235:0.033255
18466:-0.132543
18467:-0.033469
18477:-0.103429
19225:0.150279
19251:0.005840
22491:-0.172217
23023:0.093390
23529:-0.065020
23530:-0.077939
25977:0.031159
25978:0.088191
26249:0.031287
26521:0.017919
26522:0.036424
26558:-0.001082
26830:0.031287
32415:0.033255
32947:0.086380
33479:-0.068090
34011:-0.103429
34646:0.027140
34647:-0.024127
35571:0.000721
35572:0.097095
35582:-0.068090
35607:0.150279
36139:0.252018
36659:-0.177561
36660:-0.024564
36671:0.072470
36713:0.088191
36925:0.036424
37203:-0.039432
37204:-0.030804
37245:0.031287
37328:-0.103429
37777:-0.030804
38420:0.111712
39809:0.065601
39810:0.027145
39907:0.072780
40439:0.111712
40969:0.005840
40971:-0.030804
41501:-0.077939
41660:-0.077939
42033:-0.024564
42190:0.093390
42192:0.027243
42266:-0.068090
43631:0.027145
44163:0.019396
45227:-0.080786
45780:0.065928
47057:0.023510
47613:0.070564
47616:0.306569
47624:0.252018
47888:0.066276
47896:0.150279
49824:0.068367
51413:0.005840
52749:0.031159
53596:-0.155230
53597:-0.017129
55396:0.019381
55431:0.033255
55457:-0.030804
55940:0.062685
59099:0.062685
59100:-0.037746
59229:0.027140
60295:-0.001082
61414:-0.033469
63376:0.252018
65806:0.066276
66350:0.019396
66352:0.096055
66622:0.049499
66624:0.277798
66625:0.065928
67632:0.284928
67633:0.068367
67643:0.086380
71141:0.140765
71142:0.111712
71699:0.048776
71971:0.005840
72877:-0.068090
76015:-0.172217
77332:-0.001082
77333:0.036424
78396:-0.027274
79255:0.096055
79517:0.003008
79787:-0.174292
83183:0.110162
83184:0.003008
83185:-0.091612
83186:-0.172217
83194:0.033255
83561:0.019396
84543:0.065928
85087:0.111712
85359:-0.001082
85361:0.011034
87331:-0.173996
87333:-0.155577
87334:-0.047722
90709:0.003008
90921:0.066276
91241:0.068367
91773:0.096055
92305:-0.033469
95225:-0.199501
96041:-0.086949
96042:0.097095
96052:-0.068090
96499:0.019722
96554:0.031287
96848:0.033255
97380:0.086380
97890:0.051396
97891:0.088191
97912:-0.068090
98444:-0.103429
99582:0.086380
100040:0.150279
100572:0.252018
100598:-0.077939
101104:0.072470
103824:0.086070
103838:-0.047722
104096:0.023510
104370:-0.164633
105436:0.048776
105437:0.003906
106711:0.032519
106712:0.086070
107373:0.036424
107374:0.088191
107905:-0.086533
108177:-0.030804
114234:-0.089753
114235:-0.077939
114246:0.360332
114247:0.036424
114506:-0.024564
114548:0.005840
114778:0.020221
114779:0.111712
115612:-0.024127
115884:0.031159
116060:0.045796
116416:-0.000011
116417:0.005840
116948:0.086194
117480:0.027140
117481:-0.024127
117740:0.072780
118272:0.111712
118753:0.077219
118755:0.060566
118804:-0.030804
119608:0.053939
119609:0.088191
119767:-0.030804
119841:0.086380
120140:0.626937
120141:0.031287
120672:-0.057624
120673:-0.030804
120934:0.003008
121156:0.305876
121157:0.019396
121204:-0.177561
121464:0.027145
121466:0.068367
121941:0.003906
121996:0.019396
121998:0.096055
122473:0.011848
122530:-0.033469
123007:-0.024564
123060:-0.080786
123537:-0.164633
127127:-0.172217
130795:-0.177561
130796:-0.024564
130797:0.049821
130798:0.003906
131171:0.096055
132971:0.086194
132972:-0.030804
133515:0.054726
133516:0.005840
134096:-0.000011
134097:0.005840
134411:-0.074416
134412:-0.024127
136121:0.150279
136778:0.086380
141163:0.027145
141640:-0.013033
141642:-0.088425
142837:-0.044382
142838:-0.033469
142848:-0.103429
143925:0.027145
143927:0.068367
144191:0.360332
144199:0.049512
144200:0.003906
144723:0.072470
148979:-0.173996
148980:0.096055
148990:-0.068090
152514:0.027145
153046:0.277057
153318:-0.077939
154224:-0.103429
154323:0.020714
154324:0.036424
154879:0.180710
154882:-0.115790
154890:0.072470
154891:0.309459
154907:0.088191
157362:-0.047722
158679:-0.088425
158680:0.230580
160602:-0.033469
160864:0.068367
162118:0.003906
162662:0.072780
162936:0.034528
166365:-0.033302
166367:0.034528
167480:0.003906
168012:0.065928
168544:-0.172217
168678:-0.154589
169076:-0.047722
171736:0.066276
172268:0.306569
172327:0.033255
172800:-0.115790
173344:-0.080786
173616:0.018466
173617:0.076442
173618:-0.175009
173619:-0.047722
173627:0.086380
175465:0.003906
177846:-0.067475
177901:-0.030804
178407:-0.051938
178408:-0.030406
178679:0.252018
178705:0.003008
179237:0.646126
179238:0.031287
180929:-0.068090
181945:-0.024564
186781:0.049499
186783:0.277057
186784:0.065928
188720:0.230580
188721:0.031287
189252:0.086194
190449:0.018466
190450:0.076442
190451:-0.178051
190452:-0.047722
190460:0.086380
191537:-0.047722
191809:0.284389
191810:0.005840
192081:-0.077939
192353:0.102415
192354:0.072780
192355:0.019381
197183:0.003906
197416:0.033255
197715:0.065928
198247:-0.172217
198779:-0.047722
201439:0.065601
201440:0.027145
201971:0.305876
201972:0.019396
202494:0.066276
202502:0.150279
202503:-0.115790
203035:-0.178287
203036:-0.080786
203288:0.065928
203820:0.617585
207627:0.088191
208474:-0.047722
210546:0.001000
210547:0.031287
210818:-0.037746
211090:0.041555
211091:0.230580
212518:-0.033469
213977:0.054943
213978:0.031287
214107:-0.024127
215443:0.086194
217468:0.252018
218125:-0.068090
219217:0.072780
220750:0.019722
221282:-0.013059
221283:0.036424
221502:0.003008
221772:-0.177561
221814:0.044288
221815:0.230580
222346:0.062685
222457:0.005840
222510:0.019396
222878:-0.027274
222987:-0.206827
222989:0.088314
223944:-0.001082
224474:-0.001082
224476:-0.086533
225006:0.020469
225008:0.086194
225538:-0.003442
225540:0.019381
226019:0.073364
226020:0.072780
226021:0.019381
226070:0.109116
226577:0.003906
226602:-0.164633
226835:-0.103429
227668:0.048776
227669:0.003906
228198:0.049499
228200:0.277057
228201:0.065928
228730:0.109698
228731:0.003008
228732:-0.160779
228733:-0.172217
228741:0.033255
229262:-0.084119
229263:0.068367
229264:-0.155577
229265:-0.047722
229273:0.086380
229794:-0.192141
229795:0.096055
229805:-0.068090
230326:-0.154589
230327:-0.033469
230337:-0.103429
230621:0.003008
231925:0.066276
231933:0.150279
232454:0.070564
232457:0.306569
232465:0.252018
233861:0.046938
233862:0.005840
234393:-0.158615
234394:-0.077939
234665:-0.024564
236254:0.031287
238061:0.050211
238063:0.284337
238064:0.065928
240026:0.086194
240509:-0.027274
240510:-0.024127
242211:0.096055
244173:0.150279
246255:-0.080786
248429:0.049499
248430:0.003008
248440:0.033255
250103:-0.170490
250104:-0.080786
250375:0.306569
250921:-0.033469
251191:0.109698
251192:0.003008
251193:-0.160779
251194:-0.172217
251202:0.033255
253674:0.086380
255982:0.309459
256254:0.150279
256812:0.065928
259193:0.074090
260052:0.068367
260584:-0.166744
260585:-0.030804
261589:0.059195
261590:0.230580
