Version 7.10.1
Min label:-0.222000
Max label:1.000000
bits:18
0 pairs: 
0 triples: 
lda:0
1 ngram: 5 
0 skip: 
options:
:0
1:0.050557
2:0.026340
3:0.127270
4:0.004667
5:-0.021061
6:-0.048228
7:-0.019556
8:-0.075809
9:-0.003937
10:0.063213
11:-0.058814
12:-0.067395
13:0.036527
14:-0.040010
15:-0.048592
16:0.012760
17:0.017620
18:-0.093553
19:-0.032898
20:-0.043317
21:-0.015773
22:-0.043697
23:0.085538
24:-0.074963
25:0.043156
26:0.083580
27:0.024104
28:0.018258
560:0.002787
639:-0.000264
1624:-0.003896
1758:-0.010171
1759:0.001254
2214:0.017091
2688:-0.001508
2848:0.000180
3324:-0.010709
3752:0.016596
3856:-0.007211
4388:-0.048606
4389:0.000074
4392:0.000239
4393:0.009944
4394:-0.022857
4683:-0.002872
5454:-0.006342
5802:0.009151
5880:-0.000719
5984:-0.019714
5986:-0.012035
5987:-0.000139
5995:0.000367
5998:0.003307
6968:-0.000139
7022:0.004504
7240:0.005128
7241:0.004320
7242:0.005102
7243:-0.001650
7282:0.004453
7283:0.004504
7285:0.002748
7512:0.008139
7514:0.000720
7784:0.009939
7785:0.000318
7787:-0.001429
7788:-0.009938
7790:-0.006685
8455:0.005893
8456:0.002540
8458:-0.017740
8727:-0.001250
9150:0.003094
9410:-0.007961
9411:0.003094
9413:0.009032
9574:-0.010549
10214:0.002540
10474:0.005595
10475:0.002540
10477:-0.017740
10746:-0.001250
11006:0.004119
11007:-0.001250
11013:-0.000551
11487:0.006065
11488:-0.002699
11489:0.017290
11490:-0.000264
11494:-0.000551
12082:0.003458
12342:0.004320
12602:0.004664
12603:0.004320
12604:0.005102
12605:-0.001650
12771:-0.001648
12847:-0.001728
12874:0.005416
13134:-0.015347
13135:0.005416
13141:0.014607
13405:-0.004517
13406:-0.000117
13618:0.000081
13666:-0.011166
13667:-0.000117
13669:-0.009581
13890:-0.006342
13938:0.003899
14198:-0.008793
14199:0.003899
14205:0.003707
14207:0.005102
14210:0.005749
14732:-0.006685
15207:0.001668
15274:-0.007211
15479:0.005102
15796:-0.002487
15806:-0.011385
16066:-0.002618
16273:0.000720
16326:-0.008462
16327:-0.002618
16333:-0.006054
17130:0.018651
17390:-0.009944
17391:0.018651
17397:-0.009518
17402:0.014307
17924:-0.005206
17934:0.004626
18106:0.001796
18194:0.040669
18235:0.000367
18466:0.006476
18467:-0.002022
18469:-0.009837
18470:-0.011567
18471:-0.010954
18472:0.002815
18474:-0.000002
18486:-0.007361
18742:0.000613
19225:0.003182
19251:0.005416
20317:0.006592
22332:-0.006685
22491:0.026163
23023:0.007671
23024:-0.007130
23330:-0.005142
23529:0.013048
23530:0.001557
23532:-0.009581
23533:0.000239
23534:0.006057
23535:-0.022857
23537:-0.008588
23801:-0.002416
24345:-0.000002
24721:-0.001975
24889:-0.005206
25161:0.006057
25705:-0.001429
26249:0.003094
26521:-0.026016
26830:0.003094
27677:-0.001529
27736:-0.001940
29755:-0.001940
30287:0.000014
30874:-0.001429
31883:-0.001728
32415:0.000367
32674:-0.008588
32947:-0.003323
33310:-0.005229
33479:0.005335
34646:-0.006769
34647:-0.002965
35075:-0.002914
35117:0.004504
35571:-0.032219
35572:-0.010046
35573:-0.006685
35574:-0.001529
35578:-0.004840
35579:-0.010562
35582:0.005335
35585:0.002120
35607:0.003182
35765:-0.002618
35843:0.042150
36139:-0.015392
36387:-0.036931
36388:-0.000919
36659:-0.010645
36660:0.003899
36666:0.003707
36671:-0.006462
36931:-0.000919
37203:0.019794
37204:0.005307
37206:-0.001648
37210:-0.004518
37214:0.000014
37217:0.007753
37245:0.003094
37964:0.003458
37965:-0.006990
38309:0.002540
38311:-0.005229
38420:0.018714
38841:-0.001250
39054:0.008163
39530:-0.006427
39809:-0.005560
39958:0.002787
40062:0.003458
40437:0.004320
40439:0.018714
40969:0.005416
41501:-0.000117
41503:0.006359
42033:0.003899
42035:0.006592
42190:-0.011342
42192:-0.017251
42193:-0.007160
42266:0.005335
42517:-0.005206
42565:-0.000919
43354:0.005971
43581:-0.001616
43582:0.006445
43586:-0.010709
43589:-0.000002
43631:0.017091
44161:-0.002618
44163:-0.012469
44661:0.004389
44662:0.004504
44664:0.002748
44693:-0.006342
44695:0.006445
45144:-0.001387
45225:0.018651
45227:0.030119
45757:0.011842
45780:-0.002240
46292:0.001796
47057:0.005616
47058:0.004504
47060:0.002748
47355:-0.009994
47613:0.004064
47614:0.000081
47615:-0.008448
47616:0.000428
47617:0.014130
47618:-0.055399
47619:-0.001103
47623:-0.002416
47624:-0.015392
47633:0.006973
47873:-0.007361
47885:-0.035095
47888:-0.005560
47896:0.003182
47899:0.007556
49370:0.002815
49824:-0.005619
50368:0.006996
51413:-0.002389
52002:0.005102
52479:0.005004
53064:-0.074597
53172:0.006056
53596:-0.009999
53597:0.003899
53603:0.003707
54036:0.009119
54774:-0.002914
55124:-0.001648
55396:0.008003
55397:0.002540
55399:-0.017740
55431:0.000367
55668:-0.001250
55940:-0.004040
55941:0.001564
55943:0.000613
55944:-0.030904
55946:0.005102
56122:-0.010709
57912:-0.024532
57913:0.006592
57914:0.005102
57919:0.002787
57920:0.008163
58697:0.045453
59099:0.006969
59100:0.005518
59106:0.012381
59229:-0.001553
59230:0.001564
59645:0.006056
59682:0.003458
59683:-0.006990
60348:0.017091
60772:0.008163
61003:-0.001940
61414:-0.008224
61810:0.005749
61811:-0.016282
62874:-0.010171
62875:0.001254
62900:-0.010562
63406:-0.011385
63883:-0.001648
63908:-0.002416
63964:0.000180
65002:-0.022955
65003:-0.003318
65534:0.004626
65806:-0.005560
66080:-0.002487
66092:-0.027028
66350:-0.011032
66352:-0.002504
66622:-0.004867
66624:-0.013863
66625:0.003333
66626:0.002937
66627:-0.008637
66628:-0.005206
66632:-0.004517
66633:-0.001728
67100:0.014307
67632:-0.027871
67633:-0.005619
67636:-0.012294
67637:0.012091
67638:-0.001700
68164:-0.040118
68165:-0.002504
68171:0.005706
68880:-0.005871
70852:-0.002444
70853:0.001270
71141:0.004101
71142:0.001462
71143:0.004893
71144:-0.006981
71145:0.000127
71146:-0.047424
71147:-0.002487
71149:0.021194
71151:0.001796
71152:-0.001940
71685:-0.002914
71699:0.008759
71700:0.004320
71702:-0.001650
71971:0.005416
72877:0.005335
73045:-0.002487
73861:0.000613
74405:0.004504
74677:0.000845
75736:-0.005142
76015:-0.000139
78396:0.010026
78398:-0.002356
78399:0.000941
78723:-0.006685
79151:-0.009518
79255:-0.002504
79517:-0.001582
79787:-0.011197
79788:0.006359
79792:-0.006427
79795:-0.008588
81350:-0.004517
81963:-0.000919
81986:-0.001429
83105:-0.011385
83183:0.014657
83184:-0.001582
83185:-0.007441
83186:-0.000139
83190:-0.003896
83194:0.000367
83197:0.003307
83561:-0.012469
83607:-0.009518
83609:0.016596
83999:-0.010954
84271:0.005749
84272:-0.016282
84543:-0.002240
85087:0.013674
85203:-0.011385
85359:-0.007101
85361:-0.017121
85362:-0.000264
85389:0.005004
85576:-0.022857
86465:-0.005142
86574:0.034552
86801:0.018651
86901:-0.009518
87331:0.010936
87333:-0.011077
87334:-0.003721
87335:0.008553
87336:-0.035225
87337:0.003056
87341:-0.005101
87342:-0.003323
87468:0.006056
87517:-0.002872
88581:0.000720
88593:0.034552
89113:0.000074
89270:0.012756
89657:-0.006427
89802:0.003604
89803:-0.001250
89809:-0.000551
90709:-0.001582
90921:-0.005560
90980:-0.001728
91241:-0.005619
91510:0.012381
91773:-0.002504
91785:0.006996
92305:-0.008224
92328:-0.006427
92577:-0.000919
92849:-0.010709
94188:-0.001940
94433:0.000081
94669:0.004806
94670:0.000364
94705:-0.006342
94720:0.000014
94903:-0.006301
95225:-0.030935
95226:0.008230
95227:-0.010919
95228:0.000444
95230:-0.000836
95232:-0.012749
95235:-0.001387
95236:-0.002914
95238:-0.008948
95241:0.006056
95247:0.004310
95435:-0.000312
95436:0.000364
95497:-0.009993
95498:0.018651
95504:-0.009518
95769:0.011842
95772:-0.012025
95773:-0.000217
95918:0.008386
96041:0.034810
96042:-0.009664
96043:-0.006685
96044:-0.001529
96048:-0.001508
96049:-0.010562
96052:0.005335
96055:0.002120
96316:-0.001728
96554:0.018714
96848:0.000367
97380:-0.003323
97620:0.000074
97890:-0.001510
97891:0.001668
97912:0.005335
99508:-0.002914
100040:0.003182
100114:-0.005101
100572:-0.015392
100598:-0.000117
101104:-0.006462
101208:0.005749
101209:-0.016282
101920:-0.010562
102192:-0.003896
102298:-0.010562
102774:0.006996
103038:0.005102
103202:-0.001975
103280:-0.000264
103306:0.005749
103824:-0.002389
103838:-0.005820
104370:-0.001230
104371:0.000720
104377:-0.004518
105166:-0.006685
105436:-0.008042
105437:-0.002907
106230:-0.002487
106711:-0.002704
106712:-0.002389
106713:0.002183
106714:0.000941
107294:-0.022857
107905:-0.008299
107906:0.003094
107908:0.009032
108358:-0.005206
109024:0.051215
109025:-0.000919
109083:0.000014
109296:-0.002487
109422:0.002079
110486:0.002815
112221:-0.007160
112420:0.001270
112614:-0.001103
113690:-0.011385
113962:-0.001529
114234:-0.010964
114235:-0.000117
114237:-0.009581
114288:-0.000743
114289:0.001270
114506:0.007169
114548:-0.002389
114602:-0.004857
114778:0.000489
114779:0.000100
114780:0.004147
114781:-0.005258
114782:0.000127
114783:-0.047424
114784:-0.002487
114786:0.021194
114788:0.001796
114789:-0.001940
115246:-0.006685
115357:0.003707
115461:0.000720
115612:-0.002965
115614:0.005004
115723:-0.002872
115993:-0.024687
115994:-0.005229
115998:-0.005142
116001:-0.005871
116060:-0.002056
116144:-0.005229
116416:0.009000
116417:-0.002389
116840:-0.007787
116841:-0.002618
116847:-0.006054
117480:-0.004113
117481:-0.002965
117740:0.001668
117742:-0.002872
118012:-0.023424
118013:-0.005229
118017:-0.005142
118020:-0.005871
118272:0.018714
118753:0.009982
118754:0.000318
118756:-0.001429
118757:-0.009938
118759:-0.006685
118804:0.000590
118806:0.000720
119336:0.006359
119338:0.000074
119608:-0.001076
119609:0.001668
119813:0.003707
119815:0.002787
119841:-0.003323
119868:0.006592
120113:-0.004517
120140:0.038674
120141:0.018714
120145:0.034552
120148:0.021194
120510:-0.007361
120657:0.021194
120672:0.007488
120673:0.000590
120934:-0.001582
121156:-0.023909
121157:-0.012469
121158:-0.006685
121163:-0.001975
121164:-0.010562
121204:-0.013046
121205:0.006359
121209:-0.006427
121212:-0.008588
121464:0.017091
121466:-0.005619
121941:0.012101
121996:-0.012469
121998:-0.002504
122473:-0.000604
122474:0.000318
122528:0.006445
122530:-0.008224
122901:0.005706
123007:0.003899
123060:0.030119
123107:0.003707
123332:0.007655
123333:0.017091
123337:0.006996
123340:0.008386
123537:0.013399
123539:-0.020520
123540:-0.005258
123541:0.000127
123542:-0.063138
123543:-0.002487
123547:0.001796
123548:-0.001940
123595:0.009151
123596:-0.000217
124396:-0.001700
124397:0.006445
124401:-0.010709
124404:-0.000002
124658:0.000081
125188:-0.009994
125460:0.024051
125461:0.010816
125462:-0.010683
125463:0.000444
125465:-0.000836
125470:-0.001387
125471:-0.002914
125473:-0.008948
125476:-0.007310
125482:0.004310
127127:-0.000139
128534:-0.005142
130687:0.000180
130795:0.026249
130796:0.006325
130797:-0.011035
130798:-0.002907
130802:0.002879
130803:0.008163
131171:-0.002504
131883:0.002079
132124:0.021194
132427:0.003458
132428:-0.006990
132699:0.000172
133243:0.000528
133515:-0.001094
133516:-0.002389
133517:0.000532
133518:0.000941
134096:-0.026673
134097:-0.002389
134411:0.030119
135487:-0.010171
136121:0.003182
136320:0.001796
136778:-0.003323
136804:0.002540
138727:-0.012025
138980:0.034552
139893:-0.002416
140044:0.000172
140576:0.037845
140577:0.005004
140583:0.012381
140981:-0.000217
141640:-0.006879
141642:-0.018692
141643:-0.000264
142837:-0.008136
142838:-0.003416
142840:-0.011231
142841:-0.008422
142842:-0.010954
142843:0.002815
142845:-0.000002
142857:-0.007361
143031:0.007925
143032:0.017091
143036:0.006996
143039:0.008386
143109:0.014307
143110:-0.003318
143381:-0.010549
143925:0.017091
143927:-0.005619
144197:0.047856
144198:0.006592
144199:-0.011632
144200:-0.002907
144204:0.002787
144205:0.008163
144723:-0.006462
145207:-0.006342
145502:0.005102
145739:0.018651
146853:-0.000719
148427:0.000941
148447:0.004626
148820:0.002079
148979:-0.011823
150076:0.008163
150348:0.012722
150577:-0.003468
150578:0.000444
150580:-0.000836
150585:-0.001387
150586:-0.002914
151436:0.000941
151563:-0.000551
151667:0.005004
151714:-0.005871
151980:0.001270
152514:-0.026762
153046:-0.013176
153047:0.005416
153053:0.014607
153318:-0.000117
153582:-0.000551
153842:0.021194
154323:0.029164
154879:0.019765
154880:-0.009994
154881:-0.005206
154882:-0.011823
154883:0.004626
154886:-0.000719
154887:-0.027028
154890:-0.006462
154893:-0.034044
154906:-0.008588
155438:0.008163
155572:0.006996
155710:0.014607
156019:-0.000551
156636:-0.002888
156774:0.003707
157034:0.008386
157362:-0.005820
157566:-0.010562
158098:-0.000002
158147:-0.038455
158630:0.000180
158679:0.010346
158680:0.002322
158902:-0.006054
159107:-0.004518
159213:-0.001250
159266:0.006592
159313:-0.000551
159743:-0.003154
159746:0.000613
159747:-0.030904
159749:0.005102
159966:-0.009518
160602:-0.008224
160680:-0.000217
160758:-0.027028
160864:-0.005619
162118:-0.002907
162160:0.000941
162662:0.001668
162664:-0.002872
162692:0.000613
162934:-0.040367
162935:-0.005229
162939:-0.005142
162942:-0.005871
163333:-0.007160
163358:-0.001387
164288:-0.000264
164820:-0.001429
164908:0.006445
164956:-0.012749
165352:-0.007160
165884:0.000172
166365:-0.020914
166366:0.000528
166368:-0.017740
166370:-0.005142
166373:-0.005871
166416:-0.001648
166893:0.008163
167082:-0.010549
167220:0.005102
167377:0.000720
167480:-0.002907
167614:0.005551
167615:-0.001582
167621:-0.003896
168012:-0.002240
168148:0.011842
168269:0.001796
168544:-0.000139
168678:0.027926
168681:-0.001529
168689:0.005335
168692:0.002120
168813:-0.005871
169076:-0.005820
169348:-0.006685
169608:-0.001529
170140:-0.035625
170141:-0.000919
170412:-0.002487
170617:0.006592
171204:-0.010549
171693:0.003458
171736:-0.005560
172268:0.024641
172269:-0.006342
172327:0.000367
172540:-0.005206
172800:-0.011823
172984:-0.001940
173010:0.004504
173344:0.023072
173616:0.000429
173617:0.001371
173618:-0.007302
173619:-0.003721
173620:-0.009216
173621:-0.010364
173622:0.002079
173624:0.008386
173626:-0.005101
173627:-0.003323
175465:-0.002907
176099:-0.005101
176250:0.000613
177846:-0.006559
177901:0.000590
178407:-0.018055
178408:0.004566
178410:-0.001648
178414:0.012722
178418:0.000014
178421:0.007753
178601:-0.006054
178679:-0.015392
178705:-0.001582
178951:-0.001387
179237:0.039389
179238:0.018714
179242:0.034552
179245:0.021194
179495:0.008386
180039:-0.022857
180311:0.034552
180929:0.005335
181626:-0.007361
181671:-0.001165
181672:0.001270
181945:0.003899
183057:-0.006054
183059:-0.001975
183754:0.006973
185026:-0.002487
185185:-0.001529
186251:-0.002618
186351:-0.006054
186781:-0.002597
186783:-0.048667
186784:0.003333
186785:0.002937
186786:-0.008637
186787:-0.005206
186791:-0.004517
186792:-0.001728
187415:0.016596
188720:0.037296
189524:0.002540
189839:0.001796
190449:0.022191
190450:0.001371
190451:-0.009053
190452:-0.003721
190453:-0.009216
190454:-0.010364
190455:0.002079
190457:0.008386
190459:-0.005101
190460:-0.003323
190721:-0.001103
191265:-0.007211
191266:0.001254
191537:-0.005820
191778:0.034552
191809:-0.015549
191810:0.005416
191816:0.014607
191863:0.000941
192081:0.005161
192083:0.000074
192353:-0.006211
192354:0.003923
192355:-0.011264
192356:-0.007160
192360:0.005971
192395:0.000613
192842:0.009944
193568:0.000172
193931:-0.027028
193991:-0.000264
194523:-0.001429
194836:0.008163
195055:-0.007160
195313:0.012381
195587:0.000172
196119:-0.001648
196808:0.000074
197183:-0.002907
197416:0.000367
197655:-0.009994
197715:-0.002240
198247:-0.000139
198459:0.018651
198504:-0.000551
198731:-0.022955
198779:-0.005820
199311:-0.001529
199539:0.000941
199564:-0.004517
199843:-0.025920
199844:0.006592
199845:0.005102
199850:0.002787
199851:0.008163
200022:-0.002914
200048:0.004320
200907:-0.010549
201114:0.006359
201439:-0.005560
201454:0.001796
201935:-0.000613
201936:0.001270
201971:0.014626
201972:-0.012469
201973:-0.006685
201978:-0.001975
201979:-0.010562
202479:0.004310
202491:0.076374
202492:0.040669
202494:-0.005560
202502:0.003182
202503:-0.011823
202504:-0.005336
202505:0.007556
202765:0.000081
203035:0.016591
203036:0.030119
203037:-0.002487
203039:-0.011385
203042:0.016596
203043:0.000180
203288:-0.002240
203582:-0.004517
203583:0.005004
203820:0.056159
203821:-0.002872
203827:0.005971
204354:-0.000919
204646:-0.005101
204884:0.010094
204887:-0.001648
204895:0.000014
204898:0.007753
206774:-0.001387
207838:-0.002416
208418:0.006056
208474:-0.005820
208746:-0.006685
208914:0.000180
209186:-0.004840
210274:-0.007160
210546:0.026833
210547:0.003094
210549:0.009032
210818:-0.002965
210820:0.005004
211090:0.012761
211091:0.002322
211368:-0.005142
211671:-0.000264
212305:0.001796
212518:-0.008224
212790:-0.000919
213062:-0.010709
213496:0.034552
213977:0.000953
213978:0.002087
213980:0.004550
213981:-0.030904
213983:0.005102
214107:-0.002965
214324:0.001796
214560:0.006057
214807:0.014607
214911:-0.002872
216302:-0.000217
216452:-0.004517
216688:0.015647
216834:-0.011385
217135:0.000014
217468:-0.015392
217516:-0.005101
217752:-0.010954
218125:0.005335
218151:-0.001250
219154:-0.004140
219263:0.014607
219644:-0.001387
219686:-0.000721
219687:0.000364
219880:0.042150
220606:-0.010549
220708:-0.002416
221230:-0.006685
221232:0.005102
221282:-0.007836
221391:-0.001648
221502:-0.001582
221772:0.010230
221773:0.002431
221776:0.000239
221777:0.006057
221778:-0.022857
221780:-0.008588
221814:0.012689
221815:0.002322
222346:0.010679
222348:-0.000772
222349:0.000941
222351:-0.003896
222457:0.005416
222510:-0.012469
222557:0.014607
222878:-0.004766
222879:0.001564
222881:0.000613
222882:-0.030904
222884:0.005102
222987:0.014570
222990:-0.001429
222991:-0.009938
222993:-0.006685
223042:0.006445
223410:0.019843
223411:0.005004
223417:0.012381
223621:0.002787
223846:0.000081
224474:-0.007318
224476:-0.017071
224477:-0.000264
225006:0.009862
225007:0.000318
225009:-0.001429
225010:-0.009938
225012:-0.006685
225538:-0.007354
225539:-0.002872
225540:-0.011034
225541:-0.007160
225545:0.005971
225730:0.004504
226019:0.002578
226020:0.003923
226021:-0.008527
226022:-0.007160
226026:0.005971
226070:0.011149
226071:-0.007130
226072:0.003629
226073:-0.005258
226074:0.000127
226075:-0.063138
226076:-0.002487
226080:0.001796
226081:-0.001940
226577:-0.002907
226602:0.006016
226603:0.000720
226605:-0.001648
226609:-0.004518
226613:0.000014
226616:0.007753
227107:-0.005101
227134:0.028253
227135:0.000074
227138:0.000239
227139:0.009944
227140:-0.022857
227651:-0.008588
227668:-0.009127
227669:-0.002907
228117:0.006056
228195:-0.006685
228198:-0.003535
228200:-0.011667
228201:0.003333
228202:0.002937
228203:-0.008637
228204:-0.005206
228208:-0.004517
228209:-0.001728
228467:-0.005142
228730:-0.005198
228731:-0.001582
228732:-0.008807
228733:-0.000139
228737:-0.003896
228741:0.000367
228744:0.003307
229262:-0.011090
229263:-0.005619
229264:-0.008509
229265:-0.003721
229266:-0.009216
229267:-0.016745
229268:0.002079
229272:-0.005101
229273:-0.003323
229774:0.000613
229794:0.026607
229795:-0.002504
229797:-0.001529
229801:0.005706
229805:0.005335
229808:0.002120
230137:-0.010562
230302:0.004310
230326:-0.035528
230327:-0.008224
230329:0.076714
230330:-0.011567
230331:-0.002888
230332:0.002815
230346:-0.007361
230621:-0.001582
230858:0.024446
230862:-0.011385
231392:-0.010015
231393:0.000444
231395:-0.000836
231400:-0.001387
231401:-0.002914
231922:-0.028638
231925:-0.005560
231933:0.003182
231936:0.007556
232454:0.010571
232455:0.000081
232456:-0.008416
232457:-0.036759
232458:-0.023143
232459:-0.055399
232460:-0.001103
232464:-0.002416
232465:-0.015392
232474:0.006973
233861:-0.012469
234393:-0.006682
234394:-0.000117
234396:-0.009581
234665:0.003899
234937:0.005749
236228:-0.001728
236254:0.003094
237320:-0.005229
238061:0.018826
238062:-0.000919
238063:-0.014099
238064:0.003333
238065:0.002937
238066:-0.008637
238067:-0.005206
238071:-0.004517
238072:-0.001728
238605:-0.012749
238709:-0.001529
238877:0.002815
239149:0.015647
239343:-0.001387
239494:-0.001429
239965:0.004826
239966:-0.001250
239972:-0.000551
240509:0.008569
240510:0.005518
240516:0.012381
241417:-0.002487
242147:-0.000551
242211:-0.002504
244044:-0.005101
244173:0.003182
244275:0.014607
244680:0.000172
245189:-0.002618
245339:0.002879
245572:0.000014
246255:0.030119
247467:-0.005269
248247:-0.012025
248270:-0.005206
248429:-0.005560
248531:0.009119
248724:0.000074
249063:-0.012749
249268:-0.006427
249547:0.004558
250028:-0.101356
250029:0.051113
250045:-0.007361
250103:-0.005740
250104:-0.124507
250105:-0.002487
250107:-0.011385
250110:0.009119
250111:0.000180
250313:0.001270
250375:0.061865
250376:-0.006342
250647:-0.008740
250648:-0.002618
250654:-0.006054
250659:-0.000719
250919:-0.002822
250921:-0.008224
251191:0.017174
251192:-0.001582
251193:-0.007678
251194:-0.000139
251198:-0.003896
251202:0.000367
251205:0.003307
252768:0.004320
253674:-0.003323
254331:0.000014
256086:0.012091
256254:0.003182
256812:-0.002240
257342:0.002879
258080:-0.010562
258448:0.012381
258557:0.005971
258612:-0.000002
258702:0.006021
258703:0.004504
258705:0.002748
259246:-0.000145
259247:0.000364
259248:0.006359
260052:-0.005619
260576:0.005971
260584:0.007213
260585:0.000590
261589:-0.005365
261590:0.002322
261640:-0.004518
261861:0.006973
