Version 7.10.1
Min label:-1.000000
Max label:1.000000
bits:18
0 pairs: 
0 triples: 
lda:0
1 ngram: 5 
0 skip: 
options:
:0
1:1.248472
2:-0.443724
3:5.222229
4:0.278290
5:-2.714771
6:7.022115
7:1.275129
8:0.347542
9:1.651710
10:-1.314429
11:-0.515704
12:-0.223249
13:-0.125513
14:-0.413735
15:-2.920263
16:-1.401065
17:-3.746684
18:-2.924740
19:3.331040
20:-2.566517
21:-0.776538
22:1.236350
23:0.772197
24:-0.525091
25:-2.549952
639:0.085428
2156:0.014484
2260:0.026503
2262:-0.120057
3220:-0.208464
5227:0.044557
5454:-0.152069
5554:0.026503
5984:-0.147340
5986:-0.092778
5987:0.151406
5989:0.114819
5990:0.039454
5994:0.088137
6424:0.088615
6697:0.305158
6968:0.068973
7240:-0.148152
7241:0.032037
7247:0.047197
7512:0.212714
7784:0.045627
7785:0.162834
7786:0.018306
7787:-0.114927
7791:0.065048
7923:-1.288562
8878:-0.081259
9633:0.002200
9682:-0.175735
9942:-0.057216
9943:-0.175735
9945:-0.221673
10981:0.123801
11487:0.069869
11490:0.085428
11491:0.078756
12342:0.032037
12602:-0.151471
12603:0.032037
12609:0.047197
12847:0.044816
12874:0.137376
13134:0.287531
13135:0.137376
13406:0.111929
13666:-0.076542
13667:0.111929
13673:0.050235
13938:0.151298
14198:0.264074
14199:0.151298
14201:0.343879
15207:0.129437
15264:0.028284
16598:-0.152069
16858:0.180373
16859:-0.152069
16865:0.026503
16870:0.213959
17402:0.136486
17662:-0.017356
17922:-0.222842
17923:-0.017356
17929:0.047578
17934:-0.045685
18466:0.088941
18467:0.032951
18468:0.028284
18473:-0.208464
18474:0.107701
18767:0.088137
19225:0.034999
19251:0.137376
20951:-0.213351
22491:0.068973
23023:-0.229464
23024:-0.182623
23030:-0.292786
23529:-0.061770
23530:0.178721
23536:0.050235
24345:0.107701
24617:0.014484
25705:-0.114927
25977:-0.013427
26249:-0.132434
26521:-0.072088
26522:0.020637
26558:0.039460
27677:0.037043
27949:0.028284
30874:-0.114927
31351:0.002200
31883:0.044816
32265:0.088615
34010:0.050235
34114:-0.182623
34376:0.162834
35069:0.348794
35571:0.112964
35572:-0.026218
35574:0.037043
35575:-0.391694
35576:0.046555
35577:0.061998
35579:0.018774
35607:0.034999
36139:0.057207
36659:0.266752
36660:0.151298
36662:0.343879
36671:0.137905
37203:0.141102
37204:0.122429
37208:0.123801
37777:-0.175735
38466:0.050235
39809:-0.008563
39817:-0.213351
39907:0.129437
40437:0.032037
40969:0.137376
40971:0.151280
41501:0.111929
41554:0.014484
41660:0.111929
41713:0.018856
41760:0.050235
42033:0.151298
42190:-0.322787
42193:0.040368
42196:0.028284
42245:0.004852
42538:0.088137
43049:0.212269
44161:0.007656
44163:0.021191
44693:-0.152069
44695:0.018856
45225:0.261698
45227:0.004852
45757:-0.017356
45780:-0.185168
47057:0.023912
47613:0.804578
47616:0.274279
47617:0.136486
47624:0.057207
47627:0.125329
47887:0.142948
47888:0.235877
47889:0.020250
47890:0.125382
47895:0.004364
47896:0.034999
47905:0.032610
49340:0.107701
50777:0.080041
52749:-0.160233
53064:0.018856
53596:0.218873
53597:0.151298
53599:0.343879
54308:0.061998
55457:-0.175735
55940:-0.052922
55941:-0.132434
57633:0.044557
58546:0.004364
58697:0.040368
59099:-0.067992
59100:-0.175735
59102:-0.221673
60295:0.109187
60296:0.013427
61414:0.062325
62343:0.305158
62368:-0.213351
63376:0.057207
63432:0.107701
63860:0.007656
64392:-0.152069
64470:0.020250
65002:0.136486
65534:-0.045685
65535:0.805703
65806:0.013808
65807:0.007656
66350:0.024644
66352:-0.027230
66622:-0.024161
66624:-0.103585
66625:-0.185168
66633:0.044816
67100:0.136486
67473:0.039454
67632:0.274279
71141:0.189406
71142:-0.045882
71148:-0.291872
71699:-0.151471
71700:0.032037
71706:0.047197
71971:0.137376
72773:0.050235
75289:0.046555
76015:0.068973
76800:0.013427
77283:0.107701
77292:0.032610
77332:-0.092356
77333:0.020637
77760:-0.292786
77815:0.271803
79255:-0.027230
79517:0.013427
79787:-0.236517
79788:0.076544
81986:-0.114927
83183:0.001257
83184:0.013427
83185:-0.076843
83186:0.151406
83188:0.114819
83189:0.039454
83193:0.088137
83561:0.021191
84543:-0.185168
84671:0.088615
85087:0.221261
85089:-0.182623
85359:0.193539
85362:0.085428
85363:0.078756
86030:-0.182623
86801:0.261698
86985:0.162834
87331:-0.183274
87333:-0.286447
87334:-0.191964
87345:-0.371490
88049:-0.182623
88061:0.044557
89064:0.348794
89125:0.123801
90422:0.002200
90709:0.013427
90921:-0.073067
90922:0.007656
90980:0.044816
91773:-0.027230
92305:0.062325
93381:0.088615
94173:0.007656
94752:0.088137
94965:0.212269
95225:-0.632025
95226:-0.017356
95232:0.047578
95237:0.261698
95769:-0.017356
95784:0.002200
96041:0.087196
96042:-0.026476
96044:0.037043
96045:-0.391694
96046:0.046555
96047:0.061998
96049:0.018774
96316:0.044816
96499:-0.123108
96554:0.219476
97890:-0.223422
97891:0.129437
97895:0.044557
97898:0.080041
100040:0.034999
100572:0.057207
100598:0.111929
101104:0.137905
101376:0.004364
101920:0.018774
102407:0.032610
102736:0.123801
103280:0.085428
103679:0.028284
103838:2.176186
104096:-0.106630
104370:-0.231786
104371:0.135856
105436:-0.151508
105437:0.012103
105445:0.002200
105698:0.028284
106068:-0.120057
106711:-0.063182
106712:-0.071690
107373:0.128314
108177:-0.175735
108890:0.039454
109954:0.061998
110431:0.044557
112221:0.040368
113146:0.575578
113962:0.037043
114234:-0.091671
114235:0.111929
114241:0.050235
114506:0.151298
114778:0.238983
114779:-0.046724
114785:-0.292786
115080:-0.132434
115884:-0.091392
116060:-0.016733
116948:-0.057024
116949:-0.132434
117112:-0.152069
117210:0.162834
117384:0.020250
117740:0.129437
118272:0.219476
118274:-0.182623
118753:0.068176
118754:0.162834
118755:0.003379
118756:-0.114927
118760:0.065048
118804:0.151280
119336:0.076544
119608:-0.220041
119609:0.129437
119613:0.044557
119616:0.080041
119767:0.151280
120140:0.102124
120141:0.219476
120624:0.411050
120672:0.236294
120673:0.151280
120677:0.123801
120929:0.065048
120934:0.013427
121156:0.274279
121204:-0.233810
121205:0.076544
121941:0.010432
121996:0.021191
121998:-0.027230
122473:0.903955
122474:0.162834
122480:0.065048
122528:0.018856
122530:0.062325
123060:0.004852
123537:0.070150
123864:0.179869
123865:0.021191
123872:0.018774
124928:0.632984
124929:0.004852
124933:0.088615
124936:0.271803
125190:0.212269
125191:0.411050
125192:0.209094
126491:0.004364
127127:0.068973
130324:0.013427
130795:0.277087
130796:0.151298
130797:-0.148050
130798:0.355007
130806:0.002200
131171:-0.027230
131611:-0.205343
132760:-0.132434
132971:-0.072072
132972:-0.175735
132974:-0.221673
133460:0.047197
133515:-0.073660
133516:-0.071690
133564:0.162834
134411:1.209454
136121:0.034999
137469:0.088615
137916:0.047197
141110:0.032037
141210:0.047197
141640:0.193218
141643:0.085428
141644:0.078756
141695:0.021191
142577:0.209094
142837:0.147240
142838:0.171039
142839:0.028284
142844:-0.205343
142845:0.107701
143109:0.136486
143655:0.028284
144199:-0.151386
144200:0.012103
144208:0.002200
145255:0.173186
148447:-0.045685
148790:-0.213351
148979:-0.027601
148980:-0.027230
148983:0.305158
148984:0.046555
148985:0.061998
149511:0.469907
149512:0.062325
149518:-0.137873
150620:0.028284
153046:-0.020832
153047:0.137376
153310:0.080041
153318:0.111929
154323:-0.072086
154324:0.020637
154879:1.007705
154880:0.402418
154881:-0.232394
154882:0.123438
154883:0.223640
154884:0.542097
154885:0.575578
154889:0.173186
154890:0.137905
154892:0.602129
154895:0.348794
154899:0.406283
154901:0.411872
155178:0.047197
156242:0.050235
157034:-0.213351
157362:-0.191964
157566:0.018774
158098:0.107701
158147:0.085428
158630:0.271803
159434:0.026503
160070:0.028284
160498:0.047578
160602:0.062325
161574:0.046555
162118:0.010432
162662:0.129437
162697:0.088137
162936:-0.012589
162937:0.013427
163333:0.040368
163756:0.013427
164288:0.085428
164820:-0.114927
164908:0.018856
164954:0.047578
165352:0.040368
166367:0.054646
166368:0.013427
167480:0.010432
167921:0.123801
168012:-0.185168
168148:-0.017356
168248:0.047578
168544:0.068973
168678:-0.271002
168681:0.037043
168682:-0.687769
169076:-0.191964
169608:0.037043
169880:0.028284
171736:-0.073067
171737:0.007656
172268:0.274279
172800:0.019522
172801:0.261698
173072:0.182990
173073:-0.152069
173079:0.026503
173344:0.168813
173616:-0.091327
173618:-0.316331
173619:-0.191964
173623:0.014484
173624:-0.213351
173630:-0.371490
175465:0.010432
176733:-0.213351
177210:0.065048
177265:0.018774
177901:0.151280
178407:0.264618
178408:0.154420
178412:0.123801
178679:0.057207
178705:0.013427
179237:0.102124
179238:0.219476
179495:-0.213351
180855:0.013427
181436:0.013427
181945:0.151298
182556:0.305158
183222:0.032610
183645:0.107701
184286:0.406283
184549:-0.120057
185185:0.037043
185480:0.162834
186251:0.007656
186781:-0.041208
186783:-0.221569
186784:-0.185168
186792:0.044816
189252:-0.040714
189253:-0.175735
189255:-0.221673
190449:-0.163552
190451:-0.313648
190452:-0.191964
190456:0.014484
190457:-0.213351
190463:-0.371490
191537:-0.191964
191809:0.287531
191810:0.137376
192081:0.121740
192353:-0.208326
192354:-0.322182
192356:0.040368
192358:0.044557
192359:0.028284
192361:0.080041
193459:0.013427
193991:0.085428
194523:-0.114927
194687:0.007656
195055:0.040368
196593:0.028284
197070:-0.182623
197183:0.010432
197715:-0.185168
198187:-0.493730
198188:-0.152069
198194:0.026503
198199:0.209094
198232:0.080041
198247:0.068973
198731:0.136486
198779:-0.191964
199032:0.044816
199311:0.037043
200048:0.032037
201439:0.098529
201447:-0.213351
201971:0.274279
202493:0.145046
202494:0.316923
202495:0.213959
202496:0.125382
202501:0.004364
202502:0.034999
202503:-0.316887
202504:0.018856
202505:0.028284
202510:-0.120057
202511:0.111703
203035:0.213324
203036:0.004852
203040:0.088615
203043:0.271803
203288:-0.185168
203820:0.211494
203821:-0.324781
204114:0.088137
204248:-0.137873
207306:0.004364
208370:0.173186
208474:-0.191964
208914:0.271803
209458:0.039454
210014:0.348794
210274:0.040368
210818:-0.175735
211090:0.109553
211671:0.085428
212518:0.062325
212964:0.044557
213977:-0.071158
213978:-0.132434
214028:0.123801
215443:-0.041883
215444:-0.132434
216984:0.088137
217220:0.046555
217468:0.057207
218284:0.088615
219217:0.129437
220176:0.004364
220327:0.123801
220412:0.542097
220684:0.213959
220750:-0.106632
221240:0.173186
221282:-0.088524
221283:0.020637
221502:0.013427
221772:-0.223491
221773:0.076544
221814:0.131361
222346:-0.055420
222347:-0.071690
222987:-0.408654
222989:0.006554
222990:-0.114927
223944:0.109244
223945:0.013427
224378:0.177139
224379:0.021191
224386:0.018774
224474:0.193483
224477:0.085428
224478:0.078756
225006:0.032077
225007:0.162834
225008:0.002141
225009:-0.114927
225013:0.065048
225538:-0.136549
225539:-0.324781
225541:0.040368
225544:0.028284
226019:-0.188372
226020:-0.322182
226022:0.040368
226024:0.044557
226025:0.028284
226027:0.080041
226070:0.177849
226071:-0.182623
226077:-0.292786
226554:0.261698
226577:0.010432
226602:-0.221528
226603:0.135856
227086:-0.017356
227668:-0.151386
227669:0.012103
227677:0.002200
227923:-0.291872
228198:-0.024263
228200:-0.399161
228201:-0.185168
228209:0.044816
228730:-0.082226
228731:0.013427
228732:-0.075140
228733:0.151406
228735:0.114819
228736:0.039454
228740:0.088137
229262:-0.144391
229264:-0.297680
229265:-0.191964
229269:0.014484
229276:-0.371490
229794:0.023074
229795:-0.027230
229797:0.037043
229798:-0.391694
229799:0.046555
229800:0.061998
230167:0.061998
230326:0.048552
230327:0.062325
230333:-0.137873
230621:0.013427
231898:0.411872
231924:-0.513985
231925:0.235877
231926:0.020250
231927:0.125382
231932:0.004364
231933:0.034999
231942:0.032610
232454:-0.193494
232457:0.274279
232458:0.136486
232465:0.057207
232468:0.125329
234393:-0.090834
234394:0.111929
234400:0.050235
234665:0.151298
236228:0.044816
238061:-0.024161
238063:-0.103585
238064:-0.185168
238072:0.044816
238605:0.047578
238709:0.037043
239494:-0.114927
240026:-0.059579
240027:-0.071690
240239:0.162834
242211:-0.027230
243743:0.047197
244705:0.004364
244807:0.050235
245799:0.020250
246255:0.004852
247897:0.213959
247999:-0.115919
248429:0.070317
248430:0.013427
248961:-0.020925
248968:0.014484
249063:0.047578
249843:0.411050
250103:0.423599
250104:0.168813
250108:0.088615
250111:0.271803
250375:0.274279
250919:-0.057020
250921:0.062325
251191:-0.259067
251192:0.013427
251193:-0.061352
251194:0.151406
251196:0.114819
251197:0.039454
251201:0.088137
252768:0.032037
256254:0.034999
256812:-0.185168
257886:0.044557
259193:0.149837
259248:0.076544
259948:0.026503
260044:0.065048
260584:0.253481
260585:0.151280
260589:0.123801
261108:-0.292786
261589:0.107859
