Version 7.10.1
Min label:-1.000000
Max label:1.000000
bits:18
0 pairs: 
0 triples: 
lda:0
1 ngram: 5 
0 skip: 
options:
:0
1:-0.295266
2:1.602437
3:1.663001
4:-0.153262
5:-2.148052
6:-1.361285
7:-0.924635
8:-0.787292
9:-0.621032
10:0.160737
11:-2.585888
12:-4.104140
13:0.102882
14:-1.074381
15:-1.407264
16:-0.462909
17:0.165939
18:-2.043125
19:-0.737323
20:-1.493276
21:-2.213943
22:-1.640879
23:0.702390
24:-0.312254
25:1.959831
26:1.909290
27:-2.224673
28:1.030422
560:0.022129
639:0.015516
1624:-0.174481
1758:-0.078543
1759:-0.132475
2214:0.300507
2688:-0.078141
2848:-0.108956
3324:-0.068142
3752:0.180213
3856:-0.071174
4388:-0.290280
4389:0.011747
4392:0.086122
4393:0.096246
4394:-0.369223
4683:0.010618
5454:0.000072
5802:0.260595
5880:0.010991
5984:-0.535587
5986:-0.200736
5987:-0.111325
5995:0.037558
5998:0.062148
6968:-0.111325
7240:0.111446
7241:0.088607
7282:0.072243
7512:0.135622
7514:0.062872
7784:0.081949
7785:0.081896
7787:0.056430
7790:0.019140
8455:0.123177
8456:-0.011756
8458:-0.081700
9150:0.022805
9410:-0.026776
9411:0.022805
9413:0.108335
9574:0.032491
10214:-0.011756
10474:0.127011
10475:-0.011756
10477:-0.081700
11006:-0.188070
11487:-0.030860
11488:0.063226
11489:0.237269
11490:0.015516
12082:0.042209
12342:0.088607
12602:0.110555
12603:0.088607
12847:0.018088
12874:0.135622
13134:-0.307759
13135:0.135622
13141:0.113770
13406:-0.139154
13618:-0.013666
13666:-0.246354
13667:-0.139154
13669:-0.007035
13890:0.000072
13938:0.048195
14198:-0.104529
14199:0.048195
14205:0.147817
14210:0.155699
14732:0.019140
15207:0.171918
15274:-0.071174
15796:-0.140536
15806:0.074006
16066:-0.021134
16273:0.062872
16326:-0.221042
16327:-0.021134
16333:-0.207275
17130:0.190297
17390:-0.320757
17391:0.190297
17397:-0.262460
17402:0.041215
17924:-0.183925
17934:0.108499
18106:0.004148
18194:0.470150
18235:0.037558
18466:-0.206914
18467:-0.174887
18469:-0.162913
18470:-0.144953
18471:-0.088783
18472:-0.068860
18474:-0.065101
18486:0.057663
18742:0.017712
19225:0.035374
19251:0.135622
20317:0.031554
22332:0.019140
22491:0.300490
23023:0.179018
23024:-0.220202
23529:0.001528
23530:0.202560
23532:-0.007035
23533:0.086122
23534:-0.007630
23535:-0.369223
23801:-0.285377
24345:-0.065101
24721:-0.076055
24889:-0.183925
25161:-0.007630
25705:0.056430
26249:0.022805
26521:-0.225038
26830:0.022805
27677:-0.011488
30874:0.056430
31883:0.018088
32415:0.037558
32947:-0.130987
33310:0.019853
33479:0.147607
34646:-0.189656
34647:-0.070722
35075:0.071225
35571:-0.307540
35572:0.011909
35573:0.019140
35574:-0.011488
35578:-0.197694
35579:-0.244952
35582:0.147607
35585:-0.112763
35607:0.035374
35765:-0.021134
35843:0.937016
36139:-0.367511
36387:-0.163036
36388:0.046190
36659:-0.131979
36660:0.048195
36666:0.147817
36671:-0.337358
36931:0.046190
37203:0.226713
37204:0.062872
37210:-0.114623
37245:0.022805
37964:0.042209
37965:0.063226
38309:-0.011756
38311:0.019853
38420:0.252877
39530:-0.152046
39809:0.074108
39958:0.022129
40062:0.042209
40437:0.088607
40439:0.252877
40969:0.135622
41501:-0.139154
41503:0.223368
42033:0.048195
42035:0.031554
42190:-0.783642
42192:-0.260663
42193:-0.069498
42266:0.147607
42517:-0.183925
42565:0.046190
43354:0.113826
43581:0.079029
43582:-0.023083
43586:-0.068142
43589:-0.065101
43631:0.300507
44161:-0.021134
44163:0.072672
44661:0.072243
44693:0.000072
44695:-0.023083
45225:0.190297
45227:0.213061
45757:0.051741
46292:0.004148
47057:0.091162
47355:0.127940
47613:0.331517
47614:-0.013666
47615:-0.556130
47616:-0.212108
47617:0.041215
47618:-0.898583
47619:0.196903
47623:-0.285377
47624:-0.367511
47633:0.189825
47873:0.057663
47885:-0.163398
47888:0.074108
47896:0.035374
47899:0.172465
49370:-0.068860
49824:0.015516
50368:0.166238
51413:0.105435
52479:0.191237
53064:-0.023083
53172:0.091587
53596:-0.127156
53597:0.048195
53603:0.147817
54036:0.078245
54774:0.071225
55396:0.145376
55397:-0.011756
55399:-0.081700
55431:0.037558
55940:-0.138898
55941:-0.016299
55943:0.017712
56122:-0.068142
57912:-0.217208
57913:0.031554
57919:0.022129
58697:-0.033288
59099:-0.057148
59100:-0.047381
59106:0.089755
59229:-0.168124
59230:-0.016299
59645:0.091587
59682:0.042209
59683:0.063226
60348:0.300507
61414:-0.172949
61810:0.155699
61811:-0.342966
62874:-0.078543
62875:-0.132475
62900:-0.244952
63406:0.074006
63908:-0.285377
63964:-0.108956
65002:-0.368782
65534:0.108499
65806:0.074108
66080:-0.140536
66092:-0.325132
66350:0.050959
66352:-0.050510
66622:0.032915
66624:-0.306577
66625:0.155026
66626:0.096295
66627:0.026189
66628:-0.183925
66633:0.018088
67100:0.041215
67632:-0.495312
67633:0.015516
67636:-0.277407
67637:0.116197
67638:0.086970
68164:-0.140549
68165:-0.050510
68171:-0.035381
68880:0.101182
70852:-0.077166
70853:0.022129
71141:0.159541
71142:0.222396
71143:-0.181747
71144:-0.060372
71145:-0.196811
71146:-0.824457
71147:-0.140536
71149:0.278454
71151:0.004148
71685:0.071225
71699:0.140819
71700:0.088607
71971:0.135622
72877:0.147607
73045:-0.140536
73861:0.017712
74677:-0.055231
76015:-0.111325
78396:0.149634
78398:0.101068
78399:0.011747
78723:0.019140
79151:-0.262460
79255:-0.050510
79517:0.004178
79787:0.083733
79788:0.223368
79792:-0.152046
81963:0.046190
81986:0.056430
83105:0.074006
83183:0.248424
83184:0.004178
83185:-0.114224
83186:-0.111325
83190:-0.174481
83194:0.037558
83197:0.062148
83561:0.072672
83607:-0.262460
83609:0.180213
83999:-0.088783
84271:0.155699
84272:-0.342966
85087:0.267118
85203:0.074006
85359:0.002473
85361:-0.220862
85362:0.015516
85389:0.191237
85576:-0.369223
86574:0.445431
86801:0.190297
86901:-0.262460
87331:0.639933
87333:-0.134229
87334:0.001952
87336:-0.435861
87341:-0.101858
87342:-0.130987
87468:0.091587
87517:0.010618
88581:0.062872
88593:0.445431
89113:0.011747
89270:0.223368
89657:-0.152046
89802:-0.188073
90709:0.004178
90921:0.074108
90980:0.018088
91241:0.015516
91510:0.089755
91773:-0.050510
91785:0.166238
92305:-0.172949
92328:-0.152046
92577:0.046190
92849:-0.068142
94433:-0.013666
94669:-0.055231
94670:0.074390
94705:0.000072
94903:0.011747
95225:-0.531333
95226:0.156363
95227:-0.253423
95228:0.093506
95230:0.092057
95236:0.071225
95238:0.244381
95241:0.091587
95247:0.108532
95435:-0.063293
95436:0.074390
95497:-0.661446
95498:0.190297
95504:-0.262460
95769:0.051741
95772:0.260595
95773:0.089804
95918:0.214573
96041:0.355052
96042:0.031257
96043:0.019140
96044:-0.011488
96048:-0.078141
96049:-0.244952
96052:0.147607
96055:-0.112763
96316:0.018088
96554:0.252877
96848:0.037558
97380:-0.130987
97620:0.011747
97890:-0.011158
97891:0.171918
97912:0.147607
99508:0.071225
100040:0.035374
100114:-0.101858
100572:-0.367511
100598:-0.139154
101104:-0.337358
101208:0.155699
101209:-0.342966
101920:-0.244952
102192:-0.174481
102298:-0.244952
102774:0.166238
103202:-0.076055
103280:0.015516
103306:0.155699
103824:0.105435
103838:-0.064983
104370:0.135983
104371:0.062872
104377:-0.114623
105166:0.019140
105436:-0.298297
105437:0.046277
106230:-0.140536
106711:0.157824
106712:0.105435
106713:0.139230
106714:0.011747
107294:-0.369223
107905:0.011027
107906:0.022805
107908:0.108335
108358:-0.183925
109024:0.651147
109025:0.046190
109296:-0.140536
109422:0.086970
110486:-0.068860
112221:-0.069498
112420:0.022129
112614:0.196903
113690:0.074006
113962:-0.011488
114234:-0.250538
114235:-0.139154
114237:-0.007035
114288:-0.057853
114289:0.022129
114506:0.048204
114548:0.105435
114602:-0.063291
114778:0.106729
114779:0.195268
114780:-0.188070
114781:-0.060372
114782:-0.196811
114783:-0.824457
114784:-0.140536
114786:0.278454
114788:0.004148
115246:0.019140
115357:0.147817
115461:0.062872
115612:-0.070722
115614:0.191237
115723:0.010618
115993:-0.247827
115994:0.019853
116001:0.101182
116060:-0.048182
116144:0.019853
116416:0.014405
116417:0.105435
116840:-0.243984
116841:-0.021134
116847:-0.207275
117480:-0.167297
117481:-0.070722
117740:0.171918
117742:0.010618
118012:-0.241467
118013:0.019853
118020:0.101182
118272:0.252877
118753:0.070672
118754:0.081896
118756:0.056430
118759:0.019140
118806:0.062872
119336:0.223368
119338:0.011747
119608:-0.010131
119609:0.171918
119813:0.147817
119815:0.022129
119841:-0.130987
119868:0.031554
120140:0.323760
120141:0.252877
120145:0.445431
120148:0.278454
120510:0.057663
120657:0.278454
120672:0.178709
120934:0.004178
121156:-0.417536
121157:0.072672
121158:0.019140
121163:-0.076055
121164:-0.244952
121204:0.056148
121205:0.223368
121209:-0.152046
121464:0.300507
121466:0.015516
121941:0.018689
121996:0.072672
121998:-0.050510
122473:-0.008196
122474:0.081896
122528:-0.023083
122530:-0.172949
122901:-0.035381
123007:0.048195
123060:0.213061
123107:0.147817
123332:0.131797
123333:0.300507
123337:0.166238
123340:0.214573
123537:-0.101111
123539:-0.188234
123540:-0.060372
123541:-0.196811
123542:-0.898866
123543:-0.140536
123547:0.004148
123595:0.260595
123596:0.089804
124396:-0.264184
124397:-0.023083
124401:-0.068142
124404:-0.065101
124658:-0.013666
125188:0.127940
125460:0.243603
125461:0.269610
125462:-0.239799
125463:0.093506
125465:0.092057
125471:0.071225
125473:0.244381
125476:0.091587
125482:0.108532
127127:-0.111325
130687:-0.108956
130795:0.032256
130796:0.013602
130797:-0.311978
130798:0.046277
130802:0.159224
131171:-0.050510
131883:0.086970
132124:0.278454
132427:0.042209
132428:0.063226
132699:-0.117477
133243:0.017848
133515:0.147904
133516:0.105435
133517:0.120407
133518:0.011747
134096:-0.466664
134097:0.105435
134411:0.213061
135487:-0.078543
136121:0.035374
136320:0.004148
136778:-0.130987
136804:-0.011756
138727:0.260595
138980:0.445431
139893:-0.285377
140044:-0.117477
140576:0.439647
140577:0.191237
140583:0.089755
140981:0.089804
141640:0.007009
141642:-0.191772
141643:0.015516
142837:0.082842
142838:-0.096558
142840:-0.127837
142841:-0.138334
142842:-0.088783
142843:-0.068860
142845:-0.065101
142857:0.057663
143031:0.146879
143032:0.300507
143036:0.166238
143039:0.214573
143109:0.041215
143381:0.032491
143925:0.300507
143927:0.015516
144197:0.354933
144198:0.031554
144199:-0.316342
144200:0.046277
144204:0.022129
144723:-0.337358
145207:0.000072
145739:0.190297
146853:0.010991
148427:0.011747
148447:0.108499
148820:0.086970
148979:-0.200584
150348:-0.081378
150577:-0.429195
150578:0.093506
150580:0.092057
150586:0.071225
151436:0.011747
151667:0.191237
151714:0.101182
151980:0.022129
152514:0.053364
153046:-0.313843
153047:0.135622
153053:0.113770
153318:-0.139154
153842:0.278454
154323:0.537061
154879:0.747825
154880:0.127940
154881:-0.183925
154882:-0.200584
154883:0.108499
154886:0.010991
154887:-0.325132
154890:-0.337358
154893:-1.038541
155572:0.166238
155710:0.113770
156636:-0.077487
156774:0.147817
157034:0.214573
157362:-0.064983
157566:-0.244952
158098:-0.065101
158147:0.015516
158630:-0.108956
158679:0.028633
158680:-0.016519
158902:-0.207275
159107:-0.114623
159266:0.031554
159743:0.087815
159746:0.017712
159966:-0.262460
160602:-0.172949
160680:0.089804
160758:-0.325132
160864:0.015516
162118:0.046277
162160:0.011747
162662:0.171918
162664:0.010618
162692:0.017712
162934:-0.238697
162935:0.019853
162942:0.101182
163333:-0.069498
164288:0.015516
164820:0.056430
164908:-0.023083
165352:-0.069498
165884:-0.117477
166365:0.064224
166366:0.017848
166368:-0.081700
166373:0.101182
167082:0.032491
167377:0.062872
167480:0.046277
167614:0.492268
167615:0.004178
167621:-0.174481
168148:0.051741
168269:0.004148
168544:-0.111325
168678:0.178410
168681:-0.011488
168689:0.147607
168692:-0.112763
168813:0.101182
169076:-0.064983
169348:0.019140
169608:-0.011488
170140:-0.198527
170141:0.046190
170412:-0.140536
170617:0.031554
171204:0.032491
171693:0.042209
171736:0.074108
172268:0.376357
172269:0.000072
172327:0.037558
172540:-0.183925
172800:-0.200584
173344:0.317239
173616:0.126884
173617:0.213736
173618:-0.096418
173619:0.001952
173620:-0.277407
173621:-0.013589
173622:0.086970
173624:0.214573
173626:-0.101858
173627:-0.130987
175465:0.046277
176099:-0.101858
176250:0.017712
177846:-0.242555
178407:0.048057
178408:-0.052375
178414:-0.081378
178601:-0.207275
178679:-0.367511
178705:0.004178
179237:0.314749
179238:0.252877
179242:0.445431
179245:0.278454
179495:0.214573
180039:-0.369223
180311:0.445431
180929:0.147607
181626:0.057663
181671:-0.057852
181672:0.022129
181945:0.048195
183057:-0.207275
183059:-0.076055
183754:0.189825
185026:-0.140536
185185:-0.011488
186251:-0.021134
186351:-0.207275
186781:0.029266
186783:-0.327078
186784:0.155026
186785:0.096295
186786:0.026189
186787:-0.183925
186792:0.018088
187415:0.180213
189524:-0.011756
189839:0.004148
190449:0.171292
190450:0.213736
190451:-0.123759
190452:0.001952
190453:-0.277407
190454:-0.013589
190455:0.086970
190457:0.214573
190459:-0.101858
190460:-0.130987
190721:0.196903
191265:-0.071174
191266:-0.132475
191537:-0.064983
191778:0.445431
191809:-0.298534
191810:0.135622
191816:0.113770
191863:0.011747
192081:0.196167
192083:0.011747
192353:0.009654
192354:0.172036
192355:-0.213517
192356:-0.069498
192360:0.113826
192395:0.017712
192842:0.096246
193568:-0.117477
193931:-0.325132
193991:0.015516
194523:0.056430
195055:-0.069498
195313:0.089755
195587:-0.117477
196808:0.011747
197183:0.046277
197416:0.037558
197655:0.127940
198247:-0.111325
198459:0.190297
198731:-0.368782
198779:-0.064983
199311:-0.011488
199539:0.011747
199843:-0.181474
199844:0.031554
199850:0.022129
200022:0.071225
200048:0.088607
200907:0.032491
201114:0.223368
201439:0.074108
201454:0.004148
201935:-0.049802
201936:0.022129
201971:0.268592
201972:0.072672
201973:0.019140
201978:-0.076055
201979:-0.244952
202479:0.108532
202491:0.847950
202492:0.470150
202494:0.074108
202502:0.035374
202503:-0.200584
202505:0.172465
202765:-0.013666
203035:0.232270
203036:0.213061
203037:-0.140536
203039:0.074006
203042:0.180213
203043:-0.108956
203583:0.191237
203820:0.912877
203821:0.010618
203827:0.113826
204354:0.046190
204646:-0.101858
204884:0.075184
207838:-0.285377
208418:0.091587
208474:-0.064983
208746:0.019140
208914:-0.108956
209186:-0.197694
210274:-0.069498
210546:0.442375
210547:0.022805
210549:0.108335
210818:-0.070722
210820:0.191237
211090:0.064156
211091:-0.016519
211671:0.015516
212305:0.004148
212518:-0.172949
212790:0.046190
213062:-0.068142
213496:0.445431
213977:0.085831
213978:-0.012802
213980:0.108633
214107:-0.070722
214324:0.004148
214560:-0.007630
214807:0.113770
214911:0.010618
216302:0.089804
216688:0.210987
216834:0.074006
217468:-0.367511
217516:-0.101858
217752:-0.088783
218125:0.147607
219154:-0.055231
219263:0.113770
219686:-0.063291
219687:0.074390
219880:0.937016
220606:0.032491
220708:-0.285377
221230:0.019140
221282:-0.226216
221502:0.004178
221772:0.168605
221773:0.229011
221776:0.086122
221777:-0.007630
221778:-0.369223
221814:0.047838
221815:-0.016519
222346:0.140223
222348:0.120341
222349:0.011747
222351:-0.174481
222457:0.135622
222510:0.072672
222557:0.113770
222878:-0.127145
222879:-0.016299
222881:0.017712
222987:0.165334
222990:0.056430
222993:0.019140
223042:-0.023083
223410:0.442249
223411:0.191237
223417:0.089755
223621:0.022129
223846:-0.013666
224474:-0.004546
224476:-0.186744
224477:0.015516
225006:0.098043
225007:0.081896
225009:0.056430
225012:0.019140
225538:0.034597
225539:0.010618
225540:-0.217168
225541:-0.069498
225545:0.113826
226019:-0.006895
226020:0.172036
226021:-0.191790
226022:-0.069498
226026:0.113826
226070:-0.012706
226071:-0.220202
226072:-0.188073
226073:-0.060372
226074:-0.196811
226075:-0.898866
226076:-0.140536
226080:0.004148
226577:0.046277
226602:0.184923
226603:0.062872
226609:-0.114623
227107:-0.101858
227134:0.249446
227135:0.011747
227138:0.086122
227139:0.096246
227140:-0.369223
227668:-0.288587
227669:0.046277
228117:0.091587
228195:0.019140
228198:0.029938
228200:-0.312640
228201:0.155026
228202:0.096295
228203:0.026189
228204:-0.183925
228209:0.018088
228730:0.226268
228731:0.004178
228732:-0.109408
228733:-0.111325
228737:-0.174481
228741:0.037558
228744:0.062148
229262:-0.028664
229263:0.015516
229264:-0.118586
229265:0.001952
229266:-0.277407
229267:-0.201720
229268:0.086970
229272:-0.101858
229273:-0.130987
229774:0.017712
229794:0.259305
229795:-0.050510
229797:-0.011488
229801:-0.035381
229805:0.147607
229808:-0.112763
230137:-0.244952
230302:0.108532
230326:-0.310127
230327:-0.172949
230329:0.687635
230330:-0.144953
230331:-0.077487
230332:-0.068860
230346:0.057663
230621:0.004178
230858:0.238860
230862:0.074006
231392:-0.262752
231393:0.093506
231395:0.092057
231401:0.071225
231922:-0.328668
231925:0.074108
231933:0.035374
231936:0.172465
232454:0.168383
232455:-0.013666
232456:-0.245669
232457:-0.809459
232458:-0.368782
232459:-0.898583
232460:0.196903
232464:-0.285377
232465:-0.367511
232474:0.189825
233861:0.072672
234393:-0.245773
234394:-0.139154
234396:-0.007035
234665:0.048195
234937:0.155699
236228:0.018088
236254:0.022805
237320:0.019853
238061:0.142455
238062:0.046190
238063:-0.297347
238064:0.155026
238065:0.096295
238066:0.026189
238067:-0.183925
238072:0.018088
238709:-0.011488
238877:-0.068860
239149:0.210987
239494:0.056430
239965:-0.181747
240509:-0.013897
240510:-0.047381
240516:0.089755
241417:-0.140536
242211:-0.050510
244044:-0.101858
244173:0.035374
244275:0.113770
244680:-0.117477
245189:-0.021134
245339:0.159224
246255:0.213061
247467:-0.195695
248247:0.260595
248270:-0.183925
248429:0.074108
248531:0.078245
248724:0.011747
249268:-0.152046
249547:0.026457
250028:-0.285379
250029:1.338607
250045:0.057663
250103:-0.109245
250104:-1.039945
250105:-0.140536
250107:0.074006
250110:0.078245
250111:-0.108956
250313:0.022129
250375:1.046422
250376:0.000072
250647:-0.234887
250648:-0.021134
250654:-0.207275
250659:0.010991
250919:-0.004906
250921:-0.172949
251191:0.232633
251192:0.004178
251193:-0.110021
251194:-0.111325
251198:-0.174481
251202:0.037558
251205:0.062148
252768:0.088607
253674:-0.130987
256086:0.116197
256254:0.035374
257342:0.159224
258080:-0.244952
258448:0.089755
258557:0.113826
258612:-0.065101
258702:0.091160
259246:-0.055231
259247:0.074390
259248:0.223368
260052:0.015516
260576:0.113826
260584:0.183041
261589:0.065343
261590:-0.016519
261640:-0.114623
261861:0.189825
