Version 7.10.1
Min label:-1.000000
Max label:1.000000
bits:18
0 pairs: 
0 triples: 
lda:0
1 ngram: 5 
0 skip: 
options:
:0
1:13.066488
2:10.588341
3:7.136139
4:7.010072
5:-23.638090
6:14.770145
7:5.154669
8:9.505884
9:-6.095876
10:8.442216
11:-4.635375
12:17.442425
13:13.189592
14:-7.239412
15:-2.729865
16:-5.807274
17:7.834581
18:3.240525
19:28.995707
20:-2.692020
21:33.081436
22:-8.927823
23:3.609608
24:36.570175
25:-10.434809
2214:0.058355
5454:0.049727
5984:-0.060046
5986:-0.157584
5987:-0.165199
6968:-0.165199
7240:-0.000334
7512:0.023981
7784:0.047990
7786:-0.029706
7923:-0.398536
7924:-0.024507
8618:0.011777
8878:0.016753
8879:0.011777
9682:-0.024507
9942:-0.013702
9943:-0.024507
11487:0.022283
12602:-0.000334
12874:0.039664
13134:-0.036251
13135:0.039664
13406:-0.038091
13666:-0.156438
13667:-0.038091
13938:0.040151
14198:0.057961
14199:0.040151
15207:0.011777
16598:0.049727
16858:0.165555
16859:0.049727
17662:0.053176
17922:-0.125209
17923:0.053176
18235:0.032487
18466:0.095614
19225:0.078841
19251:0.039664
22491:-0.165199
23023:-0.000860
23529:-0.032542
23530:0.043993
25977:0.016753
25978:0.011777
26521:0.010053
26522:0.032441
26558:-0.009893
32415:0.032487
33479:-0.122894
35571:0.060293
35572:0.085857
35582:-0.122894
35607:0.078841
36659:0.057961
36660:0.040151
36671:0.112442
36713:0.011777
36925:0.032441
37203:0.003243
37204:-0.031130
37777:-0.024507
39809:0.040028
39810:0.058355
39907:0.037628
40969:0.039664
40971:-0.031130
41501:-0.038091
41660:-0.038091
42033:0.040151
42190:-0.000860
42245:0.256172
42266:-0.122894
43049:0.160933
43631:0.058355
44163:0.039664
44693:0.049727
45227:0.256172
45757:0.053176
47057:0.016752
47613:0.173999
47887:0.169694
47888:0.041668
47896:0.078841
52749:0.016753
53596:0.042559
55431:0.032487
55457:-0.024507
55940:-0.054213
59099:-0.054213
59100:-0.024507
60295:-0.009893
64392:0.049727
65806:0.041668
66350:0.039664
66352:0.067579
66622:-0.002048
66624:0.007684
71141:0.097185
71142:0.037106
71699:-0.002048
71971:0.039664
72877:-0.122894
76015:-0.165199
77332:-0.009893
77333:0.032441
79255:0.067579
79787:0.050823
79788:0.053176
83183:0.011701
83185:-0.088973
83186:-0.165199
83194:0.032487
83561:0.039664
85087:0.037106
85359:-0.009893
87331:-0.192483
87333:0.035343
90921:0.041668
91773:0.067579
94965:0.160933
95225:-0.125209
95226:0.053176
95769:0.053176
96041:0.020435
96042:0.085857
96052:-0.122894
96499:0.010053
96554:0.037106
96848:0.032487
97890:0.001298
97891:0.011777
97912:-0.122894
100040:0.078841
100598:-0.038091
101104:0.112442
103824:0.011777
104096:0.016752
104370:0.050823
105436:-0.002048
105437:0.001335
106711:-0.023846
106712:0.011777
107373:0.032441
107374:0.011777
108177:-0.024507
114234:-0.087967
114235:-0.038091
114246:0.434847
114247:0.032441
114506:0.040151
114778:0.077668
114779:0.037106
115884:0.016753
116060:0.198692
116948:-0.013702
117112:0.049727
117740:0.037628
118272:0.037106
118753:0.052016
118755:-0.029706
118804:-0.031130
119336:0.053176
119608:0.001298
119609:0.011777
119767:-0.031130
120140:-0.040911
120141:0.037106
120672:-0.077403
120673:-0.031130
121204:0.050823
121205:0.053176
121464:0.058355
121941:0.001335
121996:0.039664
121998:0.067579
122473:-0.042589
123060:0.256172
123537:0.050823
123864:0.185512
123865:0.039664
124928:-0.144930
124929:0.256172
125190:0.160933
127127:-0.165199
130795:0.057961
130796:0.040151
130797:-0.000334
130798:0.001335
131171:0.067579
132971:-0.013702
132972:-0.024507
133515:-0.054213
134411:0.295678
134412:0.040151
136121:0.078841
141163:0.058355
141640:-0.021760
141695:0.039664
142837:0.215741
142838:0.049727
143925:0.058355
144191:0.434847
144199:-0.000334
144200:0.001335
144723:0.112442
148979:0.103851
148980:0.067579
148990:-0.122894
149511:0.118889
152514:0.058355
153046:-0.036251
153318:-0.038091
154323:0.016752
154324:0.032441
154879:0.092712
154880:0.160933
154881:-0.118777
154882:0.095403
154890:0.112442
154891:0.258764
154907:0.011777
162118:0.001335
162662:0.037628
162936:0.022283
166367:0.022283
167480:0.001335
168148:0.053176
168544:-0.165199
168678:-0.143073
171736:0.041668
172327:0.032487
172800:0.095403
173072:0.166273
173073:0.049727
173344:0.256172
173616:-0.095012
173617:0.058355
173618:0.063113
175465:0.001335
177901:-0.031130
178407:0.045279
178408:0.023981
179237:-0.040911
179238:0.037106
180929:-0.122894
181945:0.040151
186781:-0.002048
186783:-0.041026
189252:-0.013384
190449:-0.090977
190450:0.058355
190451:0.063113
191809:-0.036251
191810:0.039664
192081:0.043993
192353:0.028589
192354:0.037628
197183:0.001335
197416:0.032487
198187:0.064781
198188:0.389401
198247:-0.165199
201439:0.040028
201440:0.058355
202493:0.170413
202494:0.041668
202502:0.078841
202503:0.095403
203035:-0.144930
203036:0.256172
203820:-0.040911
207627:0.011777
210818:-0.024507
211090:-0.023846
213977:-0.054213
215443:-0.013702
218125:-0.122894
219217:0.037628
220750:0.010053
221282:0.010053
221283:0.032441
221772:0.050823
221773:0.053176
221814:-0.054213
222346:-0.054213
222987:0.005079
222989:-0.012345
223944:-0.009893
224378:0.180607
224379:0.039664
224474:-0.009893
225006:0.004194
225008:-0.013384
225538:0.013743
226019:0.061096
226020:0.037628
226070:0.046754
226577:0.001335
226602:0.050823
227086:0.053176
227668:-0.002048
227669:0.001335
228198:-0.002048
228200:-0.036251
228730:-0.026377
228732:-0.157584
228733:-0.165199
228741:0.032487
229262:-0.165827
229264:0.042559
229794:-0.116126
229795:0.067579
229805:-0.122894
230326:0.118889
231924:0.064896
231925:0.041668
231933:0.078841
232454:0.092712
233862:0.039664
234393:-0.156438
234394:-0.038091
234665:0.040151
238061:-0.000333
238063:0.007684
240026:-0.013702
242211:0.067579
244173:0.078841
246255:0.256172
248429:0.021149
248440:0.032487
248961:-0.026253
250103:-0.049869
250104:0.256172
250919:0.049727
251191:-0.021735
251193:-0.157584
251194:-0.165199
251202:0.032487
255982:0.258764
256254:0.078841
259193:-0.054213
259248:0.053176
260584:-0.172381
260585:-0.031130
261589:-0.023846
