Version 7.10.1
Min label:-1.000000
Max label:1.000000
bits:18
0 pairs: 
0 triples: 
lda:0
1 ngram: 5 
0 skip: 
options:
:0
1:-0.647537
2:-0.159839
3:0.373402
4:-0.138673
5:0.291209
6:0.260806
7:-0.045961
8:-0.133883
9:-0.283132
10:0.109789
11:-0.169487
12:1.168244
13:-0.625499
14:-0.007950
15:-0.316992
16:-0.101523
17:0.227773
18:-0.112992
19:-0.050313
20:-0.046855
21:-0.263062
22:-0.035709
23:-0.012743
24:0.562861
25:0.142843
26:0.117059
27:0.510022
28:-0.136642
29:-0.333184
30:0.461558
31:-0.365877
32:0.177979
33:0.000289
34:-0.089305
35:0.415860
36:0.097291
37:-0.411869
38:0.502109
39:-0.470668
40:0.214161
41:-0.207648
42:-0.216704
43:-0.104287
44:0.289417
45:0.062894
46:0.519026
47:-0.522961
48:0.438483
49:-0.042309
50:-0.223734
51:0.413521
52:0.161593
53:-0.385725
54:-0.007182
55:0.077351
56:0.490306
57:-0.213823
58:0.686590
59:-0.161721
60:0.514356
61:0.133189
62:-0.026339
63:0.467415
64:0.082515
65:0.040395
66:0.552658
67:0.340111
68:-0.213801
69:0.094075
70:0.441107
71:-0.005306
72:0.004486
73:0.025088
74:-0.311430
75:0.247466
76:0.072936
77:-0.004320
78:-0.152730
79:0.170095
80:0.600535
81:-0.394332
82:0.369078
83:0.102000
84:0.004381
85:0.284183
86:-0.065955
87:-0.271731
88:-0.057615
89:-0.487194
90:0.141240
91:0.251259
92:0.056709
93:0.390651
94:0.094477
95:0.205747
96:0.072570
97:-0.088011
98:-0.181724
99:-0.611210
100:-0.388361
101:-0.304310
102:0.354563
103:-0.250773
104:0.544422
105:-0.390959
106:-0.258177
107:0.012876
108:0.241938
109:0.303928
110:0.282668
111:0.203774
112:0.043139
113:-0.397925
114:0.343976
115:-0.366211
116:0.081250
117:-0.618204
118:0.737765
119:-0.281255
120:-0.083645
121:0.419039
122:1.939631
123:0.240808
124:1.268580
125:0.153777
126:0.159012
127:-0.017275
128:-0.042678
129:-0.279849
130:-0.345981
131:-0.719655
132:0.005089
133:-0.163216
134:-0.370313
135:0.228506
136:-1.655266
137:0.134140
138:-0.305691
139:0.354818
140:0.338979
141:0.269899
142:-0.211831
143:-0.186410
144:0.055042
145:0.805262
146:0.505455
147:-0.385647
148:0.601007
149:-0.028732
150:-0.294553
151:0.264443
152:0.037054
153:0.133058
154:0.114353
155:-0.108768
156:-0.538113
157:0.806585
158:-0.237384
159:0.036230
160:0.144733
161:-0.257855
162:0.190092
163:-0.079117
164:0.201753
165:-0.010455
166:-0.931196
167:-1.160515
168:0.105449
169:-0.335109
170:0.404338
171:0.006711
172:0.399958
173:0.359291
174:0.099889
175:-0.205640
176:-0.182364
177:-0.168000
178:0.362451
179:-0.316222
180:-0.068884
181:0.030581
182:-0.151662
183:0.287224
184:-0.252444
185:-0.659015
186:0.223281
187:0.240809
188:0.452696
189:0.041892
190:0.282343
191:0.249650
192:0.145492
193:0.122405
194:-0.070649
195:-0.242321
196:0.678161
197:-0.223525
198:-0.047204
199:-0.177443
200:0.428045
201:-0.168483
202:0.250613
203:-0.235841
204:-0.233667
205:0.083053
206:-0.189166
207:-0.060936
208:-0.451098
209:-0.285279
210:-0.220458
211:0.040973
212:0.058149
213:0.045555
214:-0.091530
215:-0.178376
216:0.117719
217:-0.036500
218:-0.652091
219:-0.001788
220:-0.287122
221:-0.686090
222:-0.885038
223:0.320414
224:0.194127
225:0.459835
226:0.413744
227:-0.718821
228:0.740792
229:-0.381545
230:-0.138352
231:0.065587
232:-0.027161
233:0.105290
234:-0.307567
235:0.567555
236:-0.660906
237:0.112258
238:0.681783
239:-0.149283
240:0.555720
440:-0.002008
452:-0.002346
453:0.003302
598:0.024433
700:0.010361
724:0.006604
758:0.020136
811:0.014358
872:0.005273
873:0.002273
874:0.007765
957:0.002273
972:-0.002941
973:0.010185
997:0.004742
1151:0.015514
1152:-0.048524
1188:0.016141
1338:0.016244
1430:0.000624
1504:0.003177
1601:-0.035706
1609:0.020136
1702:0.003295
1714:0.021571
1962:0.001409
1963:0.003295
1986:-0.011901
1999:-0.009718
2036:-0.006846
2037:0.021621
2080:0.043803
2214:0.016071
2249:0.012741
2270:0.030424
2296:0.043863
2298:0.012462
2432:0.012490
2494:0.002638
2530:-0.006605
2532:0.002036
2533:0.010497
2541:-0.001992
2568:0.011694
2569:0.010361
2704:0.000122
2705:0.004180
2706:0.016980
2707:0.030745
2709:-0.000411
2766:-0.000840
2779:-0.002487
2828:0.000837
2886:0.006056
3026:0.000457
3027:-0.000840
3155:0.024433
3157:0.012257
3316:0.008377
3362:-0.003926
3379:-0.010206
3473:0.012490
3558:0.002220
3612:0.014609
3729:0.004075
3845:0.019240
3950:-0.013158
4164:-0.001383
4165:0.043863
4263:-0.007836
4380:-0.004653
4388:-0.007348
4389:0.009677
4399:0.021598
4424:0.007499
4515:-0.001927
4542:-0.001992
4613:0.001766
4689:-0.020472
4696:-0.003199
4697:0.000837
4768:-0.019029
4787:-0.003097
4854:0.004167
4885:-0.013016
4894:0.001157
4961:-0.002781
5059:-0.014533
5087:-0.010206
5153:0.020456
5154:0.004887
5157:-0.001278
5158:0.000779
5159:-0.001279
5161:0.014358
5188:0.023091
5228:0.000036
5234:0.001269
5320:0.007765
5328:0.040116
5331:-0.011666
5332:0.014854
5333:-0.000216
5334:-0.003278
5386:-0.001393
5421:0.031944
5490:0.019072
5505:-0.002308
5619:0.002031
5686:-0.001066
5760:-0.009114
5927:-0.010094
5951:0.034200
5958:-0.010206
5984:0.031292
5986:-0.020400
6019:-0.018137
6020:0.025457
6085:-0.011533
6086:0.012204
6217:0.000336
6218:-0.001051
6219:-0.000253
6280:0.001165
6283:-0.000411
6292:-0.006945
6293:0.007499
6391:0.025360
6452:-0.000643
6483:-0.002635
6484:-0.005455
6508:0.019593
6552:0.009440
6554:-0.013672
6665:-0.000411
6750:-0.001084
6921:0.031944
7022:0.016141
7039:-0.004347
7040:-0.002232
7041:0.000185
7042:0.008900
7044:0.004005
7084:-0.028099
7085:0.014405
7142:0.012908
7149:0.000864
7151:-0.018089
7152:0.019180
7185:-0.053529
7204:0.011653
7240:0.000134
7241:0.009857
7282:-0.003781
7283:0.016141
7316:-0.052664
7338:0.000503
7373:0.003295
7382:0.007956
7384:-0.008590
7385:-0.010206
7414:0.000092
7456:0.012076
7512:0.000257
7552:-0.001025
7572:-0.015912
7588:-0.003961
7589:0.022565
7593:0.024433
7595:-0.000592
7596:0.001677
7599:-0.000718
7607:0.000828
7608:0.001922
7609:0.019708
7615:-0.008083
7616:-0.002232
7617:-0.003878
7618:-0.002474
7619:-0.018203
7784:-0.001709
7786:0.003218
7817:0.006056
7860:0.010246
7888:-0.003135
7889:0.025457
7903:0.000837
7958:0.000308
7961:0.000257
7965:-0.002903
7966:0.026833
7985:-0.015736
8008:-0.007191
8132:-0.009934
8134:0.001729
8135:-0.002474
8136:-0.018203
8148:-0.017495
8151:-0.003393
8152:0.009046
8153:-0.002200
8155:0.008388
8270:0.001269
8307:0.008714
8308:-0.037894
8420:-0.002806
8421:0.009440
8422:-0.018137
8455:-0.002205
8520:-0.001196
8540:-0.000191
8541:-0.001530
8702:0.020136
8707:0.005552
8708:0.011747
8709:-0.000214
8710:-0.013025
8773:-0.007149
8793:0.007765
8878:0.004442
8921:-0.000341
8922:0.012076
8934:0.006056
8952:0.006594
8953:-0.028099
8960:-0.004243
9006:0.044419
9049:0.016141
9150:0.008377
9154:-0.001249
9232:0.014358
9239:-0.001630
9240:0.043863
9263:0.000158
9265:0.001091
9266:-0.013158
9399:0.012490
9410:-0.000889
9411:0.008377
9484:-0.009551
9485:-0.002232
9554:0.021130
9574:0.010847
9734:0.006056
9744:0.008900
9819:-0.005646
9820:0.004075
9822:-0.000632
9823:0.017825
9831:0.013292
9853:0.003372
9854:0.002426
9942:0.003218
10016:0.031886
10017:-0.017495
10040:0.004005
10086:-0.007741
10232:0.019575
10273:0.005989
10276:0.000779
10316:-0.010206
10358:-0.028447
10375:0.002060
10376:-0.014756
10474:-0.002232
10487:0.014609
10585:-0.000494
10587:-0.001826
10588:0.012295
10591:0.007665
10648:0.015459
10759:-0.001867
10761:-0.002596
10808:0.021130
10909:0.042120
10931:0.015265
10932:-0.034960
10933:0.000006
10934:0.004742
11006:0.001420
11159:0.010185
11177:0.008377
11205:0.017466
11340:-0.005455
11487:0.010340
11489:-0.000802
11612:-0.001668
11613:0.008900
11848:-0.007836
11852:0.012138
11947:-0.013016
12124:0.010185
12144:-0.002556
12145:0.000779
12298:0.008388
12314:0.006492
12342:0.009857
12396:0.005952
12505:0.012204
12602:0.000134
12603:0.009857
12676:-0.004884
12677:0.021130
12729:0.014967
12874:0.000257
13037:0.010555
13114:0.007765
13116:0.010555
13134:0.041827
13135:0.000257
13208:-0.005361
13209:-0.005455
13214:0.007170
13237:-0.004176
13257:0.010185
13386:-0.002038
13388:-0.000106
13389:0.011747
13406:-0.014756
13468:0.019240
13470:-0.000958
13556:-0.013910
13569:-0.020596
13618:0.056878
13666:0.000047
13667:-0.014756
13703:0.018649
13740:0.006832
13789:-0.013016
13839:0.026833
13936:0.011747
13938:-0.004653
14088:-0.000972
14089:-0.001423
14101:-0.001196
14198:-0.022095
14199:-0.004653
14321:0.002481
14322:-0.018203
14369:0.009857
14402:0.017825
14532:-0.013016
14633:0.011371
14794:-0.003128
14795:0.026833
14806:-0.000426
14954:0.006920
15099:0.006492
15154:0.004887
15187:-0.007836
15207:0.012295
15295:0.002221
15336:-0.011584
15337:0.019240
15376:0.014967
15433:-0.014756
15486:-0.009292
15550:0.000837
15554:-0.018203
15621:-0.002275
15622:0.017825
15630:0.013292
15643:-0.006703
15719:-0.008924
15720:-0.007541
15839:0.004596
15840:-0.008597
15851:0.000147
15853:-0.006959
15854:0.026743
15868:-0.006447
15917:0.019072
15967:0.011653
16013:0.000084
16014:-0.003420
16066:0.012295
16084:-0.014668
16086:0.000992
16087:-0.003278
16139:-0.003420
16187:-0.010833
16229:0.009046
16317:-0.001377
16326:-0.001573
16327:0.012295
16372:-0.007191
16400:0.000361
16401:-0.013016
16550:0.000185
16552:0.044419
16553:0.009440
16554:0.003975
16739:0.025457
16761:0.004075
16785:-0.001433
16786:0.017734
16838:0.008900
16932:0.004492
17009:0.000656
17091:0.019708
17176:0.012204
17242:0.000469
17390:-0.007819
17464:-0.004921
17475:-0.008920
17476:0.019085
17623:0.001409
17624:0.003295
17708:-0.009713
17709:0.003295
17790:-0.037894
17824:0.006699
17856:0.006548
17857:0.009857
17941:-0.004891
17969:0.009978
17970:0.037073
17971:-0.008697
17972:-0.020472
18023:-0.001530
18096:-0.000143
18270:0.002348
18400:0.014967
18466:-0.030736
18467:0.019730
18469:-0.001250
18477:0.003340
18486:0.010361
18525:-0.007101
18526:0.022565
18527:0.000432
18528:0.018028
18542:0.013550
18555:-0.006070
18556:0.021087
18640:-0.002291
18641:0.005175
18643:0.016244
18676:0.012076
18722:0.043863
18788:0.003333
18789:-0.005588
18814:-0.015417
18817:0.036041
18975:0.021571
19021:0.001281
19022:0.013765
19023:-0.000426
19060:-0.009108
19081:0.001528
19095:0.016244
19159:-0.005588
19251:0.000257
19254:-0.003193
19293:-0.002763
19332:-0.008663
19344:0.010361
19441:0.018965
19484:0.004421
19592:0.047880
19594:0.006056
19637:0.017016
19638:-0.053529
19674:0.014263
19816:0.001677
19953:0.001269
20081:0.007765
20124:-0.016002
20193:-0.001475
20194:0.011653
20195:-0.001395
20196:0.013768
20221:-0.018861
20317:0.014040
20451:0.010497
20614:0.000837
20625:0.030745
20649:-0.026725
20656:0.002348
20749:-0.000870
20752:0.007765
20897:-0.007149
20898:0.023091
20995:-0.001196
21017:-0.007191
21043:0.014967
21169:0.016488
21188:-0.009292
21249:0.011747
21267:0.005249
21269:0.005866
21270:-0.014731
21271:-0.007541
21279:0.012138
21287:0.002273
21305:-0.000631
21307:0.004263
21308:-0.000958
21441:-0.005712
21445:-0.005274
21492:-0.018203
21642:0.012257
21861:0.005264
21862:0.025360
21910:0.017825
22154:0.026833
22172:-0.009593
22349:0.000822
22351:0.023091
22405:0.012295
22417:0.003374
22418:-0.018203
22420:0.002494
22784:0.000185
22787:0.029616
22973:0.005707
22974:0.003295
23019:0.014516
23020:-0.018861
23023:0.000047
23252:-0.003278
23256:0.001700
23257:0.000779
23316:-0.003227
23337:-0.000840
23350:-0.002131
23351:0.000822
23413:-0.005229
23489:0.006643
23524:0.000185
23525:0.006604
23529:0.000456
23530:-0.011551
23540:0.021598
23570:-0.020472
23592:-0.018203
23624:-0.014929
23656:0.019180
23790:0.012257
23796:-0.018355
23806:0.000828
23848:-0.003489
23889:-0.010206
23894:-0.006951
23897:-0.017714
24038:0.013230
24068:-0.001619
24069:0.004075
24070:-0.000053
24071:0.012118
24072:-0.000840
24122:-0.002474
24188:-0.004868
24189:0.040116
24245:0.004742
24320:0.020456
24380:0.002230
24421:0.002067
24553:0.000278
24555:0.000691
24556:0.010497
24564:-0.001992
24654:-0.004884
24786:0.000660
24788:0.000469
24789:-0.010503
24912:-0.004252
25021:0.007515
25022:0.031264
25102:-0.007541
25179:-0.001423
25252:-0.000064
25254:-0.009893
25255:0.000257
25412:-0.018203
25441:0.007784
25487:-0.001868
25540:0.000772
25541:0.004421
25674:0.003302
25711:0.002220
25879:0.000257
25944:-0.018247
25977:0.004442
26053:-0.002474
26177:-0.003227
26249:0.008377
26325:-0.001538
26410:-0.000848
26418:0.008377
26508:-0.004891
26521:0.003782
26522:0.005770
26523:-0.002074
26558:0.004442
26597:0.021130
26605:-0.013016
26643:-0.001773
26697:-0.009721
26768:-0.015298
26810:-0.004660
26830:0.008377
26869:-0.002146
26871:0.004537
26872:-0.010206
26958:0.023091
26959:-0.018203
26962:0.001157
27040:-0.002596
27072:0.013230
27139:-0.034960
27191:0.003295
27230:0.019072
27257:-0.002584
27339:0.013292
27342:0.011694
27343:0.010361
27490:-0.000512
27572:0.005432
27669:0.012257
27735:-0.024328
27762:-0.009897
27956:-0.003227
28104:0.002067
28189:-0.002981
28190:0.015445
28202:0.002939
28220:0.019575
28294:-0.019010
28376:0.029482
28506:0.012295
28596:0.016244
28636:0.003342
28637:-0.015298
28733:0.006492
28896:0.014609
29052:-0.002830
29224:0.028882
29287:0.028882
29308:0.011106
29309:0.012741
29322:-0.001638
29324:0.000349
29325:0.029482
29351:-0.018203
29485:-0.013451
29495:0.017825
29496:-0.001511
29498:-0.003227
29662:0.004180
29797:0.003295
29817:0.025724
29960:0.011135
30011:-0.005482
30013:-0.002503
30014:0.003295
30232:-0.001511
30331:-0.000411
30427:0.003975
30498:0.034200
30567:-0.002174
30569:0.005155
30570:-0.052664
30652:0.016488
30764:-0.001942
30765:0.014609
30818:-0.015912
30819:0.021598
30861:-0.000840
31107:0.008388
31123:0.006145
31125:0.002067
31126:-0.010206
31296:0.006002
31307:0.011747
31593:0.017825
31679:0.002683
31680:0.017614
31681:-0.000114
31741:0.013878
31828:-0.008590
31829:0.011135
31851:0.001277
31949:0.001910
31951:-0.000007
32088:0.000772
32123:0.000528
32124:0.012490
32125:0.018555
32127:-0.001954
32169:0.008377
32187:-0.013025
32191:0.004151
32235:-0.003558
32236:0.037622
32238:-0.031645
32358:0.027021
32365:-0.002232
32459:0.019708
32506:-0.010206
32527:0.003975
32550:0.013292
32591:-0.003278
32791:0.014472
32799:-0.004653
32890:0.008714
32947:0.014261
32989:0.001157
33057:0.009440
33123:-0.000191
33191:0.004075
33255:0.000814
33257:0.000842
33258:-0.004243
33287:-0.007836
33290:0.017734
33310:0.020370
33347:-0.001376
33349:-0.001511
33356:-0.007149
33488:0.002481
33490:-0.017051
33491:-0.004243
33523:-0.013451
33540:0.019546
33589:0.047880
33721:-0.000186
33723:-0.003227
33724:-0.000426
33822:-0.001383
33903:0.000656
33904:0.016141
33905:0.002401
33906:0.006948
33907:0.019072
33956:0.000502
33957:0.001873
34011:0.003340
34032:-0.001268
34033:0.012257
34053:-0.010206
34123:0.013550
34189:-0.003265
34190:0.013768
34206:0.006079
34207:-0.009897
34216:0.016488
34242:0.004014
34306:0.006042
34356:-0.002072
34380:0.015514
34381:-0.047940
34459:0.006828
34461:0.001651
34462:-0.013016
34463:0.010185
34464:0.014967
34576:0.015265
34604:-0.017596
34646:-0.001803
34647:-0.004653
34653:-0.009923
34656:0.036041
34678:0.014967
34750:0.015175
34751:-0.005588
34761:0.019575
34886:-0.008924
34888:-0.012357
34924:0.013333
34925:0.017825
34941:-0.017495
35015:0.005805
35016:0.021412
35017:0.000270
35020:-0.007149
35075:0.014376
35112:-0.000341
35117:0.016141
35215:-0.018137
35279:0.042120
35345:-0.001450
35346:0.012217
35571:-0.010299
35572:0.042278
35586:-0.024328
35742:0.012138
35754:-0.000411
35765:0.012295
35959:0.000021
36044:-0.004252
36084:-0.008765
36085:0.016488
36139:0.028792
36192:0.000179
36277:-0.009551
36278:-0.002232
36338:0.021598
36344:0.004180
36387:-0.001250
36561:0.016244
36658:-0.004346
36659:-0.021711
36660:-0.004653
36735:0.036041
36804:-0.001992
36806:0.006699
36833:0.002348
36891:-0.001612
37007:0.004492
37008:-0.002763
37017:-0.000411
37078:0.001522
37203:0.001874
37245:0.008377
37270:0.019546
37288:-0.015736
37311:0.014908
37328:0.003340
37377:-0.000808
37380:0.020136
37385:-0.015912
37396:0.022565
37410:-0.053529
37551:0.002615
37552:-0.013016
37554:-0.018137
37777:-0.031645
37780:-0.004653
37794:0.024433
37823:-0.001196
37940:0.012490
38010:0.030745
38212:-0.001377
38213:0.004180
38243:-0.010219
38286:0.008666
38311:0.020377
38420:0.025317
38476:0.007259
38934:0.010185
39188:-0.014731
39276:0.002067
39460:-0.010624
39536:0.001277
39585:-0.000910
39634:0.006002
39808:-0.001264
39809:0.012490
39906:-0.005588
39908:0.012295
39998:-0.004653
40004:-0.005646
40051:0.000779
40068:0.003295
40178:0.001226
40179:0.014609
40180:-0.003646
40182:-0.007191
40437:0.009857
40439:0.025317
40600:-0.007191
40701:0.014376
40748:0.029616
40889:0.021130
40969:0.000257
40974:0.012118
41060:0.010497
41132:-0.000910
41134:0.042120
41293:-0.010503
41394:-0.005588
41404:-0.002326
41405:0.001277
41440:0.008908
41501:-0.014756
41503:-0.001530
41526:0.031264
41592:0.004603
41593:-0.008319
41627:0.004075
41660:-0.014756
41759:0.000257
41815:-0.016465
41816:-0.005588
41817:-0.000411
41825:-0.000143
41936:-0.004768
41937:0.003295
41989:0.012118
42033:-0.004653
42035:0.014040
42053:0.008461
42054:-0.062094
42058:-0.008920
42126:0.027749
42157:0.002284
42190:0.010380
42192:-0.001775
42261:-0.003751
42262:0.006492
42291:-0.004768
42318:-0.011282
42359:-0.005588
42423:0.001700
42426:-0.000663
42468:0.005841
42469:-0.007191
42486:-0.007491
42489:0.015137
42520:-0.013672
42524:-0.004891
42535:0.011371
42609:-0.004792
42611:-0.003047
42612:0.025211
42631:0.005979
42633:-0.018247
42634:-0.004243
42635:0.012138
42658:0.000147
42659:0.006671
42660:0.019072
42730:0.012204
42805:0.001875
42806:0.011127
42807:0.000700
42829:0.002122
42891:-0.001249
42892:0.025996
43000:0.000625
43001:-0.000910
43018:-0.009718
43165:-0.001511
43167:-0.000758
43179:0.029482
43190:0.014358
43256:-0.015912
43260:0.007765
43262:0.010555
43355:-0.005493
43358:0.012840
43532:-0.003224
43581:-0.022902
43582:0.019737
43588:0.002141
43590:0.002700
43591:-0.000840
43631:0.016071
43721:-0.006672
43722:0.012204
43723:0.004360
43724:0.007269
43794:-0.020596
43800:-0.009718
43814:0.001409
43821:-0.001403
43823:-0.005635
43893:-0.002985
44047:0.006548
44161:0.012295
44163:0.041581
44277:0.005181
44278:0.004014
44279:-0.000818
44280:-0.001927
44324:-0.010206
44326:-0.001196
44362:0.023091
44476:0.004075
44523:-0.013158
44661:-0.004467
44695:0.019737
44714:0.007090
44715:0.001157
44746:-0.009571
44747:0.014864
44790:-0.010206
44828:0.012217
44833:0.000517
44834:0.000837
44835:-0.006959
44836:0.026743
44840:0.001781
44841:0.021130
44858:0.011371
44888:-0.004980
44889:0.043803
44979:-0.008590
44980:0.011135
44986:-0.013451
44988:-0.001423
45062:-0.002851
45063:0.015445
45127:-0.010624
45128:-0.011321
45129:0.007765
45160:-0.019450
45212:0.000361
45213:-0.013016
45227:-0.014460
45258:0.004854
45260:0.002638
45334:-0.028099
45360:-0.001432
45388:0.014864
45389:0.000093
45432:-0.005694
45434:0.000406
45435:0.031264
45438:-0.004653
45443:0.019546
45445:-0.003312
45446:0.010185
45593:-0.001287
45594:0.030424
45606:-0.002318
45607:0.019072
45608:0.000550
45609:0.007259
45660:-0.003751
45761:-0.002232
45780:0.011311
45945:-0.003929
45958:-0.009718
46013:0.004742
46021:0.002165
46192:-0.001195
46193:-0.010206
46292:0.012115
46293:0.012314
46370:-0.001954
46382:0.000828
46454:0.009046
46479:0.006699
46501:0.000269
46502:-0.005229
46504:0.005454
46522:-0.000840
46603:0.011371
46724:-0.000053
46755:-0.014756
46986:0.004075
47057:0.004192
47058:0.016141
47059:0.001753
47060:0.010196
47085:-0.002830
47145:0.004075
47178:0.014358
47243:0.029482
47256:-0.009571
47257:0.014864
47327:0.016244
47355:-0.045594
47365:0.012138
47411:0.011198
47428:0.019575
47613:0.076878
47614:0.056878
47615:-0.007819
47616:0.045083
47624:0.028792
47885:0.076878
48059:0.000316
48061:-0.001654
48062:0.003295
48153:-0.004243
48233:0.000316
48235:0.044419
48236:0.009440
48237:0.003975
48266:0.012257
48312:0.009863
48580:-0.001530
48844:0.016637
48852:-0.001415
49112:0.011653
49333:0.012257
49376:0.016248
49384:0.000185
49443:-0.013979
49444:-0.007836
49465:0.012138
49676:-0.003420
49762:-0.004243
49772:0.002638
49824:0.020230
49825:0.011747
49908:-0.020472
49916:0.005020
49995:-0.004243
50057:0.007765
50058:0.000772
50142:0.000257
50178:0.001269
50228:-0.000426
50294:0.008535
50295:-0.008594
50375:0.008900
50394:0.009440
50416:0.025457
50448:-0.000191
50449:-0.001530
50527:-0.018251
50592:0.002284
50686:0.000656
50694:0.013768
50708:0.014854
50760:0.003882
50761:-0.012123
50828:0.001157
50860:-0.008765
50861:0.016488
50862:0.000316
50972:0.021087
50980:0.008955
50981:0.011653
50989:-0.001196
51000:-0.001058
51001:0.009440
51073:0.001677
51160:0.036041
51207:-0.024328
51226:-0.001702
51227:0.015459
51240:0.006492
51242:-0.007191
51358:0.004226
51360:0.001478
51458:-0.007836
51527:0.002426
51593:0.007170
51613:-0.035706
51772:0.037622
51925:0.011466
51926:0.017825
51993:0.023091
52036:0.017734
52057:0.010772
52060:0.007499
52290:-0.000191
52292:0.000254
52304:-0.005588
52345:-0.014365
52459:0.010196
52523:-0.003642
52537:-0.011282
52568:0.003295
52576:-0.001853
52577:0.014854
52683:-0.008319
52749:0.004442
52756:-0.001022
52758:-0.012019
52759:-0.052664
52769:0.002023
52836:-0.014365
52928:-0.024328
52943:0.009606
52989:-0.002251
52991:-0.003850
52992:0.016637
53044:0.009440
53064:0.038407
53065:-0.014756
53100:0.007259
53108:-0.003270
53109:0.006492
53201:0.002284
53217:0.001269
53313:0.007558
53314:-0.014929
53448:-0.002584
53487:-0.001464
53488:-0.001530
53539:-0.002226
53586:0.026833
53596:-0.020495
53632:-0.007386
53640:-0.010552
53641:0.037622
53681:0.000523
53682:-0.005588
53741:0.004075
53829:0.003453
53830:-0.013016
54062:0.000491
54063:0.008377
54095:-0.006763
54096:0.000779
54097:-0.002626
54098:0.032349
54147:-0.003227
54164:0.018504
54172:0.000523
54173:-0.005588
54229:0.014864
54295:-0.001638
54380:-0.003135
54381:0.025457
54432:0.004014
54462:0.011135
54650:0.021130
54651:-0.001903
54695:-0.013016
54704:0.014006
54705:-0.014365
54800:0.043803
54964:0.003975
54994:-0.004282
54995:0.011653
55028:0.000503
55207:-0.013294
55208:0.024757
55213:0.012257
55227:-0.007827
55228:-0.007355
55298:0.020136
55396:-0.002232
55472:-0.018137
55496:0.019085
55499:-0.002487
55570:0.000368
55597:-0.008319
55634:0.029482
55647:-0.001992
55690:0.000822
55744:-0.007827
55745:-0.007355
55760:0.025360
55763:-0.009301
55764:0.014864
55765:-0.011125
55842:0.002426
55880:-0.019029
55940:-0.002784
55973:0.020136
56016:-0.002487
56028:-0.003420
56114:0.017338
56117:0.007499
56121:0.000662
56122:-0.007836
56288:-0.007349
56289:0.021130
56291:0.017825
56292:0.030424
56300:-0.008523
56301:0.004014
56319:-0.003283
56321:0.000349
56322:0.018649
56346:0.001269
56347:0.028882
56393:0.034200
56533:0.019072
56824:-0.010206
56832:-0.003625
56833:0.003975
56855:-0.002232
56875:-0.000009
56877:-0.006593
56878:0.018965
56933:0.031944
57088:-0.020596
57222:0.005175
57364:-0.008920
57365:0.019085
57431:-0.001800
57433:-0.010285
57434:0.014312
57437:-0.016574
57455:0.003975
57457:-0.024328
57598:0.012314
57628:-0.018137
57690:0.001277
57698:-0.004653
57725:0.025457
57888:0.032349
57896:0.000087
57897:-0.003420
57912:-0.001491
57913:0.014040
57987:0.005212
57988:-0.010397
57989:0.001785
57990:0.021571
57991:0.013292
57997:-0.015736
58156:0.011747
58197:-0.003227
58360:0.009440
58371:0.005432
58372:-0.026725
58378:0.004167
58420:0.017825
58543:0.002731
58544:-0.002945
58611:-0.010206
58631:0.019072
58643:-0.015298
58741:0.002191
58742:-0.002830
58743:-0.002125
58744:0.005989
58747:0.022386
58779:0.018300
58915:0.005936
58917:-0.004240
58918:-0.000840
58930:-0.013630
59099:-0.001428
59100:-0.004653
59114:0.001677
59163:0.002752
59220:-0.019450
59229:-0.001803
59396:0.025996
59484:0.019546
59543:-0.018137
59695:0.000827
59798:-0.004653
59862:0.012840
59924:-0.007191
59928:-0.001450
60016:0.011198
60024:-0.005206
60025:0.011747
60095:-0.000840
60229:0.016141
60280:0.006699
60295:0.003816
60348:0.016071
60447:-0.013158
60451:0.008388
60454:0.021571
60548:-0.002474
60552:-0.004243
60627:-0.008103
60631:0.011371
60636:0.014967
60662:-0.026725
60759:0.001839
60762:0.021895
60770:0.017002
60824:-0.002218
60860:-0.009551
60917:0.045246
60992:0.002141
60994:-0.002584
60995:-0.013158
60998:-0.004699
61088:0.003004
61089:-0.019450
61096:-0.014756
61161:0.028882
61204:0.017002
61225:-0.013036
61227:-0.000484
61228:-0.001927
61270:-0.000910
61271:-0.024328
61272:0.042120
61368:-0.003098
61369:0.006492
61370:-0.001393
61371:0.004167
61379:0.024433
61385:-0.018861
61414:-0.003993
61449:0.006492
61458:0.000277
61462:0.004107
61513:-0.010206
61542:0.003285
61543:0.001277
61544:0.002067
61612:0.011106
61613:0.012741
61691:-0.004531
61693:-0.003269
61746:0.014609
61851:-0.002830
61880:0.006492
61926:-0.003224
61927:0.025360
61979:0.019240
61981:-0.013025
61995:-0.007836
62113:0.002165
62144:-0.018137
62150:0.000640
62152:-0.002499
62160:0.016141
62265:-0.001025
62317:0.009046
62383:0.000179
62616:-0.004349
62617:-0.019450
62764:-0.001066
62849:-0.004346
62997:0.006373
63036:-0.010206
63082:-0.001511
63164:-0.005588
63208:0.017466
63332:0.002939
63353:0.031264
63376:0.028792
63451:0.000624
63527:0.007259
63532:0.013292
63625:-0.008497
63696:0.018391
63706:0.010361
63723:0.003295
63740:0.008908
63799:-0.000389
63800:0.010196
63863:0.025457
63897:0.021891
63995:0.001930
63996:0.006042
63997:0.002638
64008:-0.037894
64012:-0.000426
64071:0.011311
64073:-0.004660
64162:-0.016002
64163:0.039462
64169:0.000090
64171:0.005379
64202:0.001677
64272:-0.052664
64280:-0.000848
64288:0.008377
64343:-0.002439
64345:0.007617
64346:0.016248
64349:-0.004176
64350:-0.015736
64395:-0.003369
64396:0.005111
64582:-0.000958
64588:-0.009718
64641:0.003302
64667:-0.013016
64706:-0.003420
64804:-0.019010
64815:0.018649
65048:0.011747
65336:-0.000840
65344:0.000766
65352:-0.004653
65514:0.017825
65581:0.017654
65582:-0.047940
65583:-0.002781
65584:0.016637
65691:-0.000411
65705:-0.018203
65868:0.036041
65876:0.008714
65877:-0.037894
65882:-0.003420
65977:0.011653
65980:0.003295
66023:0.014405
66136:0.000837
66137:-0.006824
66139:0.001729
66140:-0.002474
66141:-0.018203
66154:0.009440
66350:0.042278
66587:0.012138
66622:-0.000404
66624:0.041834
66625:0.011311
66693:0.002489
66695:0.002141
66697:0.004075
66698:0.025724
66781:0.013292
66796:0.000115
66798:-0.001432
66799:0.005965
66932:0.001269
66933:0.028882
66970:-0.002937
66972:-0.001385
66973:0.008908
67024:-0.004653
67080:-0.013910
67249:0.002502
67250:0.004180
67251:-0.001649
67252:0.030745
67254:-0.000411
67313:-0.013016
67464:0.009440
67472:-0.001659
67480:0.019593
67588:0.024433
67632:0.031292
67633:0.020230
67643:0.014261
67786:0.011747
67805:0.001516
67806:0.006604
67996:-0.036290
67997:-0.026725
68004:-0.001474
68005:0.000837
68164:-0.022194
68179:-0.024328
68237:-0.000411
68361:0.005370
68362:-0.008354
68368:-0.003266
68369:0.012257
68397:0.001699
68478:0.006920
68528:-0.010219
68536:-0.000584
68544:-0.015912
68571:0.007499
68630:-0.000371
68631:0.045246
68711:-0.007836
68712:-0.000840
68909:0.014967
68917:-0.000159
68919:-0.001249
68920:0.025996
69060:0.006920
69068:0.002348
69092:0.012204
69151:0.025360
69169:-0.005588
69263:-0.052664
69325:0.000772
69328:0.012217
69329:-0.013518
69330:0.011371
69423:-0.000734
69425:-0.000221
69426:0.014908
69429:0.016000
69461:0.008535
69473:0.004082
69474:0.040116
69486:0.020136
69493:0.012257
69524:-0.003310
69527:0.007765
69562:-0.008590
69599:-0.001511
69600:0.001091
69694:-0.018651
69696:0.000021
69697:0.021571
69795:0.001291
69863:0.003302
69927:0.007818
69929:-0.012975
69930:-0.011282
69973:0.012138
70028:-0.002941
70029:0.007794
70030:0.003302
70031:0.002638
70032:-0.009593
70392:0.005175
70393:-0.012602
70395:-0.004350
70396:0.030745
70397:0.003295
70448:0.006492
70493:0.014516
70494:-0.018861
70582:0.024892
70585:0.004177
70587:-0.001480
70622:0.013292
70628:-0.001618
70656:0.008900
70852:-0.003781
70926:0.014376
70962:0.027749
71092:0.018128
71136:0.004742
71141:0.001799
71142:0.027117
71143:0.003343
71144:-0.013093
71174:-0.013158
71196:-0.001450
71197:0.012217
71297:0.002273
71318:-0.010624
71506:0.010716
71507:-0.018861
71551:-0.001474
71552:0.000837
71680:-0.005425
71681:0.021087
71699:-0.000404
71720:0.021621
71728:-0.001553
71784:-0.001853
71785:0.014854
71807:-0.024328
71946:0.006056
71954:0.009046
71960:0.012490
71971:0.000257
72050:0.012185
72099:-0.019450
72204:0.010196
72224:-0.012765
72225:0.011371
72260:0.003013
72261:0.005175
72361:0.023091
72398:0.009731
72483:-0.006945
72484:0.007499
72622:0.000779
72750:0.014967
72784:-0.000840
72792:-0.000143
72864:0.007652
72865:-0.024328
73010:0.017002
73054:0.002122
73097:-0.003785
73223:0.015137
73284:-0.009593
73324:0.009731
73330:-0.008905
73369:-0.026725
73517:0.012295
73534:0.021598
73641:0.001269
73685:-0.002618
73686:-0.001423
73814:0.012138
73937:0.012635
74000:-0.001992
74029:0.040116
74035:0.007499
74118:-0.002985
74133:-0.001084
74209:0.017825
74365:0.029482
74384:0.014358
74388:0.000828
74405:0.016141
74449:-0.000840
74466:0.019546
74481:-0.009695
74492:-0.018203
74677:0.004648
74678:-0.014013
74682:-0.020472
74753:-0.028447
74851:0.007357
74852:-0.019450
74920:-0.001511
75025:0.008726
75026:-0.028099
75032:0.012257
75092:0.025360
75335:0.004107
75444:0.014358
75452:0.000349
75791:0.012490
75813:0.007765
75814:0.000772
75976:-0.010206
75984:0.002031
76246:0.002165
76257:-0.028099
76371:0.001157
76516:0.000179
76662:0.005989
76800:0.012295
76836:-0.000840
76934:0.002031
77048:-0.002125
77095:-0.001423
77108:-0.003489
77180:0.019180
77266:0.021895
77310:-0.002830
77328:-0.018203
77332:0.004190
77333:0.005770
77380:-0.002232
77413:-0.010206
77435:0.002638
77478:-0.001922
77480:0.009731
77481:-0.018137
77499:-0.013158
77600:0.011653
77623:-0.008159
77624:-0.013016
77646:-0.002474
77652:0.001825
77654:-0.005047
77655:0.006920
77732:-0.001927
77842:0.001781
77843:-0.008354
77862:-0.009718
77941:-0.018861
77942:0.012257
78031:0.001091
78179:0.001751
78180:-0.002763
78181:-0.000200
78182:0.017466
78264:0.000523
78396:-0.001084
78398:-0.004467
78431:0.025360
78547:0.016637
78632:-0.014121
78644:-0.000494
78726:-0.003926
78730:-0.003227
78735:-0.004303
78736:0.011653
78737:-0.002596
78864:-0.008550
78865:0.021391
78866:0.013230
78874:0.014967
78963:-0.003383
78964:0.019072
79079:0.016248
79095:-0.001450
79097:-0.001432
79098:0.005965
79176:-0.001826
79265:0.002426
79289:0.004167
79291:-0.001164
79292:0.034200
79295:0.002638
79297:0.001157
79330:-0.000375
79383:0.011747
79561:0.000655
79562:0.008377
79611:-0.020472
79708:-0.003227
79721:0.045246
79735:-0.000736
79736:0.002284
79787:-0.022048
79788:-0.001530
79794:-0.008103
79847:0.001882
79848:0.014854
79849:-0.000216
79850:-0.003278
80009:-0.053529
80020:0.003453
80027:-0.009551
80029:0.029068
80030:0.018504
80069:0.007784
80105:0.006017
80106:0.025457
80107:-0.002096
80108:-0.006232
80109:-0.019010
80240:-0.010285
80253:0.000491
80279:0.002654
80283:0.002070
80403:-0.000815
80405:-0.001103
80406:0.029616
80411:0.008377
80420:0.011371
80486:-0.001638
80568:-0.005588
80675:0.021087
80682:-0.020596
80959:-0.001217
80960:0.009162
80962:0.006699
81034:0.000837
81133:-0.001423
81185:0.003342
81186:-0.015298
81267:0.014854
81333:-0.009503
81418:-0.005361
81419:-0.005455
81469:-0.002232
81515:0.001279
81516:-0.014438
81580:0.012257
81644:0.006699
81665:0.000503
81739:0.017734
81799:0.000185
81800:0.000257
81901:0.035351
81967:0.007499
82032:0.000310
82033:0.002273
82071:0.011238
82073:0.006553
82074:0.005952
82096:-0.007836
82188:-0.000173
82189:0.004421
82219:0.008388
82264:0.016248
82272:0.003295
82343:-0.010206
82362:-0.001281
82363:0.030843
82368:-0.000221
82462:-0.002945
82536:-0.001054
82537:0.025724
82576:-0.000771
82588:0.000837
82627:0.006600
82629:0.001766
82634:0.037622
82664:0.012314
82674:-0.009718
82728:0.012257
82732:0.007210
82735:-0.003228
82803:0.007259
82906:-0.000869
82907:0.001269
82908:0.005057
82909:-0.019029
82910:-0.010206
83183:0.015958
83185:-0.005471
83198:0.034200
83261:0.005604
83262:0.001157
83335:-0.007836
83336:-0.000840
83432:-0.010624
83561:0.041581
83571:0.013292
83617:-0.010206
83793:0.024892
83867:0.018504
83956:0.030745
84224:0.025360
84270:0.003295
84325:0.021130
84496:-0.001968
84543:0.011311
84717:0.005965
84891:0.008908
85087:0.027117
85163:-0.000426
85261:0.000837
85359:0.004442
85361:-0.000802
85435:0.022565
85463:0.025360
85535:0.000317
85536:0.002939
85622:-0.000411
85649:0.018555
85671:0.013292
85707:-0.007293
85709:-0.002479
85710:0.011198
85822:-0.008319
85882:0.026743
85995:0.030424
86031:0.002939
86084:0.000257
86115:-0.003278
86201:0.021571
86264:0.000779
86370:0.003295
86434:-0.011282
86528:-0.010206
86581:0.009440
86624:0.000827
86702:0.012257
86733:0.001785
86814:0.017734
86900:0.030824
86966:0.000792
86967:-0.002985
87034:0.003295
87072:0.013230
87195:0.042120
87199:0.008515
87210:-0.017596
87267:0.009857
87331:-0.020400
87333:-0.020495
87334:-0.002072
87344:0.014908
87364:-0.009718
87432:-0.004366
87433:0.012076
87564:0.001699
87566:0.002638
87591:0.032349
87619:-0.013451
87665:-0.001868
87669:0.001269
87688:0.000342
87797:-0.000643
87799:0.000513
87800:0.011541
87881:-0.009718
87950:0.025457
87966:0.021087
88032:-0.001638
88123:0.017825
88160:0.018555
88162:-0.000494
88199:-0.005588
88212:0.012840
88220:0.000656
88334:0.003342
88335:-0.015298
88336:-0.001867
88423:0.005604
88432:0.013765
88496:-0.015217
88499:0.018504
88500:0.021571
88729:-0.008590
88784:0.016488
88955:-0.001066
88962:0.000967
88964:-0.011654
89113:0.009677
89187:0.019546
89188:0.006379
89270:-0.001530
89276:0.011747
89665:-0.001283
89666:-0.006529
89667:-0.006703
89668:0.018504
89719:0.011198
89775:-0.001423
89802:0.001152
89808:0.000257
89816:0.006643
89873:0.003295
89887:0.008955
89888:0.011653
90035:0.000481
90036:-0.004243
90054:0.019072
90221:-0.014956
90222:-0.026725
90224:0.036041
90251:-0.002474
90340:0.007269
90348:0.000655
90353:-0.016002
90417:-0.003224
90440:0.020136
90501:-0.001654
90517:0.003302
90540:-0.001196
90583:0.014967
90586:-0.003199
90587:0.000837
90668:-0.015298
90691:0.012204
90734:-0.008727
90777:0.000437
90778:0.011135
90787:-0.006829
90812:-0.019010
90880:-0.011901
90901:-0.005455
90961:-0.002705
90962:0.039608
91006:0.008666
91142:0.045246
91240:0.034200
91241:0.020230
91315:0.011106
91333:-0.000189
91335:0.000092
91336:0.011747
91404:0.019180
91412:-0.001393
91433:0.014916
91434:-0.028447
91435:-0.018137
91674:0.006492
91840:0.035351
91847:-0.018137
91853:0.029616
91889:0.007079
91890:-0.009897
91891:-0.003097
91892:0.014263
91912:-0.017596
91936:0.018504
91944:0.001785
92086:0.012118
92206:-0.013025
92305:-0.003993
92445:0.000346
92448:0.000257
92452:-0.002903
92453:0.026833
92552:0.008908
92568:0.006056
92739:0.013230
92785:0.009863
92824:-0.000426
92870:0.000344
92871:-0.000840
92911:0.017466
93001:0.006290
93003:0.000179
93004:-0.011282
93044:-0.000188
93045:-0.001530
93061:0.013550
93218:-0.009114
93219:-0.003231
93294:-0.002072
93414:0.005438
93443:0.008908
93532:0.030745
93540:0.006567
93557:-0.001707
93558:0.015459
93559:0.002036
93560:0.010497
93568:-0.001992
93588:-0.012215
93589:0.019085
93632:-0.013158
93661:0.037622
93762:-0.012673
93763:-0.003926
93765:0.021087
93896:0.004180
93951:-0.024328
93975:-0.052664
94072:-0.002218
94113:-0.002893
94114:0.023895
94433:0.056878
94507:-0.019010
94584:0.010497
94596:0.012118
94604:0.009758
94669:0.002159
94670:-0.010194
94817:-0.010503
94837:0.013230
94866:0.003302
95039:-0.000840
95050:0.031264
95136:-0.024195
95139:-0.003420
95225:-0.009131
95227:0.002063
95228:0.010847
95237:0.036542
95252:0.021598
95283:0.000257
95301:0.011371
95324:0.012257
95369:0.021457
95399:-0.018137
95435:-0.003783
95436:0.000503
95497:-0.007819
95571:0.036041
95573:0.006920
95602:0.005965
95671:0.004263
95845:-0.016002
95846:0.039462
95854:0.016141
95901:-0.010624
95909:0.012257
95930:-0.018203
96041:-0.012161
96042:0.041581
96056:-0.024328
96134:-0.001474
96215:0.000174
96217:-0.002584
96218:-0.013158
96367:-0.002212
96368:0.001269
96389:-0.014107
96391:-0.005509
96392:-0.000840
96393:0.004005
96499:0.004116
96501:-0.002197
96502:0.010196
96531:0.026833
96534:0.018504
96554:0.008377
96635:0.001269
96724:0.013768
96734:0.006373
96735:0.005952
96824:-0.009718
97066:-0.006945
97167:0.009440
97198:-0.000467
97201:0.020136
97256:0.019546
97264:0.006553
97380:0.014261
97384:0.001157
97431:0.000523
97433:0.027540
97434:0.021598
97452:0.009440
97600:0.015445
97620:0.009677
97668:0.002070
97699:-0.036290
97719:-0.000910
97788:-0.019029
97853:-0.002945
97890:-0.000668
97891:0.012295
97897:0.044870
97899:0.003163
97900:-0.040137
97913:0.012314
97982:0.008377
98026:-0.004176
98027:-0.015736
98057:-0.002985
98130:-0.002465
98132:-0.002875
98133:0.003295
98185:0.000779
98231:-0.010219
98298:0.000827
98299:0.012076
98311:0.006056
98319:0.002122
98320:-0.003278
98328:0.001651
98444:0.003340
98516:-0.007836
98523:0.010555
98570:-0.015736
98572:-0.008319
98589:0.009731
98651:-0.017596
98744:0.023091
98748:0.001677
98763:0.006920
98822:0.000568
98823:-0.003420
98842:0.004884
98843:0.025360
98852:0.021598
98970:0.006403
98998:0.007765
99016:0.005846
99017:0.000772
99018:0.002067
99030:-0.011282
99046:-0.004653
99055:0.007536
99056:-0.007191
99203:-0.002218
99242:-0.000840
99288:-0.002596
99370:0.011653
99384:-0.031645
99392:0.010716
99436:-0.000494
99475:-0.014756
99521:-0.001668
99522:0.008900
99582:0.014261
99686:0.013878
99836:-0.026725
100069:0.000837
100147:0.001677
100261:0.007765
100359:0.008900
100368:0.004492
100369:-0.002763
100555:-0.014624
100572:0.028792
100598:-0.014756
100601:0.003177
100602:0.014358
100644:0.026833
100653:-0.013630
100654:0.023091
100718:-0.014929
100788:-0.003420
100827:-0.019029
100873:-0.004243
100912:0.004005
100980:0.014263
101067:0.015459
101099:-0.001415
101100:0.003302
101174:0.019593
101197:0.023895
101254:0.000257
101371:0.006604
101423:0.021621
101469:0.006828
101471:0.001651
101472:-0.013016
101473:0.010185
101474:0.014967
101487:0.008900
101520:-0.002131
101643:-0.003408
101644:0.009046
101645:-0.002200
101647:0.008388
101707:-0.001431
101708:0.021130
101709:0.004537
101710:-0.010206
101897:-0.034960
102044:-0.001927
102070:0.001157
102238:-0.015912
102263:0.003151
102265:0.002348
102266:-0.010219
102267:-0.003420
102373:0.021571
102487:-0.000840
102584:0.000384
102606:-0.007191
102793:0.013292
102819:0.003349
102820:0.002273
102823:-0.005231
102829:0.007765
102846:0.000779
103116:0.002023
103230:0.016141
103286:-0.004243
103361:-0.009718
103375:-0.003557
103376:-0.009794
103378:0.018504
103379:0.021571
103454:0.002939
103519:-0.004243
103628:0.011198
103752:-0.000426
103826:0.021130
103838:-0.002072
103905:0.002939
103910:-0.002945
103931:-0.003876
103932:-0.003420
103992:0.002939
104096:0.004887
104098:-0.001066
104099:0.010196
104172:0.025758
104218:0.013768
104304:0.011541
104370:-0.022064
104444:-0.001082
104446:-0.002595
104447:0.030424
104448:0.006492
104487:-0.000036
104489:0.000092
104490:0.011747
104599:-0.008319
104603:0.003453
104638:0.002273
104684:0.036041
104704:0.008478
104712:-0.000173
104836:-0.000518
104837:0.025457
104972:-0.034960
105003:0.018504
105043:0.014986
105044:-0.035706
105045:-0.001826
105046:0.012295
105049:0.007665
105069:-0.001511
105147:0.014358
105236:0.031264
105244:0.001766
105436:-0.001207
105599:0.002322
105600:0.045246
105601:-0.013843
105679:-0.010206
105730:-0.001054
105768:-0.000952
105776:0.003453
105785:-0.015912
105836:-0.008354
105900:0.001910
105983:0.001269
106001:-0.005361
106038:0.006042
106069:0.006492
106133:0.000394
106135:0.008235
106136:-0.018137
106155:0.002286
106156:0.000779
106157:-0.001480
106159:0.014358
106308:-0.001480
106366:0.017356
106369:-0.013025
106370:-0.002707
106526:0.000503
106599:-0.009889
106601:0.007069
106602:0.007269
106678:-0.009718
106711:-0.000481
106712:0.021130
106713:-0.002054
106832:-0.001868
106834:-0.003785
106840:0.020456
106841:-0.034960
106897:0.000025
106899:-0.001638
106902:-0.007621
106903:-0.013025
107067:-0.012164
107068:0.019546
107069:0.003302
107071:-0.004252
107073:-0.001640
107074:0.008900
107434:0.013333
107458:0.001269
107488:0.012314
107524:-0.010285
107905:-0.003897
107966:0.018128
107967:0.017825
107990:0.000185
108164:-0.000411
108166:-0.008594
108223:0.000207
108224:0.000772
108305:-0.003420
108410:0.000257
108436:0.001752
108500:-0.002050
108501:0.009863
108682:0.027749
108968:0.001699
108980:0.001785
109004:0.008900
109024:-0.001250
109030:-0.001974
109032:-0.003193
109033:0.016637
109070:0.002143
109154:-0.000114
109254:0.045246
109303:-0.000296
109430:0.034200
109490:0.004167
109500:0.002638
109524:0.000028
109536:-0.002675
109562:-0.003115
109564:0.007617
109565:0.016248
109575:-0.002232
109698:0.017016
109699:-0.053529
109700:-0.035706
109723:-0.010206
109724:0.012314
109766:0.001157
109808:-0.020596
109847:0.004075
110024:0.029616
110032:0.000346
110033:-0.000411
110094:0.011683
110095:0.013230
110096:-0.008287
110097:-0.020472
110206:0.017002
110292:0.019708
110294:0.007784
110421:-0.004840
110424:0.015137
110465:0.002426
110556:0.007499
110564:0.002221
110571:0.035351
110590:-0.000411
110626:-0.004342
110628:-0.012357
110655:-0.018137
110931:0.023091
111158:-0.017120
111159:-0.007541
111161:0.021087
111356:-0.013451
111358:-0.001423
111397:0.010196
111509:0.015137
111541:0.002070
111607:-0.001480
111683:0.021087
111690:-0.006945
111781:-0.000818
111795:0.001677
111879:0.012257
111890:0.000503
111955:-0.006846
111956:-0.004243
112053:-0.009897
112151:0.015864
112152:-0.002188
112160:0.004151
112161:0.019708
112224:-0.000843
112225:0.017734
112227:-0.048524
112228:0.007499
112325:0.003226
112326:0.037622
112328:-0.031645
112454:-0.013630
112499:-0.015383
112549:-0.009718
112650:0.036041
112651:0.000503
112684:0.000257
112687:0.002752
112688:0.025360
112692:0.001753
112754:-0.001157
112756:-0.002713
112757:0.003295
112920:0.025996
113006:0.010196
113193:-0.015383
113194:0.018598
113216:-0.001992
113224:0.008278
113225:-0.013451
113239:0.005952
113286:-0.003424
113287:0.019072
113288:0.000946
113289:0.007259
113301:-0.018861
113302:0.012257
113386:0.012840
113486:0.005770
113538:0.001478
113539:0.007784
113619:-0.000840
113641:0.002070
113659:0.030745
113705:0.020136
113748:0.026743
113749:-0.006893
113750:0.006601
113751:-0.001538
113752:0.019546
113753:0.012635
113756:-0.001084
113767:-0.002830
113771:0.006534
113772:0.003302
113818:0.005751
113820:-0.009342
113821:-0.007386
113923:0.002284
113938:0.021598
114018:0.024892
114048:0.000690
114049:-0.001530
114068:-0.013158
114072:0.016141
114136:-0.013158
114233:0.009046
114234:0.000047
114235:-0.014756
114280:0.020136
114288:-0.003781
114305:-0.004117
114306:0.002426
114307:-0.003227
114310:-0.000840
114350:0.002103
114351:-0.019010
114352:0.012115
114353:0.018504
114404:-0.036290
114408:-0.006593
114470:0.008955
114506:0.005115
114550:0.021130
114582:-0.000515
114583:0.013765
114584:-0.000426
114602:0.000842
114730:0.016244
114778:0.004102
114779:0.025317
114780:0.001420
114781:-0.013093
114811:-0.013158
114838:0.010330
114854:-0.002763
114861:0.000133
114863:0.002638
114882:0.020200
114936:-0.016002
114952:-0.001277
114953:0.000837
114954:-0.006959
114955:0.026743
114959:0.001781
114960:0.021130
115004:0.030843
115068:-0.017139
115070:-0.009503
115071:0.014312
115074:-0.016574
115126:-0.012177
115128:0.000432
115129:0.018028
115169:-0.003501
115170:0.013230
115301:-0.000375
115304:0.000257
115344:0.011747
115356:0.005175
115414:0.029798
115417:-0.001098
115418:0.004075
115419:-0.000053
115420:0.012118
115421:-0.000840
115534:-0.002856
115536:0.000189
115537:0.019546
115538:0.004742
115589:0.003975
115612:-0.004653
115787:0.000257
115822:0.001277
115876:0.005965
115884:0.004442
115927:0.025457
115948:-0.002390
115949:0.025360
115973:0.003497
115974:0.043803
115976:-0.000411
115984:-0.017596
115993:-0.001654
115994:0.020370
116060:0.004970
116144:0.020377
116226:0.000481
116233:-0.013642
116236:0.021087
116408:0.018965
116416:-0.000889
116478:-0.001917
116480:-0.002675
116481:0.030424
116482:0.006492
116529:-0.002836
116530:0.005175
116532:0.016244
116692:-0.001654
116774:0.011653
116840:0.076141
116925:-0.008523
116926:0.004014
116940:-0.003420
116948:0.003218
117010:-0.002651
117012:-0.001579
117013:-0.010206
117085:-0.013283
117086:-0.007836
117115:0.034200
117209:-0.000758
117307:-0.007836
117472:-0.013158
117480:-0.001803
117481:0.010612
117539:-0.002125
117542:-0.002145
117544:-0.007741
117546:-0.004653
117579:-0.002314
117581:-0.010285
117582:0.014312
117585:-0.016574
117624:0.031886
117625:-0.017495
117641:-0.006829
117642:0.011653
117643:0.009008
117706:0.000772
117740:0.012295
117753:0.006145
117755:0.002067
117756:-0.010206
117915:0.012840
118004:0.016244
118005:-0.002200
118012:0.000310
118013:0.020370
118074:-0.003660
118076:-0.006443
118077:0.032349
118179:-0.024328
118192:-0.013016
118197:-0.000272
118198:0.012257
118199:0.001766
118238:-0.000758
118272:0.025317
118425:-0.013016
118471:-0.007024
118472:0.022565
118549:-0.000840
118606:-0.007233
118609:0.017825
118743:0.014405
118753:0.001735
118755:0.003218
118786:0.006056
118891:0.011747
118979:0.011747
119068:0.025996
119118:-0.004653
119138:-0.006531
119167:0.016141
119285:-0.009718
119336:-0.001530
119338:0.009677
119390:-0.013016
119511:0.000257
119590:0.006920
119600:0.003295
119608:-0.000668
119609:0.012295
119662:0.006553
119672:-0.008905
119673:0.019546
119674:0.012635
119823:-0.007386
119836:-0.011125
119841:0.014261
119868:0.014040
120043:0.007269
120099:0.028882
120108:-0.009095
120110:-0.001196
120132:-0.000958
120140:0.044803
120141:0.008377
120202:-0.011419
120204:-0.002479
120205:0.011198
120206:0.007794
120207:0.003302
120208:0.003478
120209:-0.009593
120380:-0.006672
120381:0.012204
120382:0.006049
120383:0.007269
120459:-0.009718
120664:-0.010503
120672:0.000047
120734:-0.014823
120736:0.002593
120737:-0.002474
120738:-0.018203
120833:0.021130
120942:0.012635
121103:-0.003085
121106:0.007765
121107:0.019180
121156:0.035553
121157:0.041581
121196:-0.018137
121204:-0.022064
121205:-0.001530
121266:-0.008315
121268:-0.010139
121398:0.021130
121464:0.016071
121466:0.020230
121639:0.018504
121728:0.006699
121798:-0.002541
121800:0.000432
121801:0.018028
121828:0.012490
121996:0.041581
122017:0.010196
122088:0.007499
122093:-0.004653
122191:0.007765
122330:0.004081
122333:-0.018137
122365:0.030424
122370:0.012138
122473:-0.000668
122528:0.019737
122530:-0.003993
122561:0.001157
122640:-0.018137
122735:0.043803
122787:-0.052664
122833:0.004254
122835:0.001478
122862:-0.000590
122863:0.001677
122873:-0.013025
122909:0.018765
122911:-0.013672
122947:0.001157
123007:-0.003846
123009:0.000140
123010:0.018649
123013:0.012138
123020:0.016637
123042:0.012635
123060:-0.014460
123106:0.007269
123172:0.007435
123173:0.013450
123181:-0.000568
123183:-0.002503
123184:0.003295
123235:0.030745
123241:-0.013016
123324:0.029482
123332:-0.000364
123333:0.016071
123396:-0.003208
123397:0.017466
123405:0.000087
123473:0.008377
123537:-0.018285
123539:0.001152
123540:-0.013093
123570:-0.013158
123572:0.019546
123619:0.001677
123638:0.005841
123770:-0.000663
123772:-0.001279
123774:0.014358
123825:-0.000411
123856:-0.010206
123857:0.012314
123871:-0.003200
123875:0.004075
123926:-0.008399
123928:-0.001385
123929:0.008908
124003:-0.000894
124006:0.011198
124014:0.002939
124087:-0.013158
124104:-0.001668
124236:0.000316
124238:-0.001654
124239:0.003295
124299:0.012118
124388:-0.011282
124396:-0.022902
124397:0.019737
124405:0.011653
124458:-0.007082
124460:0.006764
124461:-0.052664
124471:-0.014085
124472:0.025767
124629:0.007784
124638:-0.005588
124640:-0.004653
124658:0.056878
124862:0.003302
124920:0.005989
124935:0.002700
124949:0.016244
124954:0.021130
124990:-0.014499
124991:0.002284
124992:0.002367
124993:-0.019010
125161:0.002638
125168:-0.005635
125170:-0.002898
125171:0.032349
125188:-0.045594
125235:-0.001786
125236:0.007636
125237:-0.012106
125316:-0.009718
125340:0.001677
125364:0.002122
125394:-0.002218
125460:0.000101
125462:-0.000774
125463:0.010847
125472:0.036542
125476:0.013274
125477:0.016141
125522:-0.014884
125524:-0.005509
125525:-0.000840
125526:0.004005
125569:0.015137
125627:-0.000494
125634:0.010114
125636:-0.001249
125637:0.025996
125791:-0.005408
125792:0.010246
125794:-0.018137
125808:-0.005461
125810:-0.003047
125811:0.025211
125981:-0.018861
126054:-0.008850
126057:0.036041
126241:0.009239
126260:0.012462
126347:0.004994
126348:-0.026725
126408:0.002273
126409:0.003302
126427:0.013768
126559:0.004492
126586:-0.005461
126707:-0.008174
126724:0.018300
126746:0.040116
126792:0.003177
126903:-0.000113
126904:0.012490
126907:0.000105
126940:-0.003125
126959:0.019546
127018:-0.007541
127048:0.012295
127107:-0.017495
127120:-0.003047
127121:0.025211
127185:0.034200
127212:-0.018203
127446:0.002284
127459:-0.003286
127461:0.000349
127462:0.019546
127463:0.004742
127491:-0.019029
127580:-0.000426
127650:0.000316
127652:0.044419
127653:0.009440
127654:0.003975
127717:0.000656
127718:0.016141
127827:0.012314
127891:-0.001692
127892:0.001677
128017:-0.003228
128023:-0.003278
128112:0.014312
128182:0.022257
128183:0.034200
128184:0.003163
128185:-0.040137
128198:0.012314
128261:0.003647
128262:-0.008319
128292:0.019180
128376:0.012490
128435:-0.011453
128441:0.012257
128525:-0.010206
128555:0.021598
128571:0.003349
128572:0.002122
128573:-0.000143
128574:-0.010503
128714:0.002838
128716:0.002348
128717:-0.010219
128718:-0.003420
128758:-0.002474
128761:-0.000411
128801:0.003302
128935:0.019708
129087:-0.031645
129127:0.005543
129128:0.031944
129129:0.001807
129130:-0.014731
129131:-0.007541
129139:0.012138
129176:0.018555
129177:-0.035706
129246:-0.002562
129247:-0.024328
129248:-0.005047
129249:0.006920
129411:0.004742
129500:-0.048524
129634:-0.037894
129683:0.000180
129687:0.006699
129688:0.013292
129778:-0.007731
129867:-0.001530
130057:0.016244
130239:0.005438
130240:-0.007696
130246:-0.031645
130268:0.019593
130310:-0.008103
130314:0.011371
130324:0.012295
130344:0.000384
130345:-0.005229
130518:-0.000216
130566:0.043863
130683:0.014263
130790:0.021895
130795:-0.008030
130796:0.005115
130797:0.000622
130844:-0.001640
130845:0.008900
130888:0.007558
130889:0.007765
131023:-0.013158
131062:0.002045
131256:-0.001927
131304:0.021457
131305:0.004075
131342:0.000611
131345:0.004005
131374:-0.004531
131376:-0.003227
131568:-0.000411
131575:-0.001530
131576:0.014358
131637:0.045246
131747:-0.001927
131815:0.000257
131906:-0.005221
131908:-0.000296
131909:0.021621
131953:0.014358
131955:0.025360
132041:0.019546
132107:-0.010285
132336:0.011371
132349:0.036041
132350:0.000503
132368:-0.014731
132438:0.006237
132440:0.002141
132442:0.004075
132573:-0.000383
132574:0.004075
132699:-0.013093
132705:0.001478
132707:0.007440
132737:0.009440
132740:0.021087
132806:0.000207
132811:0.015137
132873:0.026743
132900:0.021895
132938:0.006534
132940:-0.002218
132941:0.008388
132970:0.003599
132971:0.003218
132972:0.003383
132973:-0.000840
133047:0.011106
133048:0.012741
133074:0.012741
133173:-0.000494
133243:0.020377
133319:0.001729
133417:-0.037894
133502:0.001895
133515:-0.003422
133516:0.023158
133517:-0.002054
133573:0.039462
133591:0.006601
133637:-0.004104
133689:-0.000845
133691:-0.001103
133692:0.029616
133696:0.007765
133697:0.008377
133806:0.011311
133861:-0.010206
133863:-0.005228
133864:0.000779
133865:-0.002626
133866:0.032349
133874:-0.012747
133875:0.025767
133925:0.012490
134034:0.003342
134040:-0.002662
134059:-0.014929
134096:-0.000889
134103:-0.016733
134105:0.002423
134106:-0.019010
134263:0.014376
134336:-0.003501
134338:0.008555
134339:0.016248
134391:-0.028099
134407:0.018649
134411:-0.012223
134412:-0.004653
134496:0.004020
134497:0.031944
134568:-0.001867
134939:0.031264
135028:0.010258
135029:-0.014365
135098:-0.001868
135100:-0.003785
135176:-0.001478
135228:0.017825
135261:0.002067
135302:0.012314
135409:-0.007393
135422:-0.009718
135471:-0.013025
135494:-0.000296
135500:0.014312
135510:-0.000426
135560:-0.004176
135561:-0.015736
135630:-0.003543
135632:0.003770
135633:0.014358
135634:0.001269
135642:0.000349
135644:0.035351
135674:-0.010206
135727:-0.002806
135728:0.009440
135772:-0.001826
135946:-0.002596
136003:-0.000411
136092:0.010497
136162:0.007274
136164:-0.010223
136165:-0.010206
136218:-0.026725
136222:-0.009718
136254:0.002939
136316:0.005772
136318:0.000179
136319:-0.011282
136490:0.002478
136492:0.002141
136494:0.004075
136507:0.023091
136574:0.006832
136575:-0.002487
136694:0.002627
136696:-0.003646
136698:-0.007191
136738:0.031944
136761:0.016717
136762:-0.035706
136778:0.014261
136994:0.026743
137226:-0.008590
137227:-0.003278
137273:0.012076
137277:-0.001742
137278:0.019072
137279:-0.000806
137280:0.007259
137492:-0.024328
137647:0.014358
137693:0.009440
137833:-0.004125
137834:0.028882
137835:0.002141
137836:-0.019010
137926:0.017734
138127:-0.009593
138131:0.007765
138202:0.002426
138220:0.011541
138292:-0.001612
138301:0.007269
138389:0.005178
138390:0.014609
138391:-0.003646
138393:-0.007191
138399:0.006567
138400:0.009857
138401:0.012490
138573:-0.001968
138574:0.034200
138802:0.019085
138822:-0.001618
138824:-0.000758
138836:0.029482
138845:-0.007191
138943:0.001865
138944:0.045246
138945:-0.004544
138946:-0.007191
138948:0.012840
139035:0.003295
139117:-0.001212
139121:0.003218
139123:0.001157
139195:0.014358
139284:0.004167
139354:0.000207
139356:0.006002
139501:0.005818
139502:-0.014533
139512:0.019575
139568:0.008377
139725:0.021571
139734:0.029616
139745:0.014358
139816:0.021571
139886:-0.003642
139888:0.002067
139900:-0.011282
139958:-0.011282
140044:-0.013093
140057:0.014486
140058:-0.037894
140259:0.007499
140339:0.005604
140340:0.001157
140348:0.004005
140418:-0.007149
140422:-0.012747
140424:0.030745
140510:0.011198
140576:0.000233
140591:0.001677
140613:-0.000355
140615:0.000349
140616:0.029482
140739:0.029482
140743:0.003295
140809:0.000384
140928:0.018649
140950:-0.012747
140955:0.012490
140976:0.025767
141102:0.003295
141110:0.009857
141152:0.012490
141169:0.006792
141172:0.011198
141180:0.002939
141275:-0.001553
141472:0.003975
141482:-0.012721
141488:0.012257
141508:-0.008523
141570:0.000336
141572:0.001766
141640:0.003816
141642:-0.003908
141646:0.007636
141675:0.032349
141725:0.005959
141726:0.002273
141727:0.007765
141728:-0.017714
141744:-0.000375
141746:-0.003097
141747:0.014263
141768:0.029482
141862:0.002939
141876:0.005284
141918:-0.001898
141920:-0.003151
141921:0.016637
141944:0.008388
141970:0.019072
141991:-0.004653
142016:0.000316
142042:-0.001530
142048:-0.000411
142207:0.029573
142281:0.009406
142282:0.001157
142283:0.002221
142284:-0.004243
142339:0.006751
142342:0.016244
142387:0.000257
142476:-0.009593
142550:-0.001373
142572:0.000084
142805:0.005841
142807:0.002143
142837:-0.009238
142838:0.019730
142840:-0.001250
142848:0.003340
142926:-0.001992
143008:-0.004243
143031:-0.003211
143032:0.016071
143038:-0.003269
143040:0.001348
143041:0.021621
143078:-0.001373
143080:0.002638
143227:-0.013025
143271:-0.002585
143273:-0.002675
143274:0.030424
143275:0.006492
143381:0.010847
143451:0.026743
143540:0.000737
143541:0.011653
143542:0.012490
143555:0.025996
143610:-0.001377
143614:0.002070
143664:0.004075
143729:0.001269
143730:-0.000168
143812:0.002273
143925:0.016071
143927:0.020230
143983:0.020136
144099:0.012217
144111:-0.001051
144112:-0.010206
144142:0.002070
144144:0.015859
144145:0.030745
144147:-0.000411
144196:-0.001195
144197:-0.002424
144198:0.014040
144199:0.000622
144219:0.001677
144273:0.028882
144344:-0.000411
144371:0.001671
144373:0.000092
144374:0.011747
144429:-0.001942
144430:0.014609
144511:-0.014365
144545:-0.000590
144547:-0.000200
144548:0.017466
144577:-0.001526
144662:-0.011584
144663:0.019240
144674:0.017016
144888:0.010185
145054:0.011747
145136:0.005952
145206:0.019218
145207:-0.053529
145210:0.009440
145276:0.015816
145277:0.001677
145509:0.002348
145579:0.005965
145668:0.001522
145696:0.010497
145742:0.000020
145743:-0.013016
145781:0.013550
145910:0.019072
145929:-0.010503
145972:0.003295
146014:-0.002072
146015:-0.002232
146082:-0.009718
146084:-0.000718
146111:0.006056
146118:0.018276
146162:0.031264
146200:-0.013016
146205:0.009857
146270:-0.002311
146272:-0.000789
146273:0.000257
146275:0.007765
146395:0.000257
146454:-0.001968
146455:0.040116
146467:0.020136
146472:0.007765
146643:-0.003420
146732:-0.016465
146733:-0.005588
146734:-0.000411
146796:0.015137
146802:-0.001381
146806:0.004107
146808:0.001157
146815:0.014967
146904:0.021087
146998:-0.008289
146999:-0.007836
147137:-0.005588
147172:-0.008590
147173:0.011135
147175:-0.013158
147264:0.021571
147334:0.004449
147336:0.002143
147370:0.013765
147707:0.016244
147747:-0.012747
147866:0.004785
147868:-0.002903
148398:-0.004307
148401:0.012840
148660:-0.016465
148771:0.025996
148860:0.005273
148861:0.002273
148862:0.007765
148866:0.007765
148893:0.021457
148915:0.014967
148930:-0.003679
148931:0.040116
149083:0.007765
149126:0.005965
149255:-0.000053
149303:0.003295
149319:0.023261
149320:-0.017495
149321:-0.002261
149322:0.025360
149353:-0.018861
149392:0.008388
149445:0.008388
149464:-0.000288
149465:0.011747
149527:0.021087
149625:-0.003053
149629:0.006699
149630:0.013292
149744:0.002638
149793:0.020136
149799:-0.005138
149800:-0.010871
149802:0.018504
149803:0.021571
149835:-0.000958
149847:-0.008618
149875:-0.003879
149876:0.013550
149877:0.047880
149878:0.009440
149879:0.003975
149924:-0.013630
149925:0.023091
149973:-0.002985
149977:-0.002394
149978:0.006492
149994:-0.000064
149996:-0.009638
149997:0.000257
150058:0.018504
150210:-0.000626
150211:0.002165
150254:0.000702
150255:-0.009897
150274:0.020136
150367:-0.010503
150431:0.000043
150433:0.006002
150439:0.010555
150443:0.000837
150526:-0.006841
150527:0.012204
150528:0.007069
150529:0.007269
150577:0.076141
150578:0.010847
150605:-0.009718
150610:-0.019010
150657:0.034200
150797:-0.007836
150843:-0.018203
150899:-0.018137
150987:0.001154
150988:0.011127
150989:0.000549
151058:0.001675
151059:0.012076
151060:0.000700
151142:-0.011457
151210:0.006604
151274:-0.012935
151276:0.016986
151277:0.005989
151280:0.022386
151375:0.007405
151376:-0.013025
151431:0.006699
151443:0.002273
151543:-0.007751
151544:0.003975
151545:0.000158
151590:0.003143
151591:-0.020596
151592:-0.011023
151593:0.019180
151610:0.029616
151708:0.004459
151709:-0.010206
151740:-0.004278
151742:-0.000346
151744:0.008388
151784:0.032349
151795:0.037622
151850:0.010361
151882:0.000970
151883:-0.008354
151921:0.006056
151929:0.021130
151973:-0.001618
151987:0.029482
152028:0.004180
152056:0.006228
152057:-0.020596
152061:0.017002
152099:0.004321
152102:0.020136
152107:-0.015912
152122:-0.014975
152123:-0.001196
152125:0.018504
152126:0.021571
152208:-0.008677
152209:0.017466
152252:0.006717
152254:0.002220
152255:-0.004243
152328:-0.017495
152378:0.034200
152426:0.012870
152432:0.009239
152437:-0.017596
152514:0.014908
152515:0.009857
152584:0.004742
152600:0.000703
152601:-0.012042
152602:-0.006703
152603:0.018504
152654:-0.012627
152655:-0.001349
152898:-0.000584
152906:-0.015912
152985:-0.013158
153019:0.000772
153027:0.029482
153046:0.029961
153047:0.000257
153094:-0.053529
153131:-0.003270
153132:0.006492
153188:-0.012146
153211:0.000028
153213:0.006920
153279:-0.000360
153280:0.010196
153318:-0.014756
153559:-0.010206
153560:-0.019010
153679:-0.010206
153718:-0.012167
153720:-0.004169
153721:0.030745
153722:0.003295
153767:0.005438
153769:-0.002057
153770:0.008388
153771:0.027749
153784:0.015459
153912:0.014609
154091:-0.011282
154145:0.019240
154211:0.000700
154224:0.003340
154237:-0.011282
154250:-0.003842
154251:0.015459
154252:-0.002200
154254:0.008388
154323:0.003782
154324:0.005770
154325:0.003453
154398:-0.004243
154444:0.005432
154445:-0.026725
154509:0.000349
154623:0.005989
154631:-0.004243
154677:-0.002479
154683:-0.003227
154690:0.024433
154782:-0.000192
154783:0.004075
154784:-0.000027
154785:0.012118
154786:-0.000840
154864:-0.000426
154879:0.037383
154880:-0.045594
155053:0.000758
155054:0.002122
155055:0.000469
155056:-0.010503
155097:0.002939
155221:-0.018203
155227:0.003083
155229:0.002348
155230:-0.010219
155231:-0.003420
155314:0.003477
155316:0.000254
155330:0.013768
155578:-0.001054
155796:0.036041
155846:-0.001464
155974:-0.004653
156110:-0.003151
156150:-0.007191
156177:-0.009718
156378:-0.004104
156538:0.015445
156592:0.013292
156642:0.003177
156643:0.014358
156672:0.012217
156751:0.012295
156912:-0.002326
156913:0.013768
156914:-0.004243
157136:0.006643
157137:0.015459
157148:0.006492
157174:-0.006320
157175:-0.004243
157283:-0.000426
157362:-0.002072
157408:0.008377
157442:-0.002856
157444:0.000189
157445:0.019546
157446:-0.047649
157447:0.007499
157583:0.002284
157604:-0.002232
157680:0.006580
157683:0.011198
157691:0.002939
157706:0.015514
157707:-0.047940
157815:0.014312
157828:0.011541
157854:-0.001373
157856:0.002638
157974:-0.000869
157975:0.001269
157976:-0.012616
157977:-0.019029
157978:-0.010206
158380:0.005273
158436:-0.004243
158442:0.000503
158506:-0.016270
158508:0.000992
158509:-0.003278
158527:0.018504
158657:-0.015912
158679:-0.003897
158680:0.024892
158846:0.016244
158879:0.018555
159038:-0.012512
159039:-0.007191
159040:0.018391
159041:0.021598
159042:0.010196
159219:0.013292
159248:0.006492
159266:0.014040
159302:-0.000636
159303:0.010196
159374:0.001269
159447:-0.005229
159541:-0.002232
159545:0.021621
159570:0.029802
159573:-0.031645
159574:0.011311
159611:0.013043
159622:0.019575
159665:0.014263
159679:-0.015736
159743:0.002541
159776:0.020136
159778:0.030424
159834:-0.003159
159835:0.011311
159839:0.016637
159844:0.002067
159943:0.014908
159976:-0.014121
159978:0.009239
159979:0.021571
159980:-0.004653
159981:0.012138
160031:-0.034960
160035:0.004421
160077:-0.003489
160102:0.014741
160106:-0.013016
160112:0.028882
160113:0.019575
160209:-0.003358
160211:-0.007191
160222:0.010361
160293:0.020136
160307:0.005454
160309:-0.002127
160310:0.000492
160311:0.027749
160349:0.020136
160366:0.001399
160367:-0.013016
160442:-0.000786
160444:-0.008174
160445:0.018965
160481:-0.001921
160483:0.000349
160484:0.019546
160485:0.004742
160564:0.010196
160602:-0.003993
160636:-0.000375
160638:-0.002072
160639:-0.002232
160675:-0.005434
160677:-0.007715
160678:0.014263
160805:-0.003722
160806:-0.012527
160844:-0.028447
160864:0.020230
160898:-0.009114
160899:-0.003231
160912:-0.002311
160963:0.007765
161007:0.021457
161068:0.006492
161097:0.006042
161160:-0.007836
161166:-0.000375
161168:-0.003125
161169:0.014263
161301:0.002165
161361:-0.005735
161362:0.021130
161364:0.017825
161367:-0.001480
161374:0.029798
161430:-0.006703
161522:-0.013158
161600:-0.007393
161628:-0.013910
161698:-0.007471
161700:-0.003405
161833:0.000349
161917:-0.005708
161921:0.011371
162029:-0.001196
162066:-0.006686
162067:0.011747
162071:-0.013979
162072:-0.007836
162148:-0.007836
162230:-0.004415
162232:-0.000512
162233:-0.001927
162292:0.011747
162294:0.036041
162350:0.000837
162466:0.017466
162473:-0.007536
162474:0.016488
162475:0.000316
162477:0.006056
162603:0.021895
162615:0.006492
162662:0.012295
162762:-0.012215
162765:0.006832
162766:0.015445
162913:0.000368
162934:0.005005
162935:0.020377
162936:0.004442
162937:0.012295
163010:0.019240
163026:-0.002851
163027:0.015445
163029:-0.010029
163030:0.021087
163031:-0.003575
163032:0.030745
163033:0.003295
163108:0.011021
163109:-0.037894
163146:-0.011659
163147:-0.018203
163185:0.002426
163224:0.017825
163282:-0.004757
163284:-0.001538
163285:0.019546
163286:0.012635
163294:0.000084
163391:0.002284
163541:-0.013158
163558:-0.002595
163566:-0.013630
163567:0.023091
163570:0.006492
163585:-0.000177
163587:0.000406
163588:0.031264
163596:0.019546
163612:-0.009108
163613:0.025724
163651:0.023091
163756:0.012295
163799:0.003742
163800:0.031944
163830:-0.020596
164032:0.025996
164090:0.006228
164091:-0.020596
164117:0.010196
164141:0.001674
164142:0.012217
164143:0.002348
164144:-0.003420
164156:0.003975
164199:0.002752
164200:0.025360
164324:0.019575
164360:-0.008727
164361:0.025767
164498:0.012840
164622:-0.009695
164634:-0.004653
164697:-0.004949
164731:0.007269
164774:-0.008354
164890:-0.008701
164893:0.018649
164894:-0.028447
164908:0.019737
165007:0.006492
165154:0.019235
165155:-0.028447
165156:-0.018137
165236:-0.018137
165253:0.003882
165256:0.004005
165263:-0.004176
165365:-0.004282
165366:0.011653
165422:-0.005694
165424:0.002247
165425:0.031264
165433:0.019546
165542:0.000828
165617:0.008388
165735:0.011915
165795:0.010497
165809:0.015782
165810:-0.013016
165884:-0.013093
165909:0.002469
165954:0.017356
165957:-0.013025
166037:0.014967
166073:0.014864
166306:0.011135
166363:0.001677
166365:-0.005028
166366:0.020377
166367:0.004442
166368:0.012295
166474:0.008377
166486:0.012870
166497:-0.017596
166530:0.010196
166539:-0.013016
166733:-0.009718
166750:-0.001538
166762:0.012635
166763:0.005952
166985:0.012314
167002:0.014967
167082:0.010847
167229:0.020136
167282:-0.002479
167462:0.021598
167548:0.004005
167557:-0.005899
167558:0.012257
167614:-0.002409
167629:0.034200
167720:0.018504
167781:0.005989
167814:0.001729
167818:-0.018251
167826:-0.018203
167843:0.025457
167923:0.011541
167928:-0.036290
167992:0.000549
167997:0.021598
168012:0.011311
168014:0.014358
168086:-0.007355
168115:-0.015736
168162:0.003295
168313:-0.002125
168346:-0.007827
168347:-0.007355
168362:0.001968
168365:0.004005
168536:0.000974
168537:-0.007191
168539:0.012840
168618:-0.002487
168645:-0.024328
168678:-0.021448
168713:0.017466
168779:0.000512
168780:-0.020596
168878:0.006832
168879:-0.002487
168911:0.002638
168913:-0.001406
168987:0.004167
169012:-0.001942
169076:-0.002072
169144:-0.002365
169146:-0.003594
169245:-0.011969
169259:0.000664
169262:-0.000411
169377:-0.001638
169379:-0.000753
169380:0.029482
169519:0.021571
169685:-0.001054
169686:0.009440
169770:0.024892
169779:-0.002763
170051:0.004005
170067:-0.000840
170140:-0.001250
170173:-0.004243
170212:0.014687
170213:0.029616
170214:0.022565
170246:0.000664
170302:0.002663
170303:-0.013451
170309:-0.011654
170311:0.000267
170312:0.018028
170347:-0.000411
170445:0.002638
170474:-0.003961
170475:0.022565
170521:0.018504
170542:-0.001220
170617:0.014040
170619:0.000406
170717:-0.000840
170742:0.017326
170745:0.007499
170746:0.014405
170749:0.001163
170750:-0.007836
170768:-0.000221
170793:0.000036
170794:-0.013016
170891:-0.001530
170964:-0.007191
170989:0.001480
170991:0.008535
171006:-0.006447
171007:0.014405
171065:0.002915
171066:-0.002232
171163:-0.004558
171164:0.003975
171165:-0.003414
171204:0.010847
171257:0.034200
171274:0.011021
171278:0.013765
171337:-0.001530
171338:0.000837
171339:-0.012106
171382:0.023798
171467:0.010551
171468:0.016488
171538:-0.000515
171539:0.013765
171540:-0.000426
171549:0.011747
171615:0.000342
171616:-0.001196
171628:-0.013158
171647:0.008388
171700:0.002348
171810:-0.002763
171848:0.001284
171887:0.016141
171933:0.001399
172070:0.004492
172071:-0.002763
172179:-0.009593
172248:0.012741
172268:0.045083
172314:-0.002348
172315:0.034200
172340:0.000278
172341:0.002939
172428:-0.013158
172602:-0.005509
172614:0.004005
172711:-0.004243
172713:-0.005588
172819:0.028882
172847:-0.002351
172849:0.007617
172850:0.016248
172870:0.000308
172873:0.000257
172877:-0.003128
172878:0.026833
172944:0.004075
172974:-0.010503
173010:0.016141
173148:-0.010219
173200:0.007499
173243:0.000737
173246:-0.001553
173344:-0.014460
173373:0.010361
173402:-0.000371
173403:-0.004466
173404:0.008204
173405:-0.010487
173420:0.047880
173450:0.002939
173520:0.014376
173616:-0.006716
173617:0.025944
173618:-0.022780
173619:-0.002072
173627:0.014261
173649:-0.009718
173692:0.039462
173790:-0.000373
173791:0.012217
173792:0.002348
173793:-0.003420
173834:0.007765
173853:-0.004653
173899:-0.052664
173934:-0.000128
173936:-0.006959
173937:0.026743
173938:0.025724
173941:-0.007607
173942:0.023869
173959:0.002761
173960:0.028882
173961:-0.004240
173962:-0.000840
173964:-0.003057
173966:0.002141
173967:-0.019010
174132:0.016637
174198:-0.009108
174199:0.025724
174466:-0.001914
174469:0.020136
174515:0.015913
174516:0.002284
174730:0.044419
174742:0.003975
174785:-0.002311
174839:0.005952
174998:0.001671
175002:0.039462
175008:-0.005588
175018:0.011371
175071:0.002045
175072:-0.018355
175262:-0.016002
175263:0.039462
175371:0.001522
175423:0.012138
175532:-0.000106
175533:0.011747
175601:0.011198
175627:0.000284
175629:0.000134
175635:0.016141
175707:0.025457
175794:0.002348
175806:-0.003420
175903:-0.013016
175951:-0.004653
176047:0.000310
176048:0.002273
176062:0.000115
176064:-0.001432
176065:0.005965
176066:0.013550
176145:0.012076
176164:-0.018137
176183:0.009854
176185:-0.001553
176186:0.003295
176326:-0.009292
176327:0.013550
176397:-0.013025
176417:0.002995
176419:-0.010624
176420:0.021871
176421:0.013230
176429:0.014967
176435:-0.016465
176483:0.021571
176545:0.007784
176591:0.000038
176593:0.006002
176594:-0.001192
176596:-0.008174
176597:0.018965
176603:0.000837
176630:0.007269
176739:0.005931
176741:-0.010624
176742:0.021871
176743:0.013230
176751:0.014967
176778:0.003302
176885:0.000105
176949:0.006056
176967:0.021571
177015:0.010716
177096:0.019546
177116:0.011371
177126:0.000022
177128:0.002348
177129:-0.003420
177182:0.014263
177292:-0.008240
177293:0.043803
177295:0.006700
177297:-0.018251
177298:-0.004243
177299:0.012138
177316:0.008377
177402:0.011371
177488:-0.007607
177489:0.021130
177658:0.001556
177660:-0.002584
177661:-0.013158
177714:-0.003270
177846:-0.002197
177848:-0.002074
177851:0.002354
177853:0.002265
177922:-0.001640
177956:0.014358
177974:0.035351
178082:0.000441
178176:0.012462
178190:-0.004379
178193:0.016244
178197:0.016141
178228:0.008388
178248:-0.009897
178254:0.012490
178314:-0.004572
178315:0.014908
178318:0.016000
178402:0.019546
178407:-0.001105
178408:0.000257
178454:-0.003227
178563:0.005273
178679:0.028792
178722:0.007435
178723:0.014376
178778:0.031903
178781:-0.031645
178888:0.000828
178946:0.003302
178986:-0.000296
179011:0.002070
179013:0.015859
179014:0.030745
179016:-0.000411
179044:0.007009
179047:0.001522
179095:0.008388
179218:-0.012146
179220:-0.004169
179221:0.030745
179222:0.003295
179237:0.040930
179238:0.008377
179244:-0.002473
179246:0.002438
179247:-0.010219
179248:-0.003420
179256:-0.001249
179257:0.025996
179258:-0.002232
179470:-0.000360
179477:-0.002806
179479:0.002771
179480:0.007259
179518:0.002230
179519:-0.002232
179530:0.004075
179532:0.021130
179627:-0.013630
179785:-0.013451
179786:0.000316
179788:-0.001654
179789:0.003295
179790:0.002426
179870:-0.020596
180050:-0.004252
180051:0.002426
180132:0.012204
180317:0.000457
180318:-0.000696
180320:0.001284
180321:-0.000958
180402:0.000776
180403:-0.000910
180550:0.010667
180551:-0.014756
180635:0.005432
180783:-0.001826
180850:0.000272
180851:0.002122
180852:0.000469
180853:-0.010503
180855:0.012295
180868:-0.002556
180869:0.000779
180931:-0.018203
181094:0.012138
181203:0.019546
181370:-0.001196
181382:-0.001305
181384:0.009731
181385:-0.018137
181386:0.028882
181401:0.024892
181521:0.003302
181646:-0.004891
181647:0.028882
181671:0.000843
181673:0.004887
181715:-0.005509
181747:0.008900
181797:0.010361
181845:-0.002268
181847:-0.001327
181853:0.016141
181902:0.021895
181914:-0.001428
181915:-0.002985
181917:0.006699
181945:-0.004653
181948:-0.006320
181949:-0.004243
182019:0.032108
182020:-0.017495
182021:-0.002261
182022:0.025360
182135:-0.013158
182178:-0.004341
182220:-0.048524
182221:0.007499
182287:0.004742
182288:-0.013158
182368:-0.001927
182411:0.008377
182446:0.000025
182450:-0.026725
182710:0.005432
182711:-0.026725
182722:0.001269
182980:-0.001638
183067:0.025360
183242:0.002067
183343:0.011653
183510:-0.001638
183512:0.000349
183513:0.029482
183514:0.011653
183576:-0.007355
183737:0.012138
183774:-0.004282
183775:0.011653
183786:-0.007191
183928:-0.002125
183943:-0.019450
184042:-0.000247
184043:0.002165
184044:0.005469
184045:0.007028
184102:-0.004252
184103:0.002426
184202:0.002165
184472:-0.001376
184574:0.006355
184576:0.000179
184577:-0.011282
184646:-0.007731
184650:0.011371
184848:0.021130
184866:0.000737
184889:-0.010833
184890:0.001724
184891:-0.000313
184892:0.017734
185009:-0.004243
185099:0.014312
185106:-0.002621
185107:-0.002830
185108:-0.002125
185109:0.005989
185112:0.022386
185225:-0.004840
185332:0.000257
185370:-0.001511
185445:0.000173
185447:-0.001385
185448:0.008908
185541:-0.048524
185565:0.019546
185638:0.011915
185884:0.029482
185902:-0.000758
185950:-0.001279
185951:-0.002945
186001:-0.002697
186003:0.003770
186004:0.014358
186005:0.001269
186015:0.035351
186170:0.018555
186179:0.014376
186183:-0.011901
186251:0.012295
186264:0.021087
186283:0.004005
186416:0.000249
186417:0.002122
186434:0.006002
186457:0.012840
186555:-0.001393
186557:0.002663
186558:0.007339
186559:0.002067
186607:0.043863
186649:-0.005877
186660:0.019546
186704:-0.000494
186706:-0.005588
186729:0.002067
186754:0.001677
186781:-0.002409
186783:0.029968
186784:0.011311
186816:0.011106
186863:0.002284
186966:0.003333
186967:-0.005588
187016:-0.000283
187017:0.004742
187069:0.019708
187099:-0.003929
187113:-0.010779
187114:0.003628
187115:0.009606
187116:0.021598
187137:0.010196
187139:0.000837
187234:-0.000494
187236:-0.001826
187237:0.012295
187240:0.007665
187273:0.017016
187348:0.004531
187353:-0.001025
187480:-0.000347
187483:0.006699
187510:-0.008618
187522:0.010361
187574:-0.000411
187669:0.002498
187672:0.007499
187676:0.000662
187677:-0.007836
187724:0.016141
187766:-0.000345
187768:-0.017196
187769:-0.000426
187882:0.018692
187884:0.012295
187946:0.003500
187948:0.000773
188001:-0.001530
188135:-0.001423
188139:-0.004243
188179:-0.003785
188181:0.003770
188182:0.014358
188193:0.035351
188201:-0.013016
188225:-0.000905
188298:-0.002929
188300:-0.009503
188301:0.014312
188304:-0.016574
188368:-0.018203
188412:-0.011708
188414:-0.007283
188415:0.011198
188417:0.000664
188584:0.002284
188700:0.043863
188720:0.024892
188721:0.008377
188733:-0.002072
188735:0.007499
188781:0.000332
188782:-0.001196
188794:-0.013158
188830:-0.018227
188834:0.002273
188882:0.002284
189094:0.000310
189095:0.002273
189104:0.000766
189112:-0.004653
189182:0.003453
189183:-0.013016
189225:0.000779
189252:0.003218
189337:0.014471
189338:-0.018861
189340:0.001522
189356:0.006232
189357:-0.018203
189362:-0.013979
189365:-0.002275
189366:0.017825
189374:0.013292
189454:-0.034960
189485:-0.002131
189486:0.000257
189530:0.003177
189531:0.014358
189628:-0.014365
189638:-0.000758
189650:0.000837
189726:0.002235
189728:0.002023
189736:0.013878
189766:-0.007541
189802:0.006257
189803:-0.009108
189885:-0.000910
189893:0.004879
189894:-0.000734
189895:0.002638
189898:0.023091
189900:-0.014246
189901:-0.005866
189902:0.009606
189903:0.021598
189990:0.012076
190074:-0.004525
190075:-0.012527
190158:-0.007149
190159:0.023091
190262:0.019072
190267:0.010196
190331:0.025457
190351:0.000779
190417:-0.002903
190428:-0.001526
190429:0.014908
190430:0.021598
190432:0.016000
190449:0.001000
190450:0.025944
190451:-0.022796
190452:-0.002072
190460:0.014261
190482:-0.009718
190545:-0.003085
190650:0.002230
190651:-0.002232
190702:0.002070
190837:0.021571
190861:0.015445
190863:0.009440
190883:0.000170
190884:-0.020596
190896:-0.001992
190922:0.002426
190958:0.002995
190963:0.001677
191070:-0.011282
191222:0.016939
191223:0.001677
191331:-0.013910
191362:0.019546
191395:-0.028099
191427:-0.004653
191490:0.002752
191492:-0.010624
191493:0.021391
191494:0.013230
191502:0.014967
191536:0.030745
191537:-0.002072
191609:-0.002662
191684:0.013292
191711:-0.003420
191809:0.045616
191810:0.000257
191878:0.018300
191885:-0.019010
191925:-0.020596
191927:-0.002232
191981:-0.026725
191983:-0.001432
192022:0.005249
192074:0.034200
192081:-0.014789
192083:0.009677
192157:-0.006447
192158:0.014405
192353:0.001880
192354:0.012295
192355:-0.002232
192368:0.002284
192429:0.013765
192459:-0.017495
192511:0.039462
192527:-0.000905
192529:0.000368
192530:-0.001992
192535:0.019593
192554:-0.004176
192556:0.005866
192557:-0.014624
192558:-0.007541
192566:0.012138
192701:-0.006959
192702:0.019240
192703:-0.010139
192744:0.011311
192830:0.000105
192842:0.000828
192878:0.000837
192989:-0.028447
193086:0.001181
193089:0.021895
193091:0.002284
193097:0.017002
193111:0.014854
193121:-0.003420
193138:-0.024328
193350:-0.000736
193351:0.002284
193401:0.034200
193459:0.012295
193568:-0.013093
193618:0.004603
193619:-0.008319
193810:0.007499
193812:0.014967
193894:0.002638
194034:0.011198
194055:0.008900
194066:-0.007541
194240:-0.005231
194267:0.003295
194338:0.021457
194339:0.004075
194414:0.002067
194456:-0.000411
194500:0.025767
194586:0.001497
194587:0.000779
194589:0.003975
194610:-0.000221
194684:0.001233
194685:0.006671
194686:0.019072
194784:-0.001511
194819:0.014908
194863:-0.004653
194876:0.012138
194882:0.004075
194885:0.008278
194946:-0.002903
195119:0.021130
195154:0.000489
195156:-0.003227
195157:-0.000426
195199:0.032349
195214:0.005760
195217:0.011198
195221:-0.003420
195225:0.002939
195285:-0.031645
195328:-0.003543
195330:0.003770
195331:0.014358
195332:0.001269
195342:0.035351
195351:-0.000221
195518:0.030745
195580:0.004075
195587:-0.013093
195651:-0.005455
195653:-0.018861
195746:-0.000518
195747:0.025457
195748:-0.002096
195749:-0.006232
195750:-0.019010
195751:-0.010219
195984:0.007259
196050:-0.012721
196056:0.012257
196181:-0.007355
196182:0.008853
196183:0.012741
196186:0.006699
196187:0.013292
196274:-0.000411
196278:-0.007519
196280:0.002036
196281:0.010497
196283:0.005669
196289:-0.001992
196415:-0.013979
196516:0.000036
196542:-0.002167
196543:0.034200
196650:0.000368
196651:-0.001992
196713:-0.002487
196808:0.009677
196810:0.000028
196867:-0.000840
196881:-0.003270
196883:-0.011659
196884:-0.019029
196885:-0.010206
196931:-0.004186
196932:-0.028099
196936:0.019085
196965:0.001522
197041:-0.002618
197074:-0.009638
197118:-0.001373
197139:0.030745
197169:0.003295
197239:-0.000411
197303:0.000779
197342:0.001910
197347:-0.024328
197349:-0.003047
197350:0.025211
197366:0.012257
197487:-0.012329
197488:0.039462
197507:0.002122
197511:-0.018203
197573:0.002023
197606:0.006635
197607:-0.024328
197655:-0.046622
197656:0.012295
197685:-0.020596
197715:0.011311
197728:0.020136
197779:0.019240
197781:0.007170
197783:-0.002218
197784:0.008388
197785:0.014967
197806:0.000342
197876:-0.000007
197955:-0.000064
197957:-0.009638
197958:0.000257
198039:0.003013
198040:0.005175
198043:0.003333
198044:-0.005588
198045:-0.001511
198138:0.000700
198235:0.040116
198272:-0.003846
198273:0.003975
198309:0.022565
198406:0.001054
198408:0.001605
198409:0.011541
198420:-0.002568
198434:-0.009718
198505:-0.002525
198506:0.001277
198599:-0.001006
198601:-0.004699
198602:0.000257
198670:-0.006863
198692:0.003295
198779:-0.002072
198841:0.014405
198843:-0.013016
198925:0.009857
198938:0.001095
198939:0.045246
198940:-0.009443
199007:-0.004653
199119:0.014687
199155:0.000107
199157:0.005379
199215:0.021571
199286:0.028882
199352:-0.000027
199373:0.013765
199428:0.013878
199470:-0.003834
199471:0.006492
199472:-0.001393
199473:0.004167
199481:0.024433
199585:0.006002
199624:0.021087
199673:0.006056
199711:-0.000735
199713:0.000368
199714:-0.001992
199719:0.019593
199772:-0.016465
199773:-0.005588
199774:-0.000411
199818:-0.006447
199819:0.014405
199843:-0.001491
199844:0.014040
199857:-0.005588
199905:-0.002763
199940:0.025360
199964:-0.017596
200002:0.004560
200003:-0.013025
200004:0.000021
200005:0.022633
200006:0.014202
200048:0.009857
200051:-0.002050
200090:0.013765
200136:0.019708
200138:0.007784
200238:0.005965
200266:-0.012146
200267:0.002479
200268:-0.002830
200269:-0.002125
200270:0.005989
200273:0.022386
200310:0.011747
200408:0.002221
200410:0.000624
200411:0.000828
200418:0.018300
200484:0.025457
200534:-0.006947
200537:0.004005
200538:0.006492
200584:-0.008497
200585:0.025767
200756:-0.006945
200757:0.007499
200758:-0.000560
200759:0.017734
200798:-0.004346
200799:0.006492
200810:0.003295
200823:-0.003391
200824:0.008377
200907:0.010847
200980:-0.001530
201114:-0.001530
201170:0.018504
201330:-0.002200
201343:0.008388
201379:0.007558
201380:-0.014929
201503:0.028882
201600:0.007170
201862:-0.000053
201874:-0.000840
201935:-0.001723
201937:0.007115
201971:0.035553
201972:0.041581
201990:-0.009718
202033:0.025724
202056:0.001269
202130:0.007170
202132:-0.002218
202133:0.008388
202134:0.024193
202394:-0.005425
202395:0.021087
202491:0.003275
202512:-0.015298
202567:-0.026725
202588:-0.004840
202591:0.015137
202662:0.006573
202663:0.003302
202664:0.003478
202665:0.007278
202745:-0.005455
202765:0.056878
202839:-0.009292
202840:0.013550
202969:0.008388
203035:-0.008519
203036:-0.014460
203097:0.039462
203194:0.001676
203196:-0.017051
203197:-0.004243
203198:0.012138
203209:-0.003813
203210:0.014376
203288:0.011311
203383:-0.004792
203521:0.004742
203726:-0.004441
203727:-0.018203
203729:0.002494
203730:0.003302
203820:0.044771
203835:0.002284
203988:0.006699
203990:-0.001773
203991:0.003302
204053:-0.000173
204112:0.016244
204134:-0.019010
204154:0.001269
204161:0.013550
204220:-0.000411
204258:0.010330
204262:0.008644
204263:0.013292
204367:0.016248
204522:0.000185
204523:0.006604
204535:0.004742
204686:0.014358
204716:-0.001025
204748:0.018300
204790:0.010716
204794:-0.018203
204884:-0.007348
204919:0.011198
204922:0.000105
204985:0.000625
205054:0.005950
205055:-0.018203
205066:-0.010206
205117:-0.001279
205119:0.020167
205127:0.013878
205218:0.005432
205235:0.019593
205286:0.043803
205292:0.000634
205293:-0.001196
205305:-0.013158
205324:0.006373
205325:0.005952
205352:-0.002096
205353:-0.006232
205354:-0.019010
205451:-0.003165
205564:0.016141
205583:-0.001586
205585:0.001284
205586:-0.000799
205739:0.001677
205780:0.000664
205783:-0.000411
205816:-0.008701
205819:0.018649
205836:-0.000559
205839:0.021895
205847:0.017002
205854:0.007009
205857:0.001522
205985:-0.002487
206010:-0.014188
206015:0.012490
206051:-0.000288
206052:0.011747
206118:0.009606
206240:0.035351
206386:0.000441
206388:-0.008177
206389:-0.013016
206390:0.010185
206391:0.014967
206452:-0.004840
206508:0.000460
206509:-0.000411
206515:-0.006737
206518:0.017825
206741:0.010667
206803:0.010361
206918:-0.008939
206921:-0.017714
206974:-0.001826
207353:-0.002232
207450:-0.014121
207452:0.009239
207453:0.021571
207454:0.009742
207455:0.012138
207463:0.002284
207522:0.005175
207714:-0.001281
207715:0.030843
207755:0.003975
207821:0.005903
207822:0.040116
207834:0.020136
207885:0.002426
207906:-0.005509
207908:-0.003085
207911:0.007765
207922:-0.018137
207982:0.007558
208054:0.002348
208093:0.005020
208094:-0.018203
208139:-0.006320
208191:-0.005229
208246:-0.003097
208287:-0.003405
208365:0.011653
208463:-0.016375
208465:0.009239
208466:0.021571
208467:-0.004653
208468:0.012138
208474:-0.002072
208514:0.010454
208515:-0.014929
208518:-0.018203
208520:-0.000803
208521:0.002284
208634:0.020136
208637:0.001884
208639:0.000867
208753:-0.001640
208778:0.006232
208779:-0.018203
208835:0.000828
208919:0.011653
208940:0.011541
208972:-0.002662
208973:0.002585
208974:0.008900
208975:0.000733
208977:-0.004653
209049:0.005454
209064:0.003218
209258:0.015445
209310:-0.000818
209432:0.029482
209481:0.028882
209529:0.002428
209531:-0.005047
209532:0.006920
209578:0.005284
209580:-0.002127
209581:0.008388
209582:-0.005768
209639:0.018504
209842:0.002243
209843:-0.009897
210059:0.006699
210085:-0.008381
210090:0.012490
210110:0.001528
210113:-0.003228
210148:0.006604
210381:0.002273
210448:-0.001992
210496:-0.011282
210545:-0.026725
210546:-0.000889
210547:0.008377
210641:-0.004278
210642:0.003555
210643:0.000779
210644:-0.001279
210646:0.014358
210720:0.000317
210758:-0.010206
210818:-0.004653
210894:-0.002479
210899:-0.001992
210991:-0.001373
211079:-0.015298
211090:0.000506
211091:0.024892
211092:-0.001084
211093:-0.013910
211166:-0.005455
211170:0.006492
211174:0.001754
211176:0.023798
211184:0.013878
211197:-0.000191
211198:-0.001530
211199:-0.008497
211200:0.025767
211214:0.011653
211271:-0.001025
211272:0.009440
211438:-0.006526
211439:0.008900
211440:-0.009695
211442:-0.004653
211609:0.011653
211629:0.013292
211706:0.015392
211707:-0.002945
211710:0.008666
211753:0.002271
211755:-0.001432
211756:0.005965
211904:0.005273
211913:0.000837
211970:-0.003818
211971:0.008666
212157:0.006699
212234:-0.004653
212238:0.020456
212309:0.000489
212311:-0.003227
212312:-0.000426
212358:0.013292
212370:0.016244
212502:0.000406
212518:-0.003993
212519:0.018276
212772:-0.000283
212773:0.004742
212774:-0.001530
212858:-0.010206
212865:-0.002603
212866:0.006492
212867:-0.001393
212868:0.004167
212876:0.024433
212977:-0.007191
212984:0.006492
213034:0.000292
213035:-0.001530
213069:0.021621
213075:-0.000426
213091:-0.000758
213207:0.014609
213217:0.002165
213249:0.014358
213302:0.001273
213304:0.001766
213347:-0.000494
213388:-0.019029
213421:0.000731
213422:0.004421
213423:0.002023
213431:0.013878
213489:0.012314
213498:-0.005093
213499:0.008666
213518:0.006056
213521:-0.004891
213522:0.007708
213694:0.001252
213695:-0.007836
213834:0.001882
213835:0.006042
213836:0.002638
213854:0.001269
213891:0.000538
213892:0.002165
213893:0.005469
213894:0.007028
213920:0.005020
213977:-0.000987
213978:0.008377
214010:0.020136
214041:0.025360
214052:0.007440
214054:0.000384
214065:-0.005192
214067:-0.000296
214068:0.021621
214107:-0.004653
214271:0.011135
214287:0.003478
214288:-0.009718
214362:0.012635
214366:0.003607
214368:-0.001478
214386:-0.009108
214486:0.014967
214518:-0.001034
214520:-0.002435
214521:0.012295
214524:0.007665
214801:-0.005588
214806:0.012217
214898:0.000998
214900:0.008535
214902:0.043803
215094:0.000837
215153:-0.013016
215158:0.013292
215162:-0.006458
215163:0.043803
215217:-0.014022
215222:0.012490
215426:-0.018203
215430:0.009249
215443:0.003218
215450:0.002423
215452:-0.009648
215453:-0.000840
215454:0.004005
215550:0.012138
215597:0.006056
215639:-0.008319
215676:-0.002131
215683:0.009525
215685:-0.008053
215686:-0.020472
215702:0.008388
215738:-0.002232
215876:0.000257
215962:0.008535
215963:-0.008594
215966:-0.008354
215991:-0.000411
216226:-0.006482
216227:-0.008354
216246:0.009857
216248:-0.013025
216263:0.012257
216399:0.000772
216420:0.003295
216421:0.034200
216424:-0.024328
216496:-0.002568
216504:0.018300
216518:-0.000007
216520:0.001605
216521:0.011541
216523:0.008535
216608:-0.004066
216609:0.012490
216692:-0.002311
216694:-0.000722
216695:0.000257
216697:0.007765
216756:-0.001393
216841:0.002230
216929:0.002273
216989:0.005469
217026:0.004226
217028:0.001478
217074:0.006594
217075:-0.028099
217145:0.009440
217290:-0.001103
217300:0.013292
217455:-0.012146
217468:0.028792
217494:-0.008354
217524:0.016244
217558:0.004854
217560:0.006403
217576:0.040116
217642:0.010196
217727:0.006492
217875:0.005952
217900:0.013878
217993:0.023091
217999:0.003295
218090:0.007874
218091:0.007784
218092:0.000384
218328:-0.011282
218341:0.020136
218384:-0.005229
218494:0.020136
218503:0.025767
218529:0.016488
218574:0.021598
218622:0.006531
218624:0.002220
218625:-0.004243
218677:0.017734
219040:-0.036290
219041:-0.026725
219047:0.004014
219145:0.020456
219146:-0.034960
219147:-0.000283
219148:0.004742
219154:-0.001651
219155:-0.001423
219218:0.012295
219221:0.043863
219223:0.012462
219227:-0.019010
219273:0.003295
219319:0.015700
219320:-0.014365
219321:-0.000349
219418:0.000317
219493:0.018343
219494:0.010361
219495:-0.001054
219496:0.009863
219652:0.035351
219686:0.000842
219687:0.000503
219782:-0.028447
219943:0.013292
220149:-0.003420
220214:0.004005
220220:0.004887
220384:-0.007191
220459:0.013545
220460:0.006257
220461:-0.001054
220462:0.009863
220482:0.000368
220606:0.010847
220657:0.004180
220750:0.004887
220752:-0.001066
220753:0.010196
220754:0.002426
220848:0.008900
220857:0.012490
221014:-0.006970
221015:-0.004395
221016:-0.002487
221017:-0.002479
221018:0.011198
221032:0.003975
221054:-0.007836
221072:0.004005
221282:0.002334
221283:0.005770
221284:-0.002074
221305:0.005989
221325:-0.019010
221402:0.001091
221571:-0.002903
221573:-0.003489
221574:0.021621
221576:-0.004921
221686:0.024892
221772:-0.014068
221773:0.009564
221783:0.021598
221814:-0.002715
221815:0.024892
221816:-0.001084
221817:-0.013016
221857:-0.004176
221946:-0.000036
222090:-0.000958
222120:0.001751
222127:0.002654
222128:0.002284
222131:0.002070
222156:0.010454
222157:-0.014929
222237:0.017466
222251:0.012490
222323:0.018649
222342:0.003975
222346:-0.003776
222347:0.021130
222348:-0.004467
222389:0.000342
222457:0.000257
222463:0.014967
222510:0.041581
222556:0.011747
222610:0.000092
222622:0.003013
222683:0.000667
222684:0.003302
222685:0.000867
222691:0.004421
222844:0.029482
222855:-0.003625
222878:-0.006813
222911:0.020136
222987:-0.007073
222989:0.010380
223020:0.006056
223022:0.017825
223042:0.019737
223088:-0.002354
223094:0.001157
223142:-0.001432
223220:-0.002020
223222:-0.002127
223223:0.008388
223224:0.027749
223239:0.007357
223240:-0.019450
223330:0.012138
223406:-0.003420
223410:0.004927
223425:0.001677
223537:0.006056
223674:-0.006593
223757:0.021895
223780:0.012490
223795:-0.000800
223796:0.014376
223846:0.056878
223849:0.001277
223855:-0.026725
223908:-0.011282
223944:0.004442
224049:-0.000411
224152:-0.000140
224154:-0.002903
224203:0.003333
224204:-0.005588
224206:0.002348
224207:0.014864
224301:0.040116
224341:-0.008594
224351:-0.008494
224353:-0.000221
224354:0.014908
224357:0.016000
224379:0.003295
224385:0.003437
224387:0.002141
224404:0.026833
224440:0.011135
224474:0.003816
224476:-0.003897
224573:-0.018227
224576:-0.000632
224577:0.017825
224585:0.013292
224611:0.000624
224618:-0.002859
224620:-0.000715
224621:-0.010206
224673:-0.013016
224738:-0.002584
224747:-0.001718
224759:0.010361
224807:-0.002830
224907:0.007170
224909:-0.002218
224910:0.008388
224911:0.014967
224913:-0.007191
224947:-0.000426
225002:0.011371
225006:-0.001713
225008:0.003218
225039:0.006056
225273:0.015459
225310:-0.002499
225318:0.016141
225392:0.025360
225443:-0.000910
225458:-0.001084
225463:0.001930
225464:0.006042
225465:0.002638
225538:0.004996
225540:-0.002205
225543:-0.000053
225553:0.002284
225691:-0.008177
225730:0.016141
225776:0.006002
225931:0.019575
226009:-0.006447
226019:0.001880
226020:0.012295
226021:-0.002232
226034:0.002284
226070:0.009347
226072:0.001152
226073:-0.013093
226091:0.012490
226103:-0.013158
226157:-0.000106
226177:0.007765
226242:-0.002008
226334:-0.001249
226384:0.021571
226468:0.013230
226557:-0.028099
226563:0.036542
226602:-0.014068
226656:0.001651
226662:0.030843
226830:-0.002200
226835:0.003340
226856:-0.009292
226857:0.013550
226866:-0.001654
227089:-0.009114
227090:-0.002072
227102:0.020689
227130:0.004075
227134:-0.007348
227135:0.009677
227145:0.021598
227200:-0.000074
227201:-0.018203
227203:0.002494
227276:-0.018137
227374:0.001362
227375:-0.020596
227376:-0.006863
227377:0.019180
227398:0.004263
227509:-0.013025
227571:0.007765
227668:-0.000404
227742:0.007269
227930:0.000469
228097:-0.002662
228100:0.014358
228198:-0.001207
228200:0.029968
228201:0.011311
228208:0.019546
228462:0.009731
228562:0.016488
228633:0.006492
228635:-0.010206
228717:-0.002763
228730:0.010466
228732:-0.020400
228745:0.034200
229011:-0.013910
229185:0.014358
229262:-0.008880
229263:0.020230
229264:-0.020495
229265:-0.002072
229273:0.014261
229283:0.001753
229295:-0.009718
229327:0.004005
229550:0.000772
229555:-0.010206
229557:0.000503
229607:0.002284
229631:-0.013485
229699:0.014864
229729:-0.008354
229794:-0.030054
229809:-0.024328
229827:0.008772
229828:0.021412
229829:0.000384
229903:-0.020910
230001:0.007121
230002:0.011747
230003:0.000266
230004:-0.013025
230007:0.021571
230058:-0.001638
230175:0.003094
230176:0.025457
230177:-0.009486
230178:-0.007386
230229:0.021087
230322:0.001269
230326:-0.021448
230327:-0.003993
230329:-0.001250
230337:0.003340
230473:0.006056
230480:0.018276
230590:0.000349
230662:0.012490
230706:0.014263
230792:-0.009593
230858:0.000101
231025:0.012295
231069:0.016141
231091:0.000346
231122:0.005469
231251:0.019546
231324:0.014028
231325:-0.013025
231386:-0.007191
231392:0.076141
231393:0.010847
231427:0.004005
231557:-0.001826
231654:0.000179
231786:-0.020596
231812:-0.010206
231813:0.012314
231825:0.003302
231922:0.076878
231957:-0.000840
231986:0.021621
232084:-0.001511
232091:-0.035706
232157:-0.002597
232165:0.018300
232186:-0.002125
232190:-0.020472
232218:-0.012617
232221:0.014358
232258:0.000185
232315:-0.017596
232356:0.012314
232357:0.006604
232358:-0.002985
232454:0.076878
232455:0.056878
232456:-0.007819
232457:0.045083
232465:0.028792
232480:0.012490
232489:-0.004921
232501:-0.009414
232502:0.006484
232504:0.021087
232557:-0.018203
232621:0.018555
232628:-0.000631
232630:0.004263
232631:-0.000958
232722:-0.006846
232802:0.022375
232804:0.003163
232805:-0.040137
232818:0.012314
232856:0.014675
232857:0.029616
232889:-0.018203
232891:-0.001530
233023:0.025724
233057:0.000402
233058:0.013765
233059:-0.000426
233087:0.001387
233089:-0.000027
233090:0.012118
233091:-0.000840
233142:-0.005588
233247:0.014516
233322:-0.003642
233423:0.011653
233490:-0.003085
233553:-0.009360
233555:-0.001411
233556:0.008908
233613:0.002469
233614:-0.015298
233615:-0.001867
233782:-0.000494
233788:-0.002125
233789:0.009863
233804:0.002284
233841:0.025457
233861:0.041581
234012:0.001771
234169:0.001050
234171:-0.000722
234172:0.000257
234174:0.007765
234217:0.012462
234245:0.002348
234314:-0.001826
234393:-0.020400
234439:0.011541
234478:-0.010552
234479:0.037622
234613:0.000257
234626:0.001766
234640:-0.013158
234665:-0.004653
234711:-0.001377
234712:0.004180
234725:-0.000046
234726:0.001269
234727:0.004133
234728:-0.019029
234729:-0.010206
234846:-0.003227
234859:-0.000289
234860:0.015459
234898:-0.013016
234944:-0.001640
234983:0.015459
235019:0.014854
235110:-0.005274
235131:0.008377
235157:0.004180
235257:0.001233
235258:0.006948
235259:0.019072
235281:-0.009857
235284:0.014358
235288:-0.001025
235289:0.009440
235378:-0.010285
235429:0.000316
235433:-0.000732
235441:0.000828
235549:0.030843
235551:0.006492
235558:-0.011023
235791:-0.010223
235837:-0.001018
235839:0.009731
235840:-0.018137
235957:0.002273
235978:0.000737
235979:0.011653
235980:0.012490
236024:0.002593
236063:0.011653
236083:0.037622
236103:0.021571
236211:0.014312
236254:0.008377
236296:-0.007355
236335:-0.007191
236393:0.005625
236394:0.012076
236396:0.021895
236404:0.017002
236406:0.006056
236444:0.000257
236454:0.017825
236613:-0.018203
236615:-0.005588
236617:0.000837
236677:0.019546
236949:-0.001871
236950:-0.005588
236951:-0.000411
237059:-0.011282
237066:0.004742
237097:0.027749
237147:-0.014365
237160:-0.017596
237186:-0.009897
237238:-0.000732
237320:0.020377
237376:0.021087
237409:0.019072
237414:0.009863
237505:-0.000700
237506:-0.000320
237507:0.000624
237515:0.018300
237612:0.000779
237677:-0.009897
237784:0.014854
237882:0.002023
237885:0.005454
238056:-0.004104
238057:0.011653
238058:-0.001754
238059:0.013768
238061:-0.001132
238063:0.045621
238064:0.011311
238252:0.004014
238262:0.004075
238302:0.002070
238473:-0.013672
238570:-0.010624
238582:0.013230
238743:0.004014
238951:-0.017495
239195:0.027749
239275:0.003975
239374:0.040116
239408:0.029482
239634:0.001771
239635:0.040116
239646:-0.007541
239647:0.020136
239727:0.008388
239805:0.008666
239807:0.019085
239965:0.003343
240026:-0.002894
240027:0.021130
240139:-0.006970
240140:0.002426
240259:-0.002131
240313:0.006832
240314:-0.002487
240339:-0.003420
240340:0.011106
240360:0.004075
240426:0.015137
240430:-0.001954
240509:-0.004900
240510:-0.004653
240524:0.001677
240527:-0.035706
240683:0.014677
240691:-0.004653
240857:-0.007034
240858:-0.005455
240869:-0.001530
241057:0.001677
241191:0.017475
241192:-0.053529
241323:0.010454
241424:0.002230
241441:0.008377
241492:0.008666
241494:0.003218
241502:0.012076
241558:0.004440
241559:-0.014624
241560:-0.007541
241568:0.012138
241657:0.006883
241658:-0.019010
241762:-0.000341
241763:0.012076
241774:0.019072
241775:0.006056
241789:0.001129
241791:0.002348
241792:-0.003420
242022:-0.003625
242024:-0.003405
242077:-0.019450
242255:-0.002534
242257:-0.000789
242258:0.000257
242260:0.007765
242415:-0.013025
242467:0.011747
242490:-0.004662
242491:0.008900
242494:0.018555
242495:-0.035706
242566:-0.001196
242677:0.045246
242714:0.034530
242715:-0.034960
242766:-0.010285
242826:0.000342
242827:-0.001196
242838:-0.019010
242839:-0.013158
242940:0.002067
242947:-0.001393
242997:0.043803
243038:-0.035706
243098:0.016141
243119:0.019575
243180:0.005469
243212:0.011653
243217:0.013878
243301:0.001157
243310:-0.003666
243358:0.000656
243359:0.016141
243376:0.011371
243484:0.004576
243498:0.016244
243531:-0.019450
243561:0.004887
243646:-0.012343
243647:0.007765
243961:0.037622
244061:-0.008354
244260:-0.006970
244261:0.002426
244493:0.000992
244543:0.003571
244544:0.025457
244545:-0.009486
244546:-0.007386
244614:0.015459
244680:-0.013093
244694:0.015459
244726:-0.007149
244727:0.023091
244938:0.018300
244954:-0.000289
244955:0.015459
244959:0.044419
245041:0.000837
245099:-0.002963
245100:0.025724
245101:-0.004921
245102:-0.000840
245103:0.004005
245121:0.000737
245122:0.011653
245123:0.012490
245146:0.011198
245189:0.012295
245192:-0.000919
245193:0.010196
245226:0.008377
245231:0.039462
245270:0.002070
245295:0.019180
245379:0.003295
245393:0.009758
245394:-0.014756
245464:0.011311
245486:0.000491
245487:0.008377
245567:0.004944
245568:-0.024328
245612:0.025767
245655:-0.002001
245665:0.011653
245667:0.010361
245937:0.006091
245938:-0.013025
245939:0.000640
245940:0.021571
245941:0.013292
246018:-0.007393
246031:-0.009718
246111:0.003227
246112:0.003295
246113:-0.002903
246193:0.012741
246211:0.001599
246212:0.031093
246255:-0.014460
246311:0.032349
246402:0.012314
246550:-0.001393
246562:-0.004653
246767:0.015223
246768:-0.014365
246769:-0.000349
246814:0.021571
246820:0.022565
246964:-0.000840
247082:0.000640
247094:0.013292
247323:-0.004736
247324:0.002426
247325:0.000317
247326:0.002939
247733:-0.011282
247829:0.020136
247879:0.000538
247880:0.002165
247881:0.002031
247882:0.007028
247922:-0.013025
248020:0.001699
248021:0.003295
248096:-0.007386
248110:0.001522
248174:-0.002232
248194:-0.003598
248195:0.008666
248292:-0.000411
248294:-0.008594
248319:-0.037894
248343:0.014908
248368:-0.003159
248369:0.011311
248410:0.003295
248418:0.009857
248435:0.006833
248436:0.025457
248437:-0.002096
248438:-0.006232
248439:-0.019010
248466:-0.003420
248564:0.004148
248566:-0.001480
248575:-0.009718
248640:-0.013016
248678:0.006548
248679:0.009857
248724:0.009677
248725:-0.001992
248738:-0.007744
248739:0.004014
248740:-0.000818
248741:-0.001927
248809:-0.031645
248849:0.002426
248912:0.009515
248913:0.037073
248914:-0.008287
248915:-0.020472
248942:0.008388
248957:-0.002618
248958:-0.001423
248991:-0.014452
248993:0.000874
248994:0.021571
248995:-0.004653
248996:0.012138
249042:0.030745
249064:-0.000840
249194:0.000336
249195:0.006042
249210:-0.002218
249222:0.014967
249275:-0.010219
249423:0.002122
249474:-0.000840
249482:-0.014756
249508:0.007259
249547:0.005147
249548:-0.014013
249594:0.012118
249728:-0.000840
249742:0.010667
249743:-0.014756
249900:-0.006136
249901:0.012257
249961:-0.014756
250028:-0.001250
250036:0.013292
250060:0.008908
250103:-0.012045
250104:-0.014460
250126:0.000098
250127:-0.001196
250258:-0.001406
250260:0.008535
250274:-0.018247
250286:0.012138
250359:0.006913
250363:-0.007191
250375:0.045083
250447:0.000837
250491:-0.001288
250493:-0.015089
250494:0.004167
250502:0.024433
250549:-0.000958
250592:-0.007855
250647:0.001268
250648:0.012295
250723:-0.036290
250724:-0.003769
250726:0.005469
250727:0.007028
250818:0.007765
250821:-0.001249
250919:0.019737
250921:-0.003993
250995:-0.009108
250996:0.025724
251012:0.000837
251093:0.005175
251117:0.021130
251191:0.010947
251192:-0.012167
251193:-0.005471
251206:0.034200
251245:0.014854
251267:-0.026725
251350:0.006699
251365:-0.000009
251367:-0.006593
251368:0.018965
251379:0.005770
251513:0.028882
251539:-0.006743
251541:0.005155
251542:-0.052664
251649:-0.001084
251656:0.007664
251659:-0.018137
251882:0.001651
251889:-0.006846
251944:0.007499
252134:0.004742
252197:-0.034960
252282:-0.053529
252348:-0.001659
252356:0.019593
252402:0.006379
252577:-0.026725
252663:0.012314
252666:-0.010206
252748:-0.013672
252768:0.009857
252904:-0.019010
252962:0.000656
252963:0.016141
253010:0.019072
253047:-0.009292
253078:0.002070
253129:0.007765
253176:0.004020
253177:0.031944
253195:0.000469
