Version 7.10.1
Min label:-0.094000
Max label:1.000000
bits:18
0 pairs: 
0 triples: 
lda:0
1 ngram: 5 
0 skip: 
options:
:0
1:-0.005563
2:-0.025230
3:0.047861
4:0.005041
5:0.017386
6:0.008108
7:-0.005618
8:-0.002358
9:-0.007436
10:-0.002732
11:0.011020
12:0.023773
13:0.003722
14:0.005366
15:-0.007614
16:-0.011527
17:0.001151
18:-0.011627
19:-0.013424
20:0.005287
21:0.016064
22:-0.010228
23:-0.012292
24:0.028708
25:0.007217
26:0.027648
27:-0.002381
28:-0.010435
29:0.001786
30:0.024080
31:-0.021715
32:0.017479
33:0.004742
34:-0.025562
35:-0.009804
36:-0.009460
37:-0.016361
38:0.022812
39:-0.012968
40:0.003578
41:-0.014581
42:-0.012234
43:0.013105
44:0.019809
45:-0.000572
46:-0.009733
47:-0.009883
48:-0.036048
49:-0.001734
50:0.014494
51:0.017228
52:0.003732
53:-0.017027
54:0.013885
55:-0.004359
56:0.012016
57:-0.010718
58:0.009042
59:0.003767
60:0.011880
61:-0.043523
62:0.015572
63:0.016312
64:0.008082
65:0.005734
66:-0.006188
67:0.001802
68:-0.036555
69:-0.005984
70:0.005899
71:0.000278
72:0.000354
73:-0.021798
74:0.012476
75:0.028418
76:-0.032719
77:-0.000440
78:-0.007333
79:0.015076
80:-0.000006
81:-0.013844
82:0.027284
83:-0.013802
84:0.007476
85:0.008290
86:-0.004370
87:-0.033565
88:-0.013546
89:-0.027876
90:-0.016815
91:0.016688
92:-0.003339
93:0.017153
94:0.004850
95:0.018468
96:-0.035175
97:-0.000482
98:-0.015823
99:-0.009209
100:0.002909
101:-0.023514
102:-0.000488
103:-0.023868
104:0.032987
105:-0.020606
106:-0.014108
107:0.000518
108:-0.020516
109:0.062125
110:0.014596
111:-0.008596
112:0.024515
113:-0.019523
114:0.008399
115:-0.026265
116:-0.024033
117:-0.024008
118:0.050103
119:-0.025410
120:-0.005836
121:-0.001571
122:-0.028236
123:0.010538
124:0.047158
125:0.023343
126:-0.027336
127:-0.010752
128:-0.011372
129:-0.021188
130:-0.023294
131:-0.004553
132:0.000782
133:-0.032648
134:0.006343
135:0.007094
136:-0.069383
137:0.004679
138:-0.018725
139:0.030219
140:0.033888
141:0.002840
142:-0.040174
143:0.017874
144:-0.019122
145:0.003100
146:0.031159
147:-0.031611
148:0.035239
149:-0.002651
150:-0.011248
151:-0.036173
152:0.011911
153:0.019362
154:0.006210
155:-0.006758
156:-0.010710
157:0.057157
158:-0.051865
159:0.014276
160:-0.016263
161:-0.013436
162:0.018862
163:-0.013281
164:0.000723
165:0.014459
166:-0.029433
167:-0.050912
168:0.004012
169:0.005144
170:0.010335
171:0.033222
172:-0.008844
173:0.035707
174:-0.022378
175:-0.006347
176:-0.002274
177:0.004289
178:0.008403
179:-0.002588
180:-0.002772
181:0.035666
182:0.007191
183:0.004664
184:-0.008627
185:-0.014795
186:0.010197
187:0.007591
188:0.026298
189:0.006721
190:0.017372
191:0.007259
192:0.010828
193:0.002675
194:0.020025
195:-0.005977
196:0.018865
197:-0.007677
198:0.007059
199:-0.006137
200:0.035396
201:-0.000650
202:0.025753
203:-0.008694
204:0.004641
205:0.008841
206:-0.038061
207:-0.006347
208:-0.037913
209:-0.003627
210:-0.018597
211:-0.009248
212:-0.006230
213:0.041811
214:-0.021891
215:-0.007305
216:0.021110
217:0.011109
218:-0.009979
219:0.000016
220:-0.004797
221:0.023339
222:-0.044820
223:0.015779
224:-0.035780
225:0.000352
226:0.017511
227:-0.040422
228:0.026897
229:-0.015066
230:0.017355
231:0.014713
232:-0.022964
233:-0.007151
234:-0.023025
235:0.034679
236:-0.041317
237:0.014088
238:0.021348
239:0.061514
240:0.037235
440:0.000302
452:0.000002
453:0.000681
598:0.000308
619:0.001021
700:0.001662
724:-0.000442
758:0.001246
811:0.000916
872:-0.000160
873:-0.000496
874:-0.000253
957:-0.000496
972:0.000038
973:-0.000342
997:-0.000006
1071:-0.001481
1151:-0.000121
1152:-0.002043
1153:-0.000391
1188:0.001938
1338:0.001187
1339:-0.000391
1430:0.000138
1504:-0.000027
1505:0.000060
1571:0.000905
1601:-0.002843
1609:0.001246
1617:0.000302
1702:-0.000005
1714:-0.001060
1804:0.000080
1888:-0.000462
1962:0.000005
1963:-0.000078
1986:-0.000267
1987:0.000302
1999:-0.000436
2036:-0.000420
2037:0.002559
2080:0.001240
2091:0.000105
2214:-0.000347
2249:-0.001534
2258:0.000676
2270:0.000860
2296:0.002501
2298:0.000900
2432:-0.000163
2433:0.000192
2494:-0.000117
2530:0.000062
2532:0.000274
2533:0.000197
2541:-0.001657
2568:-0.000597
2569:0.001662
2620:-0.000310
2704:-0.000112
2705:-0.000526
2706:0.000065
2707:0.000542
2709:0.000559
2766:0.000206
2779:-0.001258
2828:0.000070
2886:-0.000167
3026:-0.000131
3027:0.000260
3155:0.000308
3157:-0.001168
3199:-0.000965
3316:0.000215
3360:-0.000746
3362:0.000896
3379:0.000176
3473:0.000939
3558:0.000290
3612:0.001104
3729:0.000045
3845:0.000141
3892:0.001021
3950:-0.000726
4164:-0.000186
4165:0.002501
4263:-0.000112
4380:0.001523
4388:-0.000307
4389:0.000525
4399:-0.000876
4424:-0.001823
4515:-0.000075
4542:0.000173
4613:0.000391
4689:-0.000626
4696:0.000089
4697:0.000070
4768:0.000096
4787:-0.000103
4793:0.000700
4854:-0.000507
4885:-0.000360
4894:0.000225
4961:-0.000107
4962:-0.000377
5059:-0.000678
5087:-0.000040
5088:-0.001075
5153:0.001394
5154:-0.000240
5155:0.000014
5157:0.000193
5158:0.000170
5159:-0.000275
5160:0.000500
5161:0.000145
5188:0.000754
5228:0.000018
5229:-0.000746
5233:0.002724
5234:-0.000929
5320:-0.000847
5328:-0.000207
5331:0.000097
5332:-0.000470
5333:-0.000236
5334:-0.000973
5335:0.000259
5386:-0.000354
5387:0.000499
5421:0.000668
5490:0.001108
5505:0.000372
5553:-0.000316
5555:-0.000473
5601:0.000701
5619:0.000060
5686:0.000198
5760:-0.000648
5761:0.001021
5848:0.000268
5927:-0.000837
5928:-0.000266
5951:0.001462
5958:-0.000307
5984:0.000876
5986:-0.000241
6019:-0.002091
6020:0.000673
6078:-0.000473
6085:0.000109
6086:-0.000263
6217:0.000178
6218:0.000307
6219:0.000376
6227:-0.000159
6280:-0.000322
6283:-0.000849
6292:-0.000730
6293:-0.001823
6391:0.000867
6452:-0.000363
6483:0.000056
6484:-0.000443
6508:0.000299
6552:0.000453
6554:-0.000633
6619:0.000646
6665:0.000559
6750:-0.000285
6852:-0.000395
6853:-0.000114
6921:0.000668
7022:0.000756
7039:0.000281
7040:-0.000019
7041:0.000091
7042:0.000228
7043:0.000533
7044:0.000190
7084:-0.000528
7085:0.000926
7142:-0.000527
7149:-0.000349
7151:-0.000598
7152:0.001380
7153:-0.000494
7185:-0.004843
7204:0.000015
7240:-0.000339
7241:0.000670
7282:-0.000036
7283:0.000756
7316:-0.000803
7338:0.000952
7373:-0.000078
7382:0.000137
7384:-0.000313
7385:0.000032
7414:-0.000027
7455:-0.000283
7456:0.000168
7512:0.000430
7552:-0.000102
7572:-0.000657
7588:-0.000230
7589:0.000968
7590:-0.000960
7593:0.000308
7595:-0.000217
7596:-0.000199
7599:0.000038
7607:0.000802
7608:-0.000399
7609:0.000191
7615:-0.000938
7616:-0.000950
7617:0.000796
7618:-0.000344
7619:-0.000683
7686:0.000595
7784:-0.000213
7786:0.000202
7787:0.000419
7817:-0.000167
7860:0.000636
7888:0.000110
7889:0.000673
7903:0.000070
7958:0.000188
7961:-0.000585
7965:-0.000019
7966:0.000900
7985:-0.000926
8008:0.000730
8132:-0.000114
8134:0.000474
8135:-0.000344
8136:-0.000143
8148:-0.000042
8151:0.000040
8152:0.000272
8153:-0.000033
8154:0.000278
8155:0.000652
8270:-0.000929
8307:-0.000922
8308:-0.001885
8420:-0.000258
8421:0.000453
8422:-0.001948
8455:-0.000380
8520:0.000053
8540:-0.000065
8541:0.000491
8702:0.001246
8707:0.000327
8708:-0.000308
8709:0.000040
8710:-0.000991
8727:-0.001389
8773:-0.000184
8774:-0.000335
8793:-0.000253
8814:-0.000391
8878:-0.000088
8921:0.000070
8922:0.000168
8934:-0.000167
8952:-0.000081
8953:-0.000528
8960:-0.001003
9006:0.000719
9022:-0.000737
9049:0.000756
9150:0.000635
9154:0.000117
9155:0.000562
9232:0.000145
9239:-0.000450
9240:0.002501
9263:0.000044
9264:0.000430
9265:-0.000066
9266:-0.000032
9313:-0.000219
9399:0.000939
9410:-0.000075
9411:0.000635
9484:-0.000140
9485:-0.000950
9554:0.000625
9555:0.000303
9574:0.000918
9734:-0.000167
9744:-0.000330
9819:-0.000557
9820:0.000045
9822:0.000133
9823:0.002278
9831:0.000147
9853:0.000268
9854:-0.003376
9857:0.000315
9942:0.000202
10016:0.000607
10017:-0.000042
10019:-0.000558
10040:0.000190
10086:0.000466
10214:0.000676
10232:0.002116
10273:-0.001051
10276:-0.000297
10313:-0.000965
10316:-0.000307
10358:-0.001120
10375:0.000135
10376:-0.000621
10377:0.000268
10397:0.000925
10474:-0.000526
10475:0.000676
10487:0.000982
10550:-0.000737
10585:0.000201
10587:-0.000352
10588:0.000016
10591:0.001533
10648:0.000835
10739:0.000278
10746:-0.001389
10759:0.000157
10761:-0.000060
10762:0.000014
10808:0.000730
10909:-0.000031
10931:0.000900
10932:-0.001522
10933:0.000130
10934:-0.000006
11006:0.000668
11007:-0.001389
11121:0.001359
11159:-0.000538
11177:0.000635
11205:0.001578
11222:0.001089
11340:-0.000443
11487:0.000895
11488:-0.001389
11489:0.000061
11612:0.000211
11613:-0.000330
11614:-0.001305
11712:0.000302
11848:-0.000112
11852:0.000644
11947:-0.000374
12124:-0.000538
12144:-0.000415
12145:-0.000297
12241:0.000676
12291:-0.000473
12298:0.000652
12314:-0.000121
12342:0.000670
12396:0.000529
12505:-0.000263
12570:-0.000316
12602:-0.000339
12603:0.000670
12676:0.000278
12677:0.000730
12729:0.000895
12874:0.000042
13037:0.000628
13114:-0.000136
13116:0.000628
13127:0.000132
13134:0.000778
13135:0.000042
13208:0.000689
13209:-0.000443
13214:-0.000032
13215:-0.000740
13237:0.000034
13238:-0.000283
13257:-0.000538
13386:-0.000138
13388:0.000072
13389:0.000791
13406:-0.000621
13465:-0.000473
13468:0.000141
13470:0.000170
13556:-0.000326
13569:0.000000
13618:0.001963
13666:0.000303
13667:-0.000621
13703:0.001203
13740:0.000577
13742:-0.000960
13789:-0.000345
13839:0.000900
13936:0.000791
13938:-0.000674
14088:-0.000405
14089:0.000338
14101:0.000027
14198:-0.000511
14199:-0.000674
14321:-0.000030
14322:-0.000683
14369:0.000670
14402:0.000454
14532:-0.000164
14633:0.000878
14783:0.000436
14794:-0.000150
14795:0.000900
14806:0.000194
14954:-0.001480
15099:0.000124
15154:-0.000222
15187:-0.000112
15207:-0.000165
15295:0.000506
15321:0.000192
15336:-0.000280
15337:0.000141
15376:0.000895
15433:-0.000621
15486:-0.000081
15550:0.000266
15554:-0.000428
15621:0.000272
15622:0.002278
15630:0.000147
15643:-0.000816
15719:-0.000764
15720:0.001271
15839:0.000261
15840:-0.000685
15851:0.000618
15853:-0.001379
15854:0.002500
15868:-0.000141
15917:0.000909
15967:-0.000352
16013:0.000014
16014:-0.000174
16066:-0.000348
16084:-0.000008
16086:-0.000163
16087:-0.000973
16088:0.000259
16139:-0.000174
16187:-0.000605
16188:0.001021
16229:0.000272
16317:0.000070
16322:0.000701
16326:0.000129
16327:-0.000348
16372:0.000300
16400:0.000168
16401:-0.000164
16477:0.000499
16550:0.000416
16552:0.000791
16553:-0.000360
16554:0.000347
16739:-0.000009
16761:-0.000950
16785:-0.000132
16786:0.000903
16838:-0.000330
16932:0.000432
17009:-0.000086
17091:0.000191
17130:0.000557
17176:-0.000263
17242:-0.000554
17293:0.000436
17363:0.000012
17390:-0.000386
17391:0.000557
17464:-0.000303
17475:0.000472
17476:0.000029
17623:0.000005
17624:-0.000078
17708:-0.000278
17709:0.000458
17726:0.000533
17790:-0.001885
17824:-0.002872
17825:0.000925
17856:-0.000175
17857:0.000670
17941:-0.000019
17969:-0.000118
17970:0.001984
17971:-0.000100
17972:-0.000626
17998:-0.000494
18023:0.000491
18095:-0.000558
18096:-0.000228
18256:-0.000335
18270:-0.000052
18400:0.000895
18466:-0.000269
18467:0.000785
18469:0.000139
18477:0.000548
18486:-0.001290
18525:-0.000184
18526:0.001049
18527:0.000114
18528:0.000144
18541:0.001110
18542:-0.002204
18555:-0.000143
18556:-0.000704
18640:-0.000112
18641:0.000168
18643:0.001187
18676:0.000168
18722:0.002501
18788:0.000072
18789:-0.000798
18814:-0.000440
18817:0.000259
18975:0.000462
19000:-0.000159
19021:0.000248
19022:-0.000091
19023:0.000194
19060:0.000398
19081:-0.000104
19082:0.000534
19085:0.000925
19095:0.001187
19159:-0.000798
19251:0.000042
19254:-0.000263
19255:-0.000377
19293:-0.000083
19332:-0.000005
19344:-0.001290
19441:-0.000093
19484:0.000394
19592:0.000833
19594:-0.000167
19637:0.000300
19638:-0.002041
19674:0.000462
19816:-0.000199
19953:-0.000929
20081:-0.000253
20124:-0.000229
20193:-0.000309
20194:-0.000569
20195:-0.000107
20196:0.000463
20197:0.000014
20221:-0.001375
20317:0.001648
20451:0.000197
20614:0.000266
20625:0.000542
20649:-0.000430
20656:-0.000052
20749:-0.000026
20752:-0.000847
20882:-0.000391
20897:-0.000202
20898:0.000754
20995:0.000053
21017:0.000730
21026:-0.000494
21043:0.000895
21169:-0.000102
21188:-0.000081
21249:-0.000308
21267:0.000164
21269:0.001320
21270:-0.000271
21271:0.001271
21279:0.000644
21287:-0.000496
21305:0.000343
21307:0.000088
21308:0.000170
21441:-0.000196
21445:-0.000168
21453:0.000234
21492:-0.000143
21642:-0.000526
21678:0.000234
21861:0.000056
21862:0.000867
21910:0.002278
22154:0.000900
22172:0.000017
22349:0.000078
22351:0.000754
22405:0.000016
22417:-0.000254
22418:-0.000945
22419:0.000701
22420:0.000320
22784:0.000091
22787:0.001013
22973:0.000524
22974:-0.000005
22976:-0.001717
23019:-0.000304
23020:0.000443
23023:0.000234
23078:0.000500
23126:-0.000494
23252:-0.000973
23256:0.000353
23257:0.000170
23316:0.000212
23337:-0.001154
23350:0.000061
23351:0.000078
23413:-0.000774
23489:-0.000033
23497:-0.000310
23524:0.000143
23525:-0.000442
23529:-0.000212
23530:-0.000170
23540:-0.000876
23570:-0.000626
23592:-0.000143
23624:-0.000020
23656:0.001380
23757:0.001110
23770:0.000012
23790:-0.000834
23796:-0.000014
23806:0.000802
23848:-0.000188
23889:0.000032
23894:0.000060
23897:-0.000908
24023:0.000676
24038:0.001022
24068:0.000042
24069:-0.000950
24070:-0.000289
24071:0.000463
24072:0.000260
24122:-0.000344
24188:-0.000218
24189:-0.000207
24245:-0.000006
24320:0.001178
24380:0.000021
24421:-0.000105
24425:0.000925
24430:0.000020
24553:-0.000059
24555:0.000220
24556:0.000197
24564:-0.001657
24654:0.000278
24786:-0.000039
24788:-0.000554
24789:-0.000187
24834:0.000132
24870:0.000010
24880:0.000701
24912:0.000315
25021:0.000551
25022:0.001288
25102:0.001271
25179:0.000328
25252:0.000186
25254:-0.000282
25255:0.000019
25307:0.000724
25412:-0.000683
25441:0.001549
25487:-0.000019
25488:-0.001131
25540:0.000080
25541:0.000394
25674:0.000681
25705:0.000419
25711:0.000290
25879:-0.000585
25944:-0.000401
25977:-0.000088
26053:-0.000344
26177:-0.000219
26249:0.000635
26325:-0.000194
26410:0.000031
26418:0.000215
26508:-0.000019
26521:0.000030
26522:0.000593
26523:0.000291
26558:-0.000088
26597:0.000499
26605:-0.000360
26643:-0.000106
26697:-0.000250
26725:0.000554
26768:0.000196
26810:0.000472
26830:0.000635
26869:0.000326
26871:-0.000054
26872:-0.000281
26958:0.000754
26959:-0.000683
26962:0.000271
27040:-0.000101
27072:0.001022
27139:-0.001522
27191:0.000458
27230:0.001098
27257:0.000016
27274:0.000006
27339:0.000147
27342:-0.000597
27343:0.001662
27490:-0.000156
27572:0.000228
27669:-0.000834
27735:-0.001421
27762:-0.001496
27956:0.000212
27957:-0.000313
27996:0.000192
28026:-0.000310
28104:-0.000061
28189:0.000301
28190:-0.000022
28202:0.001374
28220:0.002116
28294:-0.001329
28376:0.000720
28500:0.000133
28506:0.000016
28596:0.001187
28636:-0.000047
28637:0.000196
28680:0.000014
28733:0.000124
28896:0.001104
29052:-0.000000
29224:0.001322
29267:-0.000023
29287:0.001879
29308:0.000642
29309:-0.001534
29322:-0.000057
29324:0.000211
29325:0.000720
29351:-0.000683
29485:-0.000883
29495:0.002278
29496:-0.000014
29498:0.000146
29499:-0.000105
29662:-0.000526
29797:-0.000005
29817:0.000072
29960:0.000891
29961:0.000259
30011:-0.000485
30013:0.000081
30014:-0.000612
30232:-0.000246
30331:-0.000752
30348:0.001131
30427:0.000347
30498:0.001462
30567:0.000113
30569:0.000013
30570:-0.000803
30652:-0.000102
30764:-0.000378
30765:0.001104
30818:-0.000657
30819:-0.000876
30861:0.000206
30874:0.000419
31107:0.000652
31116:-0.000746
31123:-0.000292
31125:-0.000206
31126:0.000032
31133:-0.000740
31296:0.000160
31307:0.000791
31412:0.001089
31593:0.002278
31679:0.000025
31680:-0.000074
31681:0.000032
31682:-0.000462
31685:-0.000310
31741:0.001521
31762:0.000701
31828:-0.000189
31829:0.000891
31851:0.000164
31853:-0.000219
31949:0.000564
31951:-0.000222
32039:-0.000462
32088:0.000080
32123:0.000281
32124:-0.000163
32125:0.001951
32127:-0.000088
32169:0.000215
32187:-0.000129
32191:-0.000100
32235:-0.000501
32236:0.001043
32238:-0.000002
32272:-0.000903
32358:0.003127
32365:-0.000834
32459:0.000191
32505:-0.000283
32506:0.000032
32527:0.000347
32550:0.000147
32591:-0.000973
32791:0.000102
32799:0.001523
32890:-0.000922
32947:0.000471
32989:0.000225
33057:-0.000360
33123:-0.000109
33124:0.000925
33152:-0.000335
33191:0.000045
33255:-0.000135
33257:-0.000073
33258:-0.000625
33287:-0.000130
33290:0.000903
33310:0.000102
33347:0.000033
33349:-0.000082
33350:0.000277
33356:-0.000184
33488:0.000001
33490:-0.000236
33491:-0.000638
33523:-0.000883
33540:0.001249
33580:0.000701
33589:0.000833
33721:-0.000427
33723:-0.000219
33724:0.000194
33822:-0.000186
33903:-0.000040
33904:0.000756
33905:0.000047
33906:-0.000121
33907:0.001098
33915:0.000020
33956:0.000010
33957:0.000486
34011:0.000548
34032:0.000649
34033:-0.000834
34053:-0.000307
34123:-0.002204
34189:0.000052
34190:0.000463
34191:0.000014
34206:0.001106
34207:-0.001496
34216:-0.000102
34242:0.000499
34306:-0.000391
34347:-0.000245
34356:0.000357
34380:-0.000129
34381:-0.002416
34459:0.000257
34461:-0.000147
34462:-0.000345
34463:-0.000538
34464:0.000895
34576:0.000900
34588:-0.001753
34604:-0.001030
34646:-0.000528
34647:0.000066
34653:0.000019
34656:0.000259
34678:0.000895
34750:0.000868
34751:-0.000378
34761:0.002116
34886:-0.000697
34888:-0.000467
34889:-0.001076
34924:-0.000607
34925:0.001608
34941:-0.000042
35015:-0.000096
35016:0.000710
35017:0.000062
35020:-0.000184
35021:-0.000335
35075:0.000135
35112:0.000070
35117:0.000756
35215:-0.001948
35279:-0.000031
35345:-0.000104
35346:0.000670
35571:0.000055
35572:-0.000160
35586:-0.001421
35740:-0.000473
35742:0.000644
35754:0.000559
35765:-0.000348
35959:0.000494
36044:0.000315
36084:-0.000406
36085:-0.000102
36139:0.000860
36192:0.000456
36277:-0.000140
36278:-0.000950
36313:-0.000022
36338:-0.000876
36344:-0.000526
36387:0.000139
36561:0.001187
36658:-0.000046
36659:-0.000372
36660:-0.000674
36716:-0.000022
36735:0.000259
36804:-0.001657
36806:0.000808
36833:0.000558
36834:0.000192
36891:-0.000196
36892:-0.000343
37007:0.000432
37008:-0.000083
37017:-0.000849
37078:0.000245
37079:-0.000558
37080:0.000701
37163:-0.000558
37203:-0.000153
37204:0.000419
37218:0.000192
37245:0.000635
37270:0.001249
37288:-0.000926
37311:-0.000660
37328:0.000548
37377:-0.000424
37380:0.001246
37385:-0.000657
37396:0.000968
37408:0.000430
37410:-0.004843
37551:0.000492
37552:-0.000164
37554:-0.002091
37777:-0.000002
37780:0.000066
37794:0.000308
37823:0.000053
37870:0.000020
37940:-0.000163
38010:0.000542
38053:-0.000114
38212:0.000134
38213:-0.000526
38243:-0.000383
38286:-0.000024
38309:0.000676
38311:0.000692
38420:0.000867
38476:-0.000218
38546:0.000012
38826:0.000132
38841:-0.001389
38934:-0.000538
39188:-0.000284
39189:0.000700
39276:-0.000185
39277:0.000430
39296:-0.000473
39460:-0.000418
39536:0.000164
39538:-0.000219
39585:0.000450
39634:0.000160
39635:-0.000293
39732:0.000700
39808:0.000123
39809:-0.000163
39813:0.001089
39906:-0.000798
39908:-0.000165
39909:0.001110
39911:-0.000029
39998:0.001378
40004:-0.000535
40005:-0.000965
40051:-0.000297
40068:0.000458
40178:-0.000459
40179:0.001104
40180:-0.000041
40182:0.000730
40192:0.001359
40437:0.000670
40439:0.000867
40600:0.000300
40602:0.000268
40701:0.000135
40748:0.001013
40889:0.000486
40890:-0.000310
40969:0.000042
40972:0.000419
40974:0.000463
41060:0.000197
41132:0.000450
41134:-0.000031
41293:-0.000237
41394:-0.000798
41404:-0.000317
41405:0.000164
41440:0.000304
41501:-0.000621
41503:-0.000267
41526:0.001207
41592:0.000743
41593:-0.002536
41627:0.000045
41660:-0.000621
41759:0.000019
41815:-0.000794
41816:-0.000798
41817:0.000559
41825:-0.000228
41936:0.000087
41937:0.000458
41989:0.000463
41992:-0.000155
42033:-0.000674
42035:0.001648
42037:-0.000391
42053:-0.000191
42054:-0.003372
42058:0.000472
42126:0.001497
42157:0.000874
42190:0.000407
42192:-0.000135
42261:-0.000120
42262:0.000166
42291:0.000121
42292:-0.000219
42318:-0.000495
42359:-0.000798
42423:0.000353
42426:-0.000044
42468:0.000321
42469:0.000300
42486:-0.000544
42489:-0.001279
42520:-0.000633
42524:-0.000019
42535:0.000878
42609:-0.000131
42611:0.000416
42612:0.000389
42625:0.000326
42631:0.000045
42633:-0.000401
42634:-0.000638
42635:0.000644
42658:0.000011
42659:-0.000142
42660:0.001098
42668:0.000020
42730:-0.000263
42805:-0.000083
42806:0.000546
42807:0.000166
42808:-0.000680
42825:0.000405
42829:-0.001012
42891:0.000150
42892:0.000350
43000:0.000089
43001:0.000450
43018:-0.000436
43058:-0.002573
43059:0.000192
43101:0.000554
43165:-0.000284
43167:0.000047
43179:0.001207
43190:0.000145
43256:-0.000657
43260:-0.000136
43262:0.000628
43355:-0.000210
43358:0.000453
43532:-0.000350
43581:-0.000729
43582:0.000653
43588:-0.000105
43590:-0.000124
43591:0.000260
43631:-0.000347
43721:0.000046
43722:-0.000263
43723:0.000011
43724:-0.000100
43794:0.000000
43800:-0.000436
43814:-0.000003
43815:-0.000023
43821:0.000266
43823:0.000525
43824:-0.000032
43825:0.000646
43893:0.001079
44047:-0.000175
44161:-0.000348
44163:0.000381
44214:0.000925
44277:0.000225
44278:0.000499
44279:-0.000214
44280:-0.000075
44288:0.001131
44324:0.000176
44326:0.000027
44362:0.000754
44476:-0.000950
44523:-0.000726
44661:-0.000106
44695:0.000653
44714:0.000032
44715:0.000225
44746:-0.000342
44747:0.000420
44790:-0.000281
44828:0.000670
44833:0.000099
44834:0.000049
44835:-0.001205
44836:0.002500
44840:-0.000018
44841:0.000358
44858:0.000878
44888:-0.000142
44889:0.001240
44979:-0.000189
44980:0.000891
44986:-0.000883
44988:0.000338
45062:0.000316
45063:-0.000294
45127:-0.000392
45128:0.000058
45129:-0.000136
45160:-0.000168
45166:-0.001463
45212:0.000168
45213:-0.000164
45225:0.000557
45227:-0.003579
45229:0.000326
45258:-0.000010
45260:-0.000117
45261:-0.000377
45268:0.000006
45334:-0.000528
45360:0.000036
45361:0.000595
45388:0.000420
45389:-0.000053
45432:-0.000230
45434:0.000473
45435:0.001288
45438:0.001378
45443:0.001249
45445:-0.000067
45446:-0.000342
45593:-0.000134
45594:-0.000379
45606:-0.000046
45607:0.001108
45608:-0.000155
45609:-0.000218
45660:-0.000120
45760:-0.001323
45761:-0.000626
45780:0.000608
45945:0.000059
45946:0.000456
45958:-0.000436
46013:-0.000006
46021:-0.000246
46192:-0.000036
46193:0.000176
46292:-0.000089
46293:0.000245
46370:-0.000361
46382:0.000802
46454:0.000272
46479:-0.002872
46501:0.000119
46502:-0.000774
46504:-0.000215
46522:0.000206
46603:0.000878
46724:-0.000322
46755:-0.000621
46945:-0.000680
46986:-0.000950
47057:-0.000125
47058:0.000756
47059:0.000211
47060:0.000524
47085:-0.000000
47145:-0.000950
47178:0.000118
47243:0.000720
47256:-0.000342
47257:0.000420
47327:0.001187
47355:-0.003660
47365:0.000644
47411:0.000550
47417:-0.000105
47428:0.002116
47516:0.000724
47518:0.000436
47613:0.002450
47614:0.001963
47615:-0.000404
47616:0.000950
47624:0.000860
47885:0.002450
48050:0.000925
48054:-0.001481
48059:0.000130
48061:0.000415
48062:-0.000531
48064:0.000014
48153:-0.000625
48233:0.000465
48235:0.000719
48236:-0.000360
48237:0.000347
48266:-0.001168
48312:0.000363
48580:0.000491
48844:0.000393
48852:-0.000286
49112:0.000015
49274:-0.000497
49309:0.001110
49333:-0.000526
49376:0.000306
49384:0.000066
49385:0.000724
49416:0.000315
49443:-0.000278
49444:-0.000112
49465:0.000644
49676:-0.000895
49762:-0.001583
49772:-0.000013
49824:0.000152
49825:0.001096
49908:-0.000626
49909:0.000371
49916:0.000493
49995:-0.000638
50057:-0.000554
50058:0.000473
50142:-0.000589
50164:0.000014
50178:-0.000929
50228:0.000194
50294:0.000571
50295:-0.000374
50375:0.000228
50394:0.001069
50416:-0.000009
50440:-0.001076
50448:-0.000065
50449:0.000491
50527:-0.000448
50528:0.000646
50592:0.000874
50686:-0.000040
50694:0.000463
50708:-0.000470
50760:-0.000190
50761:-0.000166
50795:0.000326
50828:0.000225
50860:-0.000406
50861:-0.000102
50862:-0.000125
50972:0.001399
50980:-0.000092
50981:0.000015
50989:0.000027
51000:-0.000135
51001:0.001069
51073:-0.000199
51160:0.000259
51207:-0.001421
51214:0.001110
51226:-0.000308
51227:0.000835
51240:-0.000121
51242:0.000730
51358:-0.000049
51360:-0.000005
51393:-0.001481
51413:-0.000022
51458:-0.000130
51527:0.000900
51593:0.000041
51594:-0.000740
51613:-0.002843
51760:-0.000788
51772:0.001043
51925:-0.000793
51926:0.002278
51993:0.000754
52036:0.000903
52057:-0.000446
52060:-0.000867
52290:0.000083
52292:-0.000374
52293:-0.000180
52294:0.000500
52304:-0.000378
52345:-0.000898
52459:0.000800
52523:0.000024
52537:-0.000495
52568:-0.000612
52576:-0.000061
52577:-0.000470
52578:0.000430
52683:-0.002536
52749:-0.000088
52756:-0.000061
52758:-0.000134
52759:-0.000803
52769:0.000075
52836:-0.000898
52928:-0.001421
52943:-0.000093
52989:-0.000257
52991:-0.000445
52992:0.000393
53044:0.000453
53064:0.001265
53065:-0.000621
53100:-0.000218
53108:-0.000109
53109:-0.000121
53201:0.000874
53217:-0.000929
53297:-0.000023
53313:0.000148
53314:-0.000020
53342:-0.000391
53382:-0.000219
53448:0.000016
53487:-0.000351
53488:0.000491
53539:0.000372
53569:-0.000335
53586:0.000900
53596:0.000475
53597:-0.000680
53632:0.000186
53640:0.000081
53641:0.001043
53681:-0.000141
53682:-0.000378
53741:0.000045
53829:-0.000089
53830:-0.000246
54062:0.000329
54063:0.000635
54095:-0.000082
54096:-0.000297
54097:-0.000509
54098:0.001327
54147:0.000212
54164:0.001089
54172:-0.000141
54173:-0.000378
54229:0.000420
54265:0.000192
54295:-0.000082
54334:0.000302
54377:0.000020
54380:0.000110
54381:0.000673
54406:0.000554
54432:0.000499
54462:0.000891
54650:0.000358
54651:-0.000373
54652:-0.000313
54654:-0.000494
54695:-0.000164
54704:0.001544
54705:-0.000898
54800:0.001240
54805:0.000700
54964:-0.000514
54994:0.000003
54995:-0.000352
55028:0.000952
55207:-0.000351
55208:0.000079
55213:-0.000526
55227:0.000312
55228:-0.000223
55229:-0.001305
55298:0.001246
55396:-0.000526
55397:0.000676
55472:-0.002091
55496:0.000029
55499:-0.001258
55570:0.000175
55597:-0.002536
55634:0.001207
55647:0.000173
55668:-0.001389
55690:0.000078
55744:0.000368
55745:-0.000223
55746:-0.001305
55760:0.000801
55763:-0.000140
55764:0.000709
55765:0.000051
55766:-0.000316
55842:0.000900
55880:0.000096
55940:-0.000253
55973:0.001246
56016:-0.001258
56028:-0.000174
56114:0.000614
56117:-0.000867
56121:-0.000473
56122:-0.000130
56288:-0.000034
56289:0.000730
56291:0.000454
56292:0.000860
56300:-0.000670
56301:0.000499
56319:-0.000532
56321:0.000093
56322:0.001203
56346:-0.000929
56347:0.001879
56393:0.001462
56533:0.001098
56534:0.000326
56824:-0.000281
56832:0.000257
56833:-0.000514
56855:-0.000019
56875:0.000015
56877:-0.000190
56878:-0.000093
56933:0.000668
57088:-0.000121
57222:0.000168
57356:-0.000032
57364:0.000472
57365:0.000029
57431:0.000055
57433:-0.000172
57434:0.000803
57437:-0.003896
57455:-0.000514
57457:-0.001421
57598:0.000245
57628:-0.001948
57690:0.000164
57698:0.000538
57725:-0.000009
57888:0.001327
57896:0.000191
57897:-0.000174
57912:-0.000259
57913:0.001648
57987:-0.000272
57988:0.000293
57989:0.000504
57990:-0.001060
57991:0.000147
57997:-0.000926
58156:-0.000308
58197:-0.000219
58360:0.001069
58371:0.000228
58372:-0.000430
58378:-0.000507
58420:0.000454
58469:-0.001481
58543:0.000205
58544:0.000341
58611:-0.000485
58631:0.001098
58643:-0.000187
58741:-0.000186
58742:-0.000000
58743:-0.000284
58744:-0.001051
58747:0.002138
58779:-0.000246
58789:0.000499
58915:0.000014
58917:-0.000116
58918:0.000260
58930:-0.000419
58933:0.000133
59077:-0.000316
59099:-0.000069
59100:0.000066
59114:-0.000199
59163:-0.000289
59220:-0.000168
59229:-0.000528
59321:0.000405
59396:0.000350
59484:0.000670
59543:-0.002091
59695:0.000039
59703:0.000132
59756:-0.000737
59798:0.000538
59862:0.000453
59924:0.000730
59928:-0.000104
59991:0.000326
60016:0.000550
60024:-0.000001
60025:-0.000308
60095:0.000260
60229:0.000756
60280:0.000808
60295:-0.000226
60328:-0.000032
60348:-0.000347
60447:-0.000726
60451:0.000652
60454:0.000462
60548:-0.000344
60552:-0.000638
60627:-0.000010
60631:0.000878
60636:0.000895
60662:-0.001274
60726:-0.000680
60759:0.000862
60762:0.000423
60770:-0.000675
60820:-0.001305
60824:-0.000313
60860:-0.000140
60917:0.000355
60992:0.000018
60994:0.000016
60995:-0.000032
60998:0.000130
61080:0.001502
61088:-0.000142
61089:-0.000168
61096:-0.000621
61161:0.001322
61204:-0.000675
61225:0.000156
61227:-0.000097
61228:-0.000075
61270:0.000450
61271:-0.001421
61272:-0.000031
61368:-0.000137
61369:0.000166
61370:-0.000239
61371:-0.000507
61379:0.000308
61385:0.000067
61414:-0.000089
61449:0.000166
61458:0.000083
61462:0.000298
61513:0.000176
61542:0.000029
61543:0.000106
61544:0.000040
61545:0.000080
61547:0.000315
61612:0.000642
61613:-0.001534
61618:0.000646
61647:0.000229
61691:-0.000189
61693:0.000097
61694:-0.001075
61746:0.001104
61851:-0.000000
61880:0.000166
61926:0.000161
61927:0.000801
61979:0.000141
61981:-0.000129
61995:-0.000130
62113:-0.000246
62144:-0.002091
62150:0.000446
62152:-0.000586
62160:0.001938
62253:-0.000960
62265:-0.000102
62268:0.000046
62317:0.000272
62383:0.000456
62513:0.000646
62616:-0.000242
62617:-0.000168
62764:0.000198
62849:0.000038
62931:0.001110
62948:-0.000960
62997:0.000093
63036:0.000032
63082:-0.000246
63164:-0.000798
63165:0.000646
63179:-0.000377
63208:0.001578
63255:-0.001248
63332:0.001374
63353:0.001207
63376:0.000860
63451:0.000138
63480:-0.000029
63524:-0.000473
63527:-0.000218
63532:0.000147
63625:-0.000507
63696:0.000225
63706:-0.001290
63723:-0.000005
63740:0.000304
63741:0.001077
63799:0.000272
63800:0.000800
63863:0.000673
63897:-0.000010
63941:0.000192
63995:0.000392
63996:-0.000391
63997:-0.000178
63998:0.000259
64008:-0.001885
64012:0.000194
64071:-0.000092
64072:-0.000734
64073:0.000472
64162:-0.000229
64163:0.000947
64169:0.000021
64171:0.000401
64172:0.000371
64202:-0.000199
64272:-0.000803
64280:0.000031
64288:0.000215
64343:-0.000238
64345:0.000048
64346:0.000306
64349:0.000003
64350:-0.000926
64395:-0.000078
64396:-0.000775
64582:0.000170
64588:-0.000436
64641:0.000681
64667:-0.000374
64706:0.000470
64804:0.000300
64805:0.000295
64815:0.001203
65048:0.000791
65336:-0.001154
65344:-0.000168
65352:0.001523
65493:0.001077
65514:0.000454
65557:0.000646
65581:0.000443
65582:-0.002416
65583:-0.000203
65584:0.000393
65691:-0.000752
65705:-0.000683
65790:-0.000293
65868:0.000259
65876:-0.000922
65877:-0.001885
65882:0.000470
65977:-0.000352
65980:-0.000465
65981:-0.000391
66023:0.000926
66136:0.000049
66137:0.000242
66139:0.000474
66140:-0.000344
66141:-0.000143
66154:-0.000360
66167:0.000500
66350:-0.000160
66524:0.000451
66587:0.000644
66622:-0.000162
66624:0.000765
66625:0.000608
66655:-0.000473
66693:0.000066
66695:0.000023
66696:-0.000903
66697:-0.000950
66698:0.000072
66781:0.000147
66796:-0.000056
66798:0.000072
66799:-0.000036
66932:-0.000929
66933:0.001879
66970:-0.000262
66972:0.000277
66973:0.000460
66986:-0.000391
67024:0.001523
67080:-0.000326
67200:0.000267
67249:-0.000040
67250:-0.000526
67251:-0.000294
67252:0.000542
67254:0.000559
67313:-0.000345
67464:-0.000360
67472:-0.000071
67480:0.000299
67588:0.000308
67632:0.000879
67633:0.000152
67643:0.000471
67786:0.001096
67805:-0.000344
67806:-0.000212
67996:-0.002351
67997:-0.001274
68004:0.000013
68005:0.000049
68098:-0.000740
68105:-0.000558
68164:-0.000402
68179:-0.001421
68237:0.000559
68361:-0.000112
68362:-0.000192
68368:-0.000533
68369:-0.001168
68393:0.000499
68397:0.000429
68478:-0.001480
68528:-0.000383
68536:-0.000015
68544:-0.000657
68571:-0.000867
68630:-0.000152
68631:0.000355
68711:-0.000112
68712:0.000260
68797:-0.000180
68909:0.000895
68917:-0.000080
68919:0.000157
68920:0.000350
69060:-0.001480
69068:0.000441
69069:0.000267
69092:-0.000263
69151:0.000867
69169:-0.000798
69263:-0.000803
69325:0.000080
69328:0.000670
69329:-0.000686
69330:0.000878
69423:0.000499
69425:0.000328
69426:-0.000660
69429:-0.001378
69461:0.000772
69464:-0.001717
69473:0.000568
69474:-0.000207
69486:0.001246
69493:-0.001168
69524:-0.000142
69527:-0.000847
69562:-0.000189
69592:-0.000494
69599:-0.000284
69600:-0.000066
69694:-0.000324
69696:0.000494
69697:-0.001060
69795:0.000130
69863:0.000681
69927:0.000079
69929:0.000297
69930:-0.001431
69973:0.000644
70028:0.000038
70029:0.000138
70030:0.000681
70031:-0.000175
70032:0.000017
70392:0.000168
70393:-0.000311
70395:0.000120
70396:-0.000027
70397:-0.000078
70448:-0.000121
70493:-0.000304
70494:0.000443
70582:0.000536
70585:0.000253
70587:-0.000209
70595:-0.000029
70622:0.000147
70628:-0.000200
70656:0.000228
70852:0.000181
70853:-0.001753
70926:0.000135
70962:0.001497
71092:-0.000336
71136:-0.000006
71141:-0.000260
71142:0.001066
71143:0.000333
71144:-0.000035
71174:-0.000726
71188:-0.000105
71196:-0.000104
71197:0.000670
71297:-0.000496
71318:-0.000418
71506:0.000430
71507:-0.001375
71551:0.000013
71552:0.000049
71680:-0.000186
71681:-0.000436
71699:-0.000162
71720:0.000531
71728:0.000016
71784:-0.000061
71785:-0.000470
71807:-0.001421
71946:-0.000167
71954:0.000272
71960:0.000939
71971:0.000042
72050:0.000627
72099:-0.000168
72101:0.000020
72204:0.000264
72224:-0.000449
72225:0.000878
72252:-0.000903
72260:0.000000
72261:0.000168
72361:0.000754
72398:0.001066
72483:-0.000730
72484:-0.001823
72621:-0.000245
72622:0.000602
72750:0.000895
72784:0.000260
72792:-0.000228
72864:0.000396
72865:-0.001421
73010:-0.000675
73054:-0.001012
73097:-0.000594
73098:0.000534
73223:-0.001279
73284:0.000017
73324:0.001066
73330:0.000541
73369:-0.000430
73476:0.001131
73494:0.000700
73517:0.000016
73534:-0.000876
73602:-0.000391
73641:-0.000929
73685:-0.000126
73686:0.000576
73814:0.000644
73937:0.000382
74000:-0.001657
74029:-0.000207
74035:-0.000867
74118:0.001079
74133:-0.000285
74209:0.000454
74214:0.000020
74259:0.000192
74365:0.001207
74380:-0.000155
74384:0.000916
74388:0.000802
74405:0.000756
74449:-0.001154
74466:0.001249
74481:-0.000214
74492:-0.000428
74677:0.000074
74678:-0.000320
74682:-0.000626
74753:-0.001120
74851:-0.000097
74852:-0.000168
74912:0.000014
74920:-0.000082
75025:-0.000174
75026:-0.000528
75032:-0.000526
75092:0.000867
75335:0.000298
75444:0.000118
75452:0.000211
75791:-0.000163
75813:-0.000554
75814:0.000473
75942:0.000020
75976:0.000032
75984:0.000060
76246:-0.000246
76257:-0.000528
76371:0.000271
76516:0.000456
76662:-0.001051
76800:-0.000165
76836:0.000260
76877:0.000449
76878:-0.000335
76934:0.000060
77048:-0.000284
77095:0.000328
77096:0.000132
77108:-0.000188
77180:0.001380
77266:0.000423
77310:-0.000000
77328:-0.000683
77332:-0.000127
77333:0.000593
77380:-0.000019
77413:0.000032
77435:-0.000061
77478:-0.000310
77480:0.001066
77481:-0.001758
77499:-0.000774
77600:-0.000352
77623:-0.000754
77624:0.000787
77646:-0.000344
77652:-0.000018
77654:-0.000288
77655:-0.001480
77732:-0.000075
77842:-0.000061
77843:-0.000192
77862:-0.000436
77866:0.000676
77941:0.000067
77942:-0.000526
78031:-0.000066
78179:-0.000212
78180:-0.000083
78181:-0.000138
78182:0.001578
78198:-0.000105
78264:-0.000141
78396:-0.000384
78398:0.000320
78431:0.000867
78524:0.001359
78547:0.000393
78565:0.000562
78632:-0.000387
78644:0.000550
78654:0.000192
78726:0.000896
78730:0.000212
78735:0.000097
78736:-0.000352
78737:-0.000060
78738:0.000014
78864:-0.000257
78865:-0.000123
78866:0.001022
78868:-0.001202
78874:0.000895
78904:-0.001481
78963:-0.000168
78964:0.001098
79079:0.000306
79095:-0.000078
79097:0.000082
79098:-0.000036
79176:-0.000352
79264:-0.003668
79265:0.000900
79289:-0.000507
79291:-0.000020
79292:0.001462
79295:-0.000013
79297:0.000271
79330:-0.000180
79383:-0.000308
79438:0.000010
79463:0.000080
79561:0.000378
79562:0.000635
79611:-0.000626
79708:-0.000219
79721:0.000355
79735:0.000044
79736:0.000874
79787:-0.000478
79788:-0.000267
79794:0.000173
79797:-0.000494
79833:0.000302
79835:0.000405
79847:0.000294
79848:-0.000470
79849:-0.000236
79850:-0.000973
79851:0.000259
80007:0.000430
80009:-0.004843
80020:-0.000089
80027:-0.000191
80029:0.000072
80030:0.001089
80031:0.000405
80069:0.001639
80070:0.000012
80105:0.000268
80106:-0.000009
80107:-0.000148
80108:-0.000124
80109:-0.001329
80143:-0.001481
80144:-0.000494
80240:-0.000172
80253:0.000329
80279:0.000028
80283:-0.000126
80285:0.000012
80291:0.000010
80403:0.000068
80405:0.000071
80406:0.001013
80411:0.000215
80420:0.000878
80486:-0.000082
80568:-0.000798
80675:0.001399
80682:0.000000
80959:0.000167
80960:0.001149
80962:-0.002872
81032:-0.000965
81034:0.000049
81133:0.000328
81134:0.000132
81185:-0.000047
81186:0.000196
81267:-0.000470
81333:-0.000166
81418:0.000689
81419:-0.000443
81469:-0.000626
81515:0.001005
81516:-0.002714
81580:-0.000526
81644:0.000808
81665:0.000952
81739:0.000903
81799:0.000200
81800:-0.000896
81901:0.001961
81916:0.000259
81966:-0.001140
81967:-0.001931
82032:-0.000092
82033:-0.000496
82071:0.000586
82073:0.000038
82074:0.000529
82075:0.000020
82090:0.000371
82096:-0.000112
82188:0.000101
82189:0.000394
82219:0.000652
82264:0.000306
82271:-0.000965
82272:-0.000078
82343:0.000032
82362:-0.000167
82363:0.000506
82368:0.000328
82462:0.000341
82536:0.000267
82537:-0.000249
82576:-0.000165
82588:0.000266
82627:0.000531
82629:0.000434
82634:0.001043
82664:0.000245
82674:-0.000436
82728:-0.000834
82732:0.000314
82735:-0.000245
82803:-0.000218
82808:-0.000377
82906:0.000274
82907:-0.000929
82908:0.000322
82909:0.000096
82910:0.000032
82961:0.000676
83151:-0.000462
83183:0.000431
83185:0.000063
83198:0.001462
83261:0.000492
83262:0.000271
83335:-0.000112
83336:0.000260
83384:-0.000903
83432:-0.000418
83561:0.000381
83571:0.000147
83597:-0.000497
83617:-0.000281
83708:0.000012
83793:0.000536
83867:0.001089
83956:0.000542
84224:0.000867
84270:-0.000078
84325:0.000486
84326:-0.000310
84496:0.000481
84543:0.000608
84661:0.000303
84717:-0.000036
84772:0.000132
84891:0.000304
84892:0.001077
85087:0.001066
85163:0.000194
85261:0.000049
85288:-0.000283
85359:-0.000088
85361:0.000061
85435:0.001049
85463:0.000867
85464:0.000014
85480:-0.000734
85535:0.000066
85536:0.000623
85622:0.000559
85649:0.001951
85650:-0.001481
85671:0.000147
85707:0.000735
85709:-0.000645
85710:0.000550
85822:-0.002536
85882:0.002500
85968:-0.001717
85995:0.000860
86031:0.000623
86084:-0.000589
86115:-0.000973
86201:-0.001060
86263:-0.000245
86264:0.000602
86370:-0.000078
86434:-0.001431
86527:-0.000283
86528:0.000032
86581:-0.000360
86624:0.000039
86702:-0.000526
86733:0.000462
86734:0.000405
86801:0.000557
86814:0.000903
86900:-0.000003
86966:-0.000049
86967:0.002039
87001:-0.000391
87034:-0.000005
87059:-0.000032
87072:0.001022
87148:0.000080
87195:-0.000031
87199:0.000418
87210:-0.001030
87267:0.000670
87331:-0.000299
87333:0.000219
87334:0.000349
87344:-0.000660
87364:-0.000436
87413:0.000192
87432:-0.000127
87433:0.000168
87564:0.000333
87566:-0.000178
87567:0.000259
87591:0.001327
87619:-0.000883
87665:-0.000055
87669:-0.000929
87680:-0.000462
87688:0.000136
87797:-0.000280
87799:0.000044
87800:-0.000045
87808:0.000105
87881:-0.000436
87950:-0.000009
87964:-0.000310
87966:-0.000436
88032:-0.000082
88033:0.000277
88123:0.000454
88160:0.001951
88161:-0.001481
88162:0.000550
88163:-0.000960
88199:-0.000798
88212:0.000453
88220:-0.000040
88334:-0.000047
88335:0.000196
88336:0.000181
88337:-0.000155
88423:0.000492
88432:-0.000347
88434:0.000419
88496:-0.000512
88499:0.000938
88500:0.000462
88729:-0.000313
88743:0.001359
88784:-0.000102
88955:0.000198
88962:0.000097
88964:-0.000059
88965:0.001502
89014:0.000499
89113:0.000525
89134:0.000192
89187:0.000670
89188:0.000060
89250:-0.000746
89270:-0.000768
89271:0.000676
89276:0.000791
89546:0.000405
89665:-0.000032
89666:0.000149
89667:-0.000816
89668:0.001089
89669:-0.001248
89719:0.000550
89775:0.000576
89802:0.000020
89803:-0.000462
89808:0.000019
89816:-0.000033
89873:-0.000078
89887:-0.000092
89888:0.000015
89969:0.000326
90035:0.000255
90036:-0.001003
90054:0.000909
90221:-0.000357
90222:-0.001274
90224:0.000259
90245:0.000701
90251:-0.000344
90340:-0.000100
90348:0.000378
90353:-0.000229
90417:-0.000350
90418:0.000405
90440:0.001246
90501:0.000415
90517:0.000681
90540:0.000053
90583:0.000895
90586:0.000089
90587:0.000070
90668:0.000196
90691:-0.000263
90734:-0.000380
90773:-0.000114
90777:-0.000253
90778:0.000749
90783:0.001502
90787:0.000207
90812:-0.001329
90872:-0.000680
90880:-0.000267
90901:-0.000443
90961:0.000219
90962:0.000093
91006:-0.000024
91142:0.000355
91240:0.001462
91241:0.000152
91315:0.000642
91333:0.000127
91335:0.000021
91336:0.000791
91404:0.001380
91412:-0.000305
91433:0.000664
91434:-0.001120
91435:-0.001948
91674:0.000166
91840:0.001961
91847:-0.002091
91853:0.001013
91889:0.000852
91890:-0.001496
91891:-0.000103
91892:0.000462
91912:-0.001030
91936:0.000938
91944:0.000504
92086:0.000463
92206:-0.000129
92305:-0.000089
92445:0.000198
92448:-0.000585
92452:-0.000019
92453:0.000900
92552:0.000304
92553:0.001077
92568:-0.000167
92738:0.000646
92739:0.001022
92785:0.000363
92824:0.000194
92870:0.000004
92871:0.000206
92911:0.001578
93000:-0.000316
93001:0.000200
93003:0.000456
93004:-0.001431
93044:0.000100
93045:0.000118
93061:-0.002204
93218:-0.000240
93219:0.000094
93294:0.000357
93414:0.000375
93417:-0.001717
93428:0.000267
93443:0.000304
93532:-0.000027
93540:0.000004
93557:0.000044
93558:0.000835
93559:0.000315
93560:0.000197
93568:-0.001657
93570:-0.000473
93588:-0.000022
93589:0.000029
93599:0.001089
93632:-0.000726
93661:0.001043
93762:-0.001158
93763:0.000387
93765:0.001399
93896:-0.000526
93904:-0.001248
93951:-0.001421
93975:-0.000803
94064:0.000278
94072:-0.000313
94113:-0.000141
94114:0.000418
94115:0.000315
94433:0.001963
94507:0.000300
94584:0.000197
94596:0.000463
94604:0.000002
94669:0.000044
94670:0.000763
94817:-0.000237
94837:0.001022
94866:0.000681
94985:-0.000159
95039:-0.001154
95050:0.001288
95128:-0.000180
95136:-0.000907
95139:0.000470
95225:-0.000108
95227:0.000093
95228:0.000918
95237:0.000954
95252:-0.000876
95283:0.000019
95301:0.000878
95324:-0.001168
95369:-0.000059
95399:-0.001758
95435:-0.000053
95436:0.000952
95497:-0.000491
95498:0.000557
95516:-0.000155
95571:0.000259
95573:-0.001480
95602:0.000298
95609:-0.000612
95671:0.000090
95672:-0.000114
95760:-0.000473
95845:-0.000229
95846:0.000947
95854:0.001938
95901:-0.000418
95909:-0.000526
95930:-0.000683
96004:-0.001248
96041:0.000541
96042:0.000381
96056:-0.001421
96130:0.000925
96134:0.000013
96215:0.000008
96217:0.000016
96218:-0.000032
96301:-0.000494
96367:0.000127
96368:-0.000929
96389:0.000123
96391:-0.000378
96392:-0.001154
96393:0.000190
96499:-0.000174
96501:0.000132
96502:0.000800
96531:0.000900
96534:0.001089
96554:0.000784
96635:-0.000929
96724:0.000463
96734:0.000093
96735:0.000529
96824:-0.000436
96868:0.000295
97066:-0.000730
97167:-0.000360
97198:-0.000210
97201:0.001246
97256:0.000670
97264:0.000038
97367:-0.000313
97380:0.000471
97384:0.000271
97431:-0.000023
97433:0.001352
97434:-0.000820
97452:0.001069
97600:-0.000022
97620:0.000525
97668:-0.000288
97699:-0.002351
97719:0.000450
97788:0.000096
97824:0.000405
97853:0.000341
97890:-0.000290
97891:-0.000165
97897:0.001018
97899:0.000046
97900:-0.002617
97913:0.000245
97982:0.000215
98026:0.000007
98027:-0.000926
98057:0.001079
98130:-0.000105
98132:-0.000049
98133:-0.000612
98185:-0.000297
98231:-0.000383
98298:0.000039
98299:0.000168
98311:-0.000167
98319:-0.001012
98320:-0.000973
98328:-0.000147
98444:0.000548
98459:-0.000737
98516:-0.000130
98523:0.000628
98570:-0.000926
98572:-0.002536
98589:0.001066
98651:-0.001030
98744:0.000754
98748:-0.000199
98749:0.000006
98763:-0.001480
98822:0.000180
98823:-0.000174
98842:-0.000124
98843:0.000867
98852:-0.000820
98970:0.000135
98998:-0.000253
99016:0.000049
99017:0.000080
99018:-0.000087
99030:-0.000495
99046:0.001523
99055:0.000313
99056:0.000300
99203:-0.000310
99242:0.000260
99288:-0.000101
99295:-0.000494
99370:-0.000352
99371:0.000405
99384:-0.000002
99392:0.000430
99436:0.000550
99475:-0.000621
99521:0.000211
99522:-0.000330
99582:0.000471
99686:0.001521
99836:-0.001274
100048:0.000105
100069:0.000070
100147:-0.000199
100261:-0.000847
100359:0.000228
100368:0.000432
100369:-0.000083
100555:-0.000238
100556:0.000700
100572:0.000860
100598:-0.000621
100601:0.000084
100602:0.000899
100644:0.000900
100653:-0.000390
100654:0.000754
100655:0.000315
100718:-0.000020
100788:-0.000895
100827:0.000096
100873:-0.000625
100891:-0.000105
100912:0.000190
100961:0.000010
100980:0.000462
101021:0.000371
101067:0.000835
101099:-0.000286
101100:0.000681
101174:0.000299
101197:0.000418
101254:-0.000589
101371:-0.000442
101373:0.000925
101423:0.000531
101469:0.000309
101471:-0.000162
101472:-0.000345
101473:-0.000538
101474:0.000895
101487:0.000228
101512:0.000371
101520:0.000061
101643:-0.000140
101644:0.000272
101645:-0.000044
101646:0.000278
101647:0.000652
101707:0.000280
101708:0.000358
101709:-0.000054
101710:-0.000281
101763:0.000405
101897:-0.001522
101955:-0.000903
101996:-0.001199
102044:-0.000075
102070:0.000271
102238:-0.000657
102263:0.000115
102265:-0.000052
102266:-0.000383
102267:0.000470
102373:0.000462
102487:0.000260
102576:0.000905
102584:0.000231
102606:0.000730
102793:0.000147
102819:-0.000159
102820:-0.000496
102823:-0.000219
102829:-0.000136
102831:0.000234
102846:0.000170
103116:0.000075
103230:0.001938
103286:-0.001583
103361:-0.000436
103375:-0.000565
103376:0.000138
103378:0.000938
103379:0.000462
103454:0.000623
103519:-0.000638
103628:0.000550
103752:0.000194
103824:-0.000022
103826:0.000310
103838:0.000349
103905:0.001374
103910:0.000341
103931:0.000090
103932:-0.000174
103992:0.000623
104071:0.000259
104083:-0.000155
104096:-0.000222
104098:0.000198
104099:0.000524
104172:-0.000274
104218:0.000463
104304:-0.000045
104370:-0.000504
104385:0.000192
104444:0.000360
104446:-0.000167
104447:0.000860
104448:0.000124
104487:-0.000029
104488:0.001007
104489:-0.000027
104490:0.001096
104537:0.000014
104599:-0.002536
104603:-0.000014
104615:0.000014
104638:-0.000496
104684:0.000259
104704:0.001232
104712:0.000101
104836:0.000408
104837:-0.000009
104917:-0.001481
104918:-0.000494
104972:-0.001522
105003:0.000938
105043:0.001676
105044:-0.002843
105045:-0.000352
105046:0.000016
105049:0.001533
105069:-0.000082
105147:0.000118
105236:0.001288
105244:0.000391
105298:-0.000219
105436:-0.000071
105469:0.001502
105599:0.000131
105600:0.000355
105601:-0.000353
105679:0.000032
105730:-0.000241
105733:0.000046
105768:-0.000140
105776:-0.000014
105785:-0.000657
105836:-0.000192
105842:0.000315
105900:0.000523
105983:-0.000929
106001:0.000638
106038:-0.000391
106069:0.000166
106081:-0.000960
106133:-0.000169
106135:0.001010
106136:-0.001758
106155:0.000170
106156:0.000170
106157:-0.000208
106158:0.000500
106159:0.000145
106255:-0.000155
106302:-0.001716
106303:0.000562
106308:-0.000209
106366:0.000806
106369:-0.000991
106370:0.000092
106526:0.000952
106599:-0.000107
106601:0.000002
106602:-0.000100
106678:-0.000436
106711:-0.000051
106712:0.000256
106713:0.000331
106832:-0.000076
106834:-0.000491
106835:0.000014
106840:0.001394
106841:-0.001522
106897:-0.000070
106899:-0.000082
106900:0.000277
106902:-0.000538
106903:-0.000991
107067:0.000040
107068:0.000670
107069:0.000681
107071:0.000315
107073:-0.000062
107074:0.000228
107075:0.000533
107100:-0.000023
107102:0.000229
107434:-0.000607
107458:-0.000929
107488:0.000245
107524:-0.000172
107905:-0.000121
107966:-0.000336
107967:0.002278
107990:0.000066
107991:0.000724
108013:0.000192
108147:0.000554
108164:-0.000752
108166:-0.000374
108223:-0.000037
108224:0.000080
108305:-0.000174
108410:-0.000273
108436:0.000421
108500:-0.000265
108501:0.000363
108682:0.001497
108968:0.000429
108969:-0.000023
108980:0.000504
109004:0.000228
109005:-0.000497
109024:0.000139
109030:-0.000175
109032:-0.000363
109033:0.000393
109070:-0.000051
109071:0.000192
109154:0.000032
109254:0.000355
109303:0.000007
109385:0.000010
109430:0.001462
109490:-0.000507
109500:-0.000117
109524:0.000153
109525:0.000405
109536:0.000012
109562:-0.000354
109564:0.000116
109565:0.000306
109575:-0.000019
109698:0.000309
109699:-0.002041
109700:-0.002843
109723:-0.000485
109724:0.000245
109766:0.000225
109808:-0.000121
109809:0.000303
109847:-0.000950
110024:0.001013
110032:0.000267
110033:-0.000752
110094:-0.000007
110095:0.001022
110096:-0.000540
110097:-0.000626
110189:-0.000316
110206:-0.000675
110292:0.000191
110294:0.001549
110421:-0.000401
110424:-0.001279
110465:0.000900
110556:-0.000867
110564:0.000506
110571:0.001961
110590:-0.000849
110609:0.000020
110626:-0.000564
110628:-0.000640
110629:-0.001076
110655:-0.002091
110672:0.001131
110698:-0.000788
110931:0.000754
111158:-0.001051
111159:0.001271
111161:0.001399
111298:-0.000965
111335:-0.001717
111356:-0.000883
111358:0.000338
111397:0.000800
111509:-0.001279
111541:-0.000288
111607:-0.000209
111683:0.001399
111690:-0.000554
111781:-0.000214
111795:-0.000199
111879:-0.000834
111890:0.000952
111955:0.000207
111956:-0.000625
112053:-0.001496
112151:0.000626
112152:0.000747
112160:-0.000100
112161:0.000191
112224:-0.000147
112225:0.000903
112227:-0.002043
112228:-0.001931
112325:-0.000233
112326:0.001043
112328:-0.000002
112420:-0.001753
112454:-0.000390
112463:0.001021
112499:-0.001177
112500:0.000060
112549:-0.000436
112577:0.000012
112650:0.000259
112651:0.000952
112684:-0.000585
112687:-0.000289
112688:0.000867
112692:0.000211
112709:0.000020
112754:-0.000047
112756:-0.000006
112757:-0.000612
112920:0.000350
113006:0.000524
113193:-0.001161
113194:0.001268
113216:0.000173
113224:0.000287
113225:-0.000883
113239:0.000529
113286:-0.000131
113287:0.001098
113288:-0.000133
113289:-0.000218
113301:0.000067
113302:-0.000526
113386:0.000453
113486:0.000593
113534:0.000646
113538:-0.000083
113539:0.001549
113619:0.000260
113641:-0.000171
113659:0.000542
113705:0.001246
113748:0.002500
113749:0.000073
113750:-0.001079
113751:-0.000194
113752:0.000670
113753:0.000382
113756:-0.000285
113767:-0.000000
113771:-0.000132
113772:0.000681
113818:-0.000174
113820:-0.000159
113821:0.000186
113852:-0.000032
113923:0.000874
113938:-0.000820
114018:0.000536
114048:-0.000298
114049:0.000118
114068:-0.000726
114072:0.000756
114136:-0.000774
114137:0.001110
114233:0.000272
114234:0.000303
114235:-0.000621
114280:0.001246
114288:0.000181
114289:-0.001753
114305:0.000304
114306:-0.003376
114307:0.000146
114308:-0.000105
114310:-0.001154
114350:-0.000202
114351:-0.001329
114352:-0.000089
114353:0.001089
114354:-0.001248
114404:-0.002351
114408:-0.000190
114470:-0.000092
114506:0.001008
114548:-0.000022
114550:0.000310
114582:0.000086
114583:-0.000091
114584:0.000194
114591:-0.000283
114602:-0.000073
114637:-0.000965
114680:0.001007
114730:0.001187
114771:0.000595
114778:-0.000306
114779:0.000867
114780:0.000244
114781:-0.000035
114811:-0.000726
114838:0.000433
114854:-0.000083
114861:0.000075
114863:-0.000069
114866:0.000701
114882:0.000213
114936:-0.000229
114952:0.000052
114953:0.000049
114954:-0.001205
114955:0.002500
114959:-0.000018
114960:0.000358
114987:0.000192
115004:0.000506
115068:-0.000619
115070:-0.000178
115071:0.000803
115074:-0.003896
115126:-0.000163
115128:0.000287
115129:0.000144
115142:0.001110
115169:-0.000149
115170:0.001022
115301:0.000114
115304:-0.000585
115344:0.001096
115356:0.000168
115414:0.000299
115417:0.000072
115418:-0.000950
115419:-0.000245
115420:0.000463
115421:0.000260
115534:0.000175
115536:0.000056
115537:0.000670
115538:-0.000006
115589:-0.000514
115612:0.000066
115644:0.000234
115787:-0.000589
115822:0.000164
115876:-0.000036
115884:-0.000088
115927:-0.000009
115948:0.000286
115949:0.000801
115973:0.000033
115974:0.001240
115976:-0.000849
115984:-0.001030
115993:0.000572
115994:0.000102
116060:0.000295
116144:0.000692
116226:0.000255
116233:-0.000996
116236:0.001399
116408:-0.000093
116416:-0.000060
116417:-0.000022
116478:0.000240
116480:0.000012
116481:0.000860
116482:0.000124
116529:-0.000059
116530:0.000168
116532:0.001187
116692:0.000415
116774:-0.000352
116840:0.002454
116841:-0.000316
116851:0.000080
116888:0.000268
116925:-0.000670
116926:0.000499
116940:-0.000895
116948:0.000202
117010:0.000306
117012:-0.000258
117013:-0.000281
117085:-0.000062
117086:-0.000112
117115:0.001462
117209:0.000102
117210:-0.000558
117307:-0.000112
117383:-0.000462
117472:-0.000774
117473:0.001476
117480:-0.000528
117481:0.000743
117539:-0.000164
117542:-0.000142
117544:0.000466
117545:-0.000032
117546:0.000538
117579:0.000160
117581:-0.000172
117582:0.000803
117585:-0.003896
117624:0.000607
117625:-0.000042
117641:0.000207
117642:-0.000352
117643:0.000242
117644:-0.000740
117706:0.000080
117740:-0.000165
117753:-0.000258
117755:-0.000206
117756:0.000032
117915:0.000453
118004:0.001187
118005:-0.000044
118012:0.000671
118013:0.000102
118074:0.000598
118076:-0.000381
118077:0.001327
118179:-0.001421
118192:-0.000374
118197:0.000520
118198:-0.000834
118199:0.000391
118207:-0.000159
118238:0.000102
118239:-0.000558
118272:0.000867
118277:0.000646
118425:-0.000345
118471:-0.000514
118472:0.000968
118473:-0.000960
118510:-0.000293
118549:0.000260
118606:0.000098
118609:0.000454
118743:0.000926
118753:-0.000017
118755:0.000202
118756:0.000419
118786:-0.000167
118804:0.000419
118870:0.000554
118891:0.001096
118979:0.000791
119068:0.000350
119118:0.001378
119138:-0.000395
119167:0.000756
119285:-0.000436
119292:0.000500
119336:-0.000267
119338:0.000525
119390:-0.000345
119511:0.000019
119564:0.000278
119590:-0.001480
119600:-0.000465
119601:-0.000391
119608:-0.000290
119609:-0.000165
119662:0.000038
119672:0.000541
119673:0.000670
119674:0.000382
119768:0.000419
119823:0.000186
119836:0.000051
119841:0.000471
119868:0.001648
120043:-0.000100
120099:0.001322
120108:0.000202
120110:0.000027
120132:0.000170
120140:0.000546
120141:0.000784
120202:0.000332
120204:-0.000688
120205:0.000550
120206:0.000229
120207:0.000681
120208:-0.000058
120209:0.000017
120380:0.000046
120381:-0.000263
120382:0.000003
120383:-0.000100
120459:-0.000436
120575:-0.000680
120664:-0.000237
120665:0.000554
120672:0.000234
120673:0.000419
120734:-0.000537
120736:0.000586
120737:-0.000344
120738:-0.000143
120833:0.000358
120942:0.000382
121103:0.000061
121106:-0.000847
121107:0.001380
121156:0.000922
121157:0.000381
121196:-0.001758
121204:-0.000419
121205:-0.000267
121266:-0.000459
121268:-0.000144
121269:0.001502
121398:0.000730
121464:-0.000347
121466:0.000152
121622:-0.000740
121639:0.000938
121728:-0.002872
121798:-0.000004
121800:0.000287
121801:0.000144
121814:0.001110
121828:0.000939
121996:0.000381
122017:0.000524
122088:-0.000867
122093:0.000538
122191:-0.000847
122321:-0.000180
122330:0.000440
122333:-0.002091
122365:0.000860
122370:0.000644
122473:-0.000290
122528:0.000653
122530:-0.000089
122544:0.000234
122561:0.000225
122640:-0.001758
122703:-0.000316
122735:0.001240
122787:-0.000803
122792:0.000014
122793:0.000326
122833:-0.000025
122835:-0.000005
122862:-0.000264
122863:-0.000199
122873:-0.000991
122909:0.000272
122910:-0.000497
122911:-0.000032
122947:0.000271
123007:-0.000622
123009:-0.000066
123010:0.001203
123013:0.000644
123020:0.000393
123042:0.000382
123060:-0.003579
123106:-0.000100
123172:0.000959
123173:0.001559
123181:-0.000063
123183:0.000081
123184:-0.000612
123235:-0.000027
123241:-0.000360
123324:0.000720
123332:0.000212
123333:-0.000347
123335:0.000303
123339:0.000014
123396:-0.000378
123397:0.001578
123405:0.000046
123416:0.001089
123473:0.000635
123537:-0.000357
123539:-0.000165
123540:-0.000035
123570:-0.000726
123572:0.000670
123619:-0.000199
123638:0.000349
123644:-0.000310
123767:0.000278
123770:-0.000048
123772:-0.000275
123773:0.000500
123774:0.000145
123825:-0.000752
123856:-0.000485
123857:0.000245
123871:0.000042
123875:-0.000950
123926:-0.000296
123928:0.000277
123929:0.000460
123942:-0.000391
124003:0.000115
124006:0.000253
124014:0.001374
124087:-0.000726
124104:0.000211
124236:0.000113
124238:0.000415
124239:-0.000531
124299:0.000463
124388:-0.001431
124396:-0.000819
124397:0.000653
124405:-0.000352
124458:0.000208
124460:0.000163
124461:-0.000803
124471:-0.000767
124472:-0.000017
124629:0.001639
124638:-0.000237
124640:0.000066
124658:0.001963
124720:0.000133
124818:0.000014
124819:0.000326
124831:-0.000180
124862:0.000681
124920:-0.001051
124935:-0.000124
124949:0.001187
124954:0.000358
124990:-0.000155
124991:0.000874
124992:0.000327
124993:0.000548
125006:0.000554
125161:-0.000117
125168:0.000449
125170:-0.000145
125171:0.001327
125188:-0.003660
125235:-0.000007
125236:0.000409
125237:-0.000730
125238:-0.001076
125316:-0.000436
125340:-0.000199
125362:0.000326
125364:-0.001012
125394:-0.000376
125456:0.002724
125460:0.000195
125462:0.000039
125463:0.000918
125472:0.000954
125476:0.000078
125477:0.000756
125522:0.000076
125524:-0.000378
125525:-0.001154
125526:0.000190
125569:-0.001279
125627:0.000550
125634:0.000647
125636:0.000157
125637:0.000350
125791:0.000342
125792:0.000636
125794:-0.002091
125808:0.000057
125810:0.000416
125811:0.000389
125823:0.000302
125824:0.000326
125942:-0.000283
125981:0.000443
126054:-0.000165
126055:0.000192
126057:0.000259
126175:-0.000391
126241:0.000448
126242:-0.001463
126260:0.000331
126347:-0.000085
126348:-0.000430
126408:-0.000496
126409:0.000681
126427:0.000463
126516:-0.000960
126559:0.000432
126586:0.000057
126707:-0.000282
126724:-0.000246
126746:-0.000207
126792:-0.000027
126793:0.000060
126903:0.000058
126904:-0.000102
126907:0.000153
126940:0.000017
126959:0.000670
126979:0.000192
127018:0.001271
127048:0.000016
127075:0.000315
127107:-0.000042
127120:0.000416
127121:0.000389
127134:0.000326
127185:0.001462
127212:-0.000428
127446:0.000874
127459:-0.000021
127461:0.000054
127462:0.000670
127463:-0.000006
127491:0.000096
127580:0.000194
127650:0.000430
127652:0.000719
127653:-0.000360
127654:0.000347
127697:0.000046
127717:-0.000040
127718:0.000756
127827:0.000245
127891:-0.000242
127892:-0.000199
127950:0.000533
128017:-0.000159
128023:-0.000973
128112:0.000803
128118:0.001089
128182:0.000722
128183:0.001462
128184:0.000073
128185:-0.002617
128198:0.000245
128261:0.000762
128262:-0.002536
128292:0.001380
128376:0.000939
128435:-0.000274
128441:-0.000526
128525:0.000032
128555:-0.000820
128571:0.000360
128572:-0.000973
128573:-0.000228
128574:-0.000187
128714:0.000069
128716:-0.000167
128717:-0.000383
128718:0.000470
128758:-0.000344
128761:-0.000849
128801:0.000681
128935:0.000191
129030:-0.001305
129087:-0.000002
129127:-0.000084
129128:0.000668
129129:0.000547
129130:-0.000271
129131:0.001271
129139:0.000644
129176:0.001807
129177:-0.002843
129246:-0.000205
129247:-0.001421
129248:-0.000288
129249:-0.001480
129411:-0.000006
129500:-0.002043
129634:-0.001885
129683:0.000006
129687:0.000808
129688:0.000147
129778:0.000150
129781:-0.000494
129831:0.000020
129867:0.000491
130057:0.001187
130100:-0.000335
130157:0.000192
130239:0.000204
130240:-0.000947
130246:-0.000002
130268:0.000299
130310:-0.000010
130314:0.000878
130324:-0.000165
130344:0.000231
130345:-0.000774
130504:0.000701
130518:0.000029
130519:-0.000788
130566:0.002501
130683:0.000462
130790:0.000423
130795:-0.000416
130796:0.001008
130797:-0.000142
130844:-0.000062
130845:0.000228
130846:0.000533
130888:0.000152
130889:-0.000847
131023:-0.000774
131062:-0.000375
131063:0.000925
131215:0.000371
131256:-0.000075
131304:-0.000098
131305:0.000045
131342:0.000247
131345:0.000190
131374:-0.000211
131376:0.000146
131377:-0.000105
131568:0.000559
131575:0.000663
131576:0.000899
131637:0.000355
131722:-0.000105
131747:-0.000075
131815:-0.000585
131906:-0.000069
131908:0.000007
131909:0.000531
131910:0.000133
131953:0.000916
131955:0.000867
131956:0.000014
132041:0.000670
132107:-0.000172
132279:0.000905
132336:0.000878
132349:0.000259
132350:0.000952
132368:-0.000284
132369:0.000700
132438:0.000252
132440:0.000023
132441:-0.000903
132442:-0.000950
132573:0.000211
132574:-0.000950
132699:-0.000035
132705:0.000009
132707:0.000175
132708:-0.000377
132715:0.000006
132737:0.001069
132740:0.001399
132806:-0.000037
132811:-0.001279
132873:0.002500
132900:0.000423
132938:-0.000096
132940:-0.000310
132941:0.000323
132970:0.000031
132971:0.000202
132972:-0.000168
132973:0.000260
133047:0.000642
133048:-0.001534
133074:-0.001534
133173:0.000629
133174:-0.000960
133243:0.000857
133319:0.000474
133417:-0.001885
133502:-0.000193
133506:0.000925
133515:-0.000002
133516:0.000954
133517:0.000331
133573:0.000947
133591:-0.001079
133637:-0.000181
133689:-0.000066
133691:0.000116
133692:0.001013
133696:-0.000253
133697:0.000215
133806:0.000362
133861:0.000032
133863:0.000122
133864:-0.000297
133865:-0.000509
133866:0.001327
133874:-0.000336
133875:-0.000017
133925:-0.000163
134034:-0.000047
134040:-0.000065
134059:-0.000020
134096:-0.000060
134097:-0.000022
134103:-0.000210
134105:0.000215
134106:0.000548
134119:0.000554
134263:0.000135
134336:-0.000315
134338:0.000234
134339:0.000306
134391:-0.000528
134407:0.001203
134411:-0.003699
134412:0.000066
134496:-0.000230
134497:0.000668
134568:0.000181
134569:-0.000155
134760:0.000315
134939:0.001207
135028:0.001806
135029:-0.000898
135098:-0.000076
135100:-0.000550
135101:0.000014
135176:0.000033
135204:0.000701
135228:0.002278
135261:-0.000196
135262:0.000430
135302:0.000245
135409:-0.000213
135410:0.000302
135422:-0.000436
135448:-0.000494
135471:-0.000991
135494:0.000007
135500:0.000803
135510:0.000194
135560:0.000007
135561:-0.000926
135630:-0.000333
135632:0.000130
135633:0.000118
135634:-0.000929
135642:0.000211
135644:0.001961
135674:0.000032
135681:0.000676
135727:-0.000258
135728:0.000453
135772:-0.000352
135946:-0.000101
135947:0.000534
136003:-0.000849
136042:0.000295
136092:0.000197
136162:-0.000168
136164:-0.000474
136165:0.000032
136218:-0.000430
136222:-0.000436
136254:0.001374
136316:0.000217
136318:0.000456
136319:-0.001431
136467:0.000046
136490:0.000027
136492:0.000023
136493:-0.000903
136494:-0.000950
136507:0.000754
136574:0.000577
136575:-0.001258
136694:-0.000213
136696:-0.000041
136698:0.000730
136708:0.001359
136738:0.000668
136761:0.001960
136762:-0.002843
136778:0.000471
136804:0.000676
136994:0.002500
137167:0.000234
137226:-0.000189
137227:-0.000973
137244:0.000105
137273:0.000168
137277:-0.000005
137278:0.000909
137279:-0.000152
137280:-0.000218
137492:-0.001421
137503:0.000562
137647:0.000145
137693:-0.000360
137833:-0.000003
137834:0.001879
137835:0.000314
137836:0.000548
137849:0.000554
137926:0.000903
138029:-0.000494
138127:0.000017
138131:-0.000847
138202:-0.003376
138220:-0.000045
138276:0.000012
138292:-0.000234
138301:-0.000100
138389:-0.000350
138390:0.000982
138391:-0.000041
138393:0.000730
138399:0.000004
138400:0.000670
138401:0.000939
138403:0.001359
138573:-0.000222
138574:0.001462
138673:0.000646
138802:0.000029
138812:0.000925
138822:-0.000200
138824:0.000047
138836:0.001207
138845:0.000300
138847:0.000268
138943:0.000037
138944:0.000355
138945:-0.000101
138946:0.000324
138948:0.000453
139035:0.000458
139117:-0.000044
139121:0.000382
139123:0.000271
139195:0.000916
139284:-0.000507
139354:-0.000037
139356:0.000161
139492:-0.001717
139501:-0.000177
139502:-0.000678
139512:0.002116
139568:0.000215
139725:-0.001060
139734:0.001013
139745:0.000145
139816:-0.001060
139886:0.000024
139888:-0.000087
139900:-0.000495
139958:-0.001431
140044:-0.000035
140057:0.000195
140058:-0.001885
140259:-0.000867
140277:0.000500
140339:0.000492
140340:0.000271
140348:0.000190
140418:-0.000184
140422:-0.000336
140424:-0.000027
140510:0.000253
140576:0.000749
140591:-0.000199
140613:-0.000051
140615:0.000211
140616:0.000720
140739:0.001207
140743:-0.000465
140809:0.000231
140844:-0.000558
140910:0.000925
140928:0.001203
140950:-0.000336
140955:0.000939
140976:-0.000017
141102:-0.000612
141110:0.000670
141152:0.000939
141169:0.000126
141172:0.000253
141180:0.001374
141275:0.000016
141298:-0.000023
141300:0.000229
141412:-0.000740
141472:-0.000514
141482:-0.000369
141488:-0.000526
141508:-0.000670
141570:0.000178
141572:0.000391
141580:-0.000159
141640:-0.000226
141642:-0.000117
141646:0.000409
141675:0.001327
141725:0.000243
141726:-0.000496
141727:-0.000253
141728:-0.000908
141744:-0.000180
141746:-0.000103
141747:0.000462
141768:0.001207
141862:0.000623
141876:-0.000201
141918:-0.000124
141920:-0.000318
141921:0.000393
141944:0.000323
141970:0.001108
141991:0.001523
142016:-0.000125
142042:0.000118
142048:0.000559
142207:0.000322
142281:0.000156
142282:0.000225
142283:0.000506
142284:-0.001583
142339:0.000653
142342:0.001187
142387:-0.000585
142468:-0.000473
142476:0.000017
142508:-0.000125
142509:0.000595
142550:-0.000022
142572:-0.000258
142575:0.000905
142805:0.000334
142807:0.000016
142808:0.000080
142810:0.000315
142837:0.000359
142838:0.000785
142840:0.000139
142848:0.000548
142926:0.000173
143008:-0.000638
143031:0.000158
143032:-0.000347
143038:0.000053
143040:0.000105
143041:0.000531
143042:0.000133
143078:-0.000022
143080:-0.000069
143083:0.000701
143227:-0.000129
143271:0.000157
143273:0.000069
143274:0.000860
143275:0.000166
143280:0.000701
143381:0.000918
143451:0.002500
143540:0.000308
143541:-0.000352
143542:0.000939
143555:0.000350
143610:0.000123
143614:-0.000288
143616:0.000012
143664:-0.000950
143694:0.000554
143729:-0.000929
143730:-0.000164
143812:-0.000496
143851:-0.000310
143925:-0.000347
143927:0.000152
143983:0.001246
144099:0.000670
144111:0.000307
144112:0.000032
144142:-0.000288
144144:0.000165
144145:0.000542
144147:0.000559
144196:-0.000047
144197:-0.000256
144198:0.001648
144199:-0.000142
144219:-0.000199
144273:0.001879
144344:0.000559
144371:0.000010
144373:-0.000027
144374:0.001096
144429:-0.000378
144430:0.001104
144511:-0.000898
144545:-0.000264
144547:-0.000138
144548:0.001578
144577:0.000273
144662:-0.000280
144663:0.000141
144674:0.000288
144680:0.000132
144888:-0.000538
145054:0.001096
145136:0.000529
145164:0.000302
145206:0.000640
145207:-0.004843
145210:0.001674
145211:-0.000734
145276:0.000222
145277:-0.000199
145488:0.000006
145509:-0.000167
145540:0.000132
145579:-0.000036
145591:0.000234
145668:0.000245
145669:-0.000558
145670:0.000701
145696:0.000197
145739:0.000557
145742:-0.000179
145743:-0.000374
145781:-0.002204
145910:0.001098
145929:-0.000237
145930:0.000554
145972:-0.000005
146014:0.000357
146015:-0.000626
146082:-0.000436
146084:0.000038
146111:-0.000167
146118:-0.000062
146162:0.001288
146200:-0.000345
146205:0.000670
146270:-0.000174
146272:0.000180
146273:-0.000589
146275:-0.000253
146395:0.000019
146454:0.000481
146455:-0.000207
146467:0.001246
146472:-0.000253
146628:-0.000155
146643:-0.000895
146732:-0.000794
146733:-0.000798
146734:0.000559
146796:-0.001279
146802:-0.000142
146806:0.000298
146808:0.000271
146815:0.000895
146904:-0.000436
146998:0.000284
146999:-0.000112
147137:-0.000798
147172:-0.000189
147173:0.000891
147175:-0.000774
147264:0.000462
147334:0.000286
147335:-0.000219
147336:0.000016
147337:0.000080
147339:0.000315
147370:-0.000091
147536:0.000315
147707:0.001187
147747:-0.000336
147866:0.000080
147868:0.000128
147869:-0.000462
147872:-0.000310
148398:0.000039
148399:0.000268
148401:0.000453
148660:-0.000794
148711:0.000014
148771:0.000350
148860:-0.000160
148861:-0.000496
148862:-0.000253
148866:-0.000253
148893:-0.000059
148894:-0.000965
148915:0.000895
148930:-0.000002
148931:-0.000207
149083:-0.000253
149126:-0.000036
149212:-0.000377
149255:-0.000322
149256:0.000646
149303:-0.000465
149319:0.000467
149320:-0.000042
149321:0.000265
149322:0.000801
149353:-0.001375
149392:0.000652
149445:0.000323
149464:0.000078
149465:0.000791
149527:-0.000436
149541:-0.000473
149625:-0.000034
149629:0.000808
149630:0.000147
149678:-0.000960
149740:0.000405
149744:-0.000172
149745:0.000229
149793:0.001246
149799:-0.000761
149800:0.000101
149802:0.000938
149803:0.000462
149825:-0.000494
149835:0.000170
149847:-0.000057
149875:0.000286
149876:-0.002204
149877:0.000833
149878:-0.000360
149879:0.000347
149924:-0.000390
149925:0.000754
149926:0.000315
149973:0.001079
149977:-0.000378
149978:0.000166
149994:0.000151
149996:-0.000229
149997:0.000019
150058:0.001089
150210:0.000498
150211:0.000365
150254:0.000572
150255:-0.001496
150274:0.001246
150367:-0.000237
150431:0.000015
150433:0.000139
150439:0.000628
150443:0.000266
150456:0.000500
150526:0.000035
150527:-0.000263
150528:0.000002
150529:-0.000100
150577:0.002408
150578:0.000918
150605:-0.000436
150610:0.000300
150657:0.001462
150797:-0.000112
150843:-0.000570
150899:-0.001758
150987:-0.000074
150988:0.000546
150989:0.000115
150990:-0.000680
151058:-0.000142
151059:0.000168
151060:0.000166
151061:-0.000680
151142:0.000259
151210:-0.000442
151274:-0.000128
151276:0.001503
151277:-0.001051
151280:0.002138
151368:0.000315
151375:0.000279
151376:-0.000991
151431:-0.002872
151443:-0.000496
151543:0.000080
151544:-0.000514
151545:0.000140
151546:0.000905
151562:0.000267
151590:-0.000226
151591:0.000000
151592:-0.000780
151593:0.001380
151594:-0.000494
151610:0.001013
151708:0.000019
151709:-0.000307
151740:-0.000061
151742:0.000090
151743:0.000278
151744:0.000652
151784:0.001327
151795:0.001043
151850:-0.001290
151882:-0.000158
151883:-0.000192
151921:-0.000167
151929:0.000310
151973:-0.000200
151980:-0.001753
151987:0.001207
152028:-0.000526
152056:-0.000106
152057:0.000196
152061:-0.000675
152099:-0.000222
152100:0.000595
152102:0.001246
152107:-0.000657
152122:-0.000663
152123:0.000053
152125:0.000938
152126:0.000462
152208:-0.000414
152209:0.001578
152252:0.000156
152254:0.000290
152255:-0.001583
152328:-0.000042
152378:0.001462
152426:0.000469
152432:0.000448
152437:-0.001030
152495:0.000014
152514:-0.000979
152515:0.000670
152584:-0.000006
152600:-0.000233
152601:0.000180
152602:-0.000816
152603:0.001089
152604:-0.001248
152654:-0.000251
152655:0.000281
152898:-0.000015
152906:-0.000657
152985:-0.000726
153019:0.000473
153027:0.000720
153046:0.000728
153047:0.000019
153094:-0.004843
153131:-0.000109
153132:-0.000121
153188:0.000022
153189:-0.000316
153211:0.000193
153212:0.000676
153213:-0.000055
153279:0.000157
153280:0.000264
153318:-0.000621
153559:-0.000485
153560:-0.001329
153648:0.000259
153679:0.000176
153718:-0.000208
153720:0.000015
153721:-0.000027
153722:-0.000078
153767:0.000006
153769:0.000077
153770:0.000652
153771:0.001497
153772:0.000020
153784:0.000835
153912:0.001104
154091:-0.001431
154139:0.000925
154145:0.000141
154211:0.000166
154224:0.000548
154237:-0.001431
154250:-0.000177
154251:0.000835
154252:-0.000044
154253:0.000278
154254:0.000652
154323:0.000021
154324:0.000593
154325:-0.000015
154398:-0.000625
154411:-0.000903
154444:0.000228
154445:-0.000430
154483:0.000405
154509:0.000211
154623:-0.001051
154631:-0.000638
154677:-0.000568
154678:-0.000391
154679:-0.000737
154683:0.000212
154684:-0.000313
154690:0.000308
154716:-0.001199
154755:-0.000494
154782:0.000290
154783:-0.000950
154784:-0.000384
154785:0.000463
154786:0.000260
154864:0.000194
154879:0.002195
154880:-0.003660
155053:0.000335
155054:-0.001012
155055:-0.000554
155056:-0.000187
155076:0.001110
155097:0.000623
155113:-0.000473
155221:-0.000143
155227:0.000143
155229:-0.000167
155230:-0.000383
155231:0.000470
155244:-0.001717
155314:0.000035
155315:0.000302
155316:-0.000374
155317:-0.000180
155318:0.000500
155330:0.000463
155578:0.000267
155579:-0.001131
155796:0.000259
155846:-0.000369
155847:0.000925
155850:-0.000377
155974:0.000066
156029:-0.001076
156110:-0.000219
156111:-0.000377
156150:0.000300
156177:-0.000436
156219:-0.000960
156305:-0.000313
156378:-0.000181
156538:-0.000022
156592:0.000147
156642:0.000016
156643:0.000899
156672:0.000670
156751:0.000016
156912:0.000190
156913:0.000463
156914:-0.000559
156915:0.000133
157136:-0.000033
157137:0.000835
157148:0.000124
157149:-0.000473
157174:0.000155
157175:-0.000625
157283:0.000194
157362:0.000349
157372:-0.000377
157408:0.000635
157410:0.000499
157442:0.000175
157444:0.000056
157445:0.000670
157446:-0.002014
157447:-0.001931
157583:0.000874
157586:0.000192
157595:0.000259
157604:-0.000950
157680:0.000110
157683:0.000253
157691:0.001374
157706:-0.000129
157707:-0.002416
157815:0.000803
157828:-0.000045
157854:-0.000022
157856:-0.000069
157859:0.000701
157974:0.000274
157975:-0.000929
157976:-0.000112
157977:0.000096
157978:0.000032
158061:0.000014
158250:0.000315
158380:-0.000196
158383:0.000533
158436:-0.001583
158442:0.000952
158506:-0.000101
158508:-0.000163
158509:-0.000973
158510:0.000259
158527:0.000938
158657:-0.000657
158679:-0.000071
158680:0.000536
158846:0.001187
158879:0.001951
158880:-0.001481
158993:0.001502
159015:0.000133
159038:-0.000419
159039:0.000730
159040:0.000225
159041:-0.000820
159042:0.000800
159079:0.000905
159153:0.000012
159213:-0.001389
159219:0.000147
159248:0.000124
159266:0.001648
159302:0.000023
159303:0.000800
159312:0.000080
159374:-0.000929
159447:-0.000774
159541:-0.000626
159545:0.000531
159570:0.000968
159573:-0.000002
159574:0.000362
159575:-0.000734
159611:0.001114
159622:0.002116
159665:0.000462
159679:-0.000926
159743:0.000552
159776:0.001246
159778:0.000860
159834:0.000128
159835:-0.000214
159839:0.000393
159844:-0.000246
159850:0.000132
159943:-0.000660
159976:-0.000395
159978:0.000074
159979:0.000462
159980:0.001378
159981:0.000644
160031:-0.001522
160035:0.000394
160068:0.000315
160077:-0.000188
160102:0.000948
160106:-0.000374
160112:0.001879
160113:0.002116
160209:0.000166
160211:0.000730
160222:-0.001290
160293:0.001246
160307:-0.000215
160309:0.000028
160310:0.000048
160311:0.001497
160312:0.000020
160349:0.001246
160366:-0.000053
160367:-0.000374
160442:0.000120
160444:-0.000282
160445:-0.000093
160481:0.000307
160483:0.000054
160484:0.000670
160485:-0.000006
160564:0.000524
160602:-0.000089
160636:-0.000180
160638:0.000357
160639:-0.000626
160675:-0.000154
160677:0.000058
160678:0.000462
160805:0.000119
160806:-0.001166
160835:0.000449
160844:-0.000365
160846:-0.001753
160864:0.000152
160898:-0.000240
160899:0.000094
160912:-0.000174
160963:-0.000136
161007:-0.000059
161008:-0.000965
161068:0.000166
161097:-0.000391
161160:-0.000130
161166:-0.000180
161168:0.000017
161169:0.000462
161301:-0.000246
161361:-0.000361
161362:0.000499
161363:-0.000737
161364:0.000454
161367:-0.000209
161374:0.000299
161430:-0.000816
161442:-0.001248
161522:-0.000726
161600:-0.000213
161628:-0.000326
161698:0.000057
161700:0.000396
161701:0.000371
161833:0.000211
161917:-0.000671
161921:0.000878
162029:0.000053
162066:-0.000085
162067:-0.000308
162071:-0.000278
162072:-0.000112
162148:-0.000112
162230:0.000475
162232:-0.000156
162233:-0.000075
162241:0.001131
162292:0.001096
162294:0.000259
162350:0.000266
162466:0.001578
162473:-0.000314
162474:-0.000102
162475:-0.000125
162477:-0.000167
162486:0.000014
162603:0.000423
162614:-0.000558
162615:0.000166
162662:-0.000165
162743:0.000105
162762:-0.000129
162765:0.000641
162766:-0.000022
162767:-0.000497
162801:0.000419
162913:0.000036
162930:-0.000159
162934:0.000712
162935:0.000692
162936:-0.000088
162937:-0.000165
163010:0.000141
163026:0.000316
163027:-0.000294
163029:0.000217
163030:-0.000436
163031:-0.000062
163032:-0.000027
163033:-0.000078
163108:-0.000687
163109:-0.001885
163146:0.000026
163147:-0.000683
163185:0.000900
163224:0.002278
163282:-0.000324
163284:0.000190
163285:0.000670
163286:0.000382
163294:-0.000130
163305:0.001089
163391:0.000874
163414:0.000234
163418:-0.000788
163541:-0.000726
163558:-0.000167
163566:-0.000390
163567:0.000754
163568:0.000315
163570:0.000124
163585:0.000068
163587:0.000473
163588:0.001207
163596:0.001249
163612:0.000398
163613:0.000072
163651:0.000754
163691:0.000259
163756:-0.000165
163799:-0.000252
163800:0.000668
163830:-0.000121
163831:0.000303
164032:0.000350
164033:0.000554
164090:-0.000106
164091:0.000196
164117:0.000800
164141:-0.000090
164142:0.000670
164143:0.000580
164144:-0.000895
164156:0.000347
164199:-0.000289
164200:0.000867
164324:0.002116
164360:-0.000380
164361:-0.000017
164498:0.000453
164622:-0.000214
164634:0.000538
164697:-0.000049
164698:-0.000965
164731:0.000270
164774:-0.000192
164820:0.000419
164890:-0.000801
164893:0.001203
164894:-0.001120
164908:0.000653
164964:-0.000032
165007:0.000166
165141:-0.000023
165154:0.000521
165155:-0.001120
165156:-0.001948
165236:-0.001948
165240:-0.000343
165253:0.000027
165254:0.000646
165256:0.000190
165263:0.000034
165264:-0.000283
165365:0.000003
165366:-0.000352
165422:-0.000230
165424:0.000500
165425:0.001288
165433:0.001249
165542:0.000802
165617:0.000652
165669:-0.000473
165735:0.001550
165795:0.000197
165809:0.000649
165810:-0.000360
165884:-0.000035
165909:-0.000107
165954:0.000806
165957:-0.000991
166037:0.000895
166073:0.000420
166306:0.000891
166363:-0.000199
166365:0.000182
166366:0.000857
166367:-0.000088
166368:-0.000165
166474:0.000215
166486:0.000469
166497:-0.001030
166530:0.000524
166539:-0.000164
166606:0.000010
166733:-0.000436
166750:0.000190
166762:0.000382
166763:0.000529
166985:0.000245
167002:0.000895
167022:-0.000391
167082:0.000918
167229:0.001246
167274:0.000020
167282:-0.000524
167283:-0.000391
167284:-0.000737
167462:-0.000820
167548:0.000190
167557:-0.000675
167558:-0.001168
167614:-0.000040
167629:0.001462
167720:0.000938
167781:-0.000726
167782:-0.001167
167814:0.000474
167818:-0.000370
167826:-0.000143
167843:-0.000009
167923:-0.000045
167928:-0.002351
167992:0.000115
167997:-0.000876
168012:0.000608
168014:0.000916
168086:-0.000223
168115:-0.000926
168161:-0.000965
168162:-0.000078
168247:0.000278
168264:0.000405
168313:-0.000284
168346:0.000368
168347:-0.000223
168348:-0.001305
168362:0.000057
168363:0.000646
168365:0.000190
168536:-0.000069
168537:0.000324
168539:0.000453
168618:-0.001258
168645:-0.001421
168678:0.000271
168713:0.001578
168779:-0.000043
168780:0.000000
168878:0.000577
168879:-0.001258
168911:-0.000172
168913:-0.000017
168921:-0.000029
168987:-0.000507
169012:-0.000378
169076:0.000349
169144:-0.000335
169146:-0.000138
169245:-0.000062
169259:-0.000320
169262:-0.000849
169377:0.000284
169379:-0.000154
169380:0.000720
169519:-0.001060
169685:-0.000232
169686:0.001069
169770:0.000536
169779:-0.000083
170051:0.000190
170067:0.000260
170140:0.000139
170173:-0.001583
170212:0.000476
170213:0.001013
170214:0.000968
170246:-0.000320
170302:0.000601
170303:-0.000883
170309:-0.000039
170311:0.000197
170312:0.000144
170325:0.001110
170347:-0.000849
170445:-0.000117
170474:-0.000230
170475:0.000968
170476:-0.000960
170521:0.001089
170542:0.000170
170597:0.001021
170617:0.002702
170618:-0.001753
170619:0.000473
170717:0.000206
170742:0.000559
170745:-0.000867
170746:0.000926
170749:-0.000477
170750:-0.000130
170768:0.000328
170793:-0.000049
170794:-0.000374
170891:0.000118
170964:0.000730
170989:0.000151
170990:0.000225
170991:0.000557
171006:-0.000141
171007:0.000926
171065:-0.000556
171066:-0.000626
171115:-0.000740
171163:0.000168
171164:-0.000514
171165:0.000310
171166:0.000905
171204:0.000918
171257:0.001462
171274:-0.000687
171278:-0.000091
171337:-0.000376
171338:0.000070
171339:-0.000730
171340:-0.001076
171382:0.000764
171467:-0.000034
171468:-0.000102
171508:0.000554
171538:0.000086
171539:-0.000091
171540:0.000194
171549:-0.000308
171615:0.000048
171616:0.000053
171628:-0.000726
171647:0.000323
171700:-0.000167
171716:-0.001305
171810:-0.000083
171848:0.000060
171849:-0.000114
171887:0.000756
171933:0.000015
171934:-0.000746
172070:0.000432
172071:-0.000083
172179:0.000017
172248:-0.001534
172268:0.000950
172314:-0.000168
172315:0.001462
172340:0.000055
172341:0.000623
172428:-0.000726
172602:-0.000378
172614:0.000190
172711:-0.000638
172713:-0.000798
172734:-0.000740
172819:0.001322
172847:-0.000172
172849:0.000048
172850:0.000306
172870:0.000143
172873:-0.000585
172877:-0.000221
172878:0.000900
172944:0.000045
172974:-0.000237
172975:0.000554
173010:0.000756
173148:-0.000383
173200:-0.000867
173243:0.000308
173246:0.000016
173344:-0.002948
173373:-0.001290
173402:0.000015
173403:-0.000112
173404:0.000038
173405:-0.000082
173406:0.001502
173420:0.000833
173433:-0.000180
173450:0.001374
173518:-0.000034
173520:0.000135
173616:0.000571
173617:-0.000262
173618:-0.000731
173619:0.000349
173627:0.000471
173649:-0.000436
173692:0.000947
173709:0.000595
173790:-0.000144
173791:0.000670
173792:0.000580
173793:-0.000895
173834:-0.000847
173853:0.001378
173899:-0.000803
173934:0.000016
173936:-0.001379
173937:0.002500
173938:0.000072
173941:-0.000029
173942:0.000563
173959:-0.000124
173960:0.001322
173961:-0.000116
173962:0.000260
173964:0.000169
173966:0.000314
173967:0.000548
173980:0.000554
174132:0.000393
174198:0.000398
174199:0.000072
174466:-0.000285
174469:0.001246
174515:0.000216
174516:0.000758
174521:0.000132
174730:0.000719
174742:0.000347
174785:-0.000174
174839:0.000529
174998:0.000010
175002:0.000947
175008:-0.000378
175018:0.000878
175071:-0.000359
175072:-0.000014
175262:-0.000229
175263:0.000947
175371:0.000245
175423:0.000644
175532:-0.000256
175533:0.001096
175601:0.000253
175627:-0.000695
175629:0.000172
175635:0.001938
175707:0.000673
175794:-0.000167
175806:0.000470
175903:-0.000345
175951:0.001378
176047:-0.000092
176048:-0.000496
176062:-0.000089
176064:0.000082
176065:-0.000036
176066:-0.002204
176145:-0.000196
176164:-0.001758
176183:0.000682
176185:0.000016
176186:-0.000531
176319:-0.000335
176326:-0.000081
176327:-0.002204
176397:-0.000991
176417:0.000023
176419:-0.000418
176420:-0.000117
176421:0.001022
176423:-0.001202
176429:0.000895
176435:-0.000794
176483:0.000462
176545:0.001639
176546:0.000012
176591:0.000040
176593:0.000139
176594:-0.000015
176596:-0.000282
176597:-0.000093
176603:0.000266
176630:-0.000100
176739:0.000117
176741:-0.000418
176742:-0.000117
176743:0.001022
176745:-0.001202
176751:0.000895
176778:0.000681
176863:0.000014
176885:-0.000109
176949:-0.000167
176967:0.000462
177015:0.000430
177096:0.000670
177116:0.000878
177126:-0.000052
177128:0.000572
177129:-0.000895
177182:0.000462
177292:-0.000264
177293:0.001240
177295:0.000288
177297:-0.000370
177298:-0.000638
177299:0.000644
177312:-0.000473
177316:0.000635
177402:0.000878
177488:-0.000110
177489:0.000358
177658:-0.000050
177660:0.000016
177661:-0.000032
177714:-0.000109
177846:0.000132
177848:0.000291
177851:0.000088
177852:0.000225
177853:0.000437
177901:0.000419
177922:-0.000062
177934:0.000533
177956:0.000145
177974:0.001961
178082:0.000198
178130:0.000259
178176:0.000900
178190:-0.000075
178193:0.001187
178194:-0.000313
178197:0.001938
178228:0.000652
178248:-0.001496
178254:0.000939
178314:0.000179
178315:-0.000660
178318:-0.001378
178402:0.000670
178407:-0.000077
178408:0.000430
178422:0.000192
178454:0.000212
178455:-0.000313
178563:-0.000160
178679:0.000860
178722:0.000730
178723:0.000135
178778:0.001069
178781:-0.000002
178888:0.000802
178946:0.000961
178948:0.000436
178986:0.000007
178998:0.000133
179011:-0.000276
179013:0.000165
179014:0.000542
179016:0.000559
179044:0.000081
179047:0.000240
179095:0.000652
179218:-0.000012
179220:0.000097
179221:-0.000027
179222:-0.000078
179237:0.000618
179238:0.000784
179244:-0.000180
179246:-0.000171
179247:-0.000383
179248:0.000470
179256:0.000150
179257:0.000350
179258:-0.000019
179433:0.000499
179470:0.000157
179477:-0.000107
179479:-0.000126
179480:-0.000218
179518:0.000021
179519:-0.000019
179530:-0.000950
179532:0.000730
179627:-0.000390
179785:-0.000883
179786:0.000130
179788:0.000415
179789:-0.000531
179790:-0.003376
179870:0.000000
179900:0.001110
180018:-0.000558
180050:0.000315
180051:-0.003376
180057:0.000132
180132:-0.000263
180159:0.000500
180317:-0.000131
180318:0.000322
180320:0.000058
180321:0.000170
180402:0.000147
180403:0.000450
180550:0.000130
180551:-0.000621
180594:0.000925
180635:0.000228
180783:-0.000312
180850:0.000415
180851:-0.001012
180852:-0.000554
180853:-0.000187
180855:-0.000165
180868:-0.000415
180869:-0.000297
180931:-0.000143
181094:0.000644
181203:0.000670
181370:0.000053
181382:-0.000509
181384:0.001066
181385:-0.001758
181386:0.001322
181401:0.000536
181416:-0.000746
181475:-0.000737
181521:0.000681
181646:-0.000019
181647:0.001322
181671:0.000159
181672:-0.001753
181673:-0.000222
181694:-0.000029
181715:-0.000378
181747:-0.000330
181793:0.000014
181797:-0.001290
181845:-0.000836
181847:0.000096
181853:0.001938
181902:0.000423
181914:0.000269
181915:0.001079
181917:-0.002872
181918:0.000534
181945:-0.000674
181948:-0.000211
181949:-0.000625
182019:0.000598
182020:-0.000042
182021:0.000265
182022:0.000801
182114:0.000326
182135:-0.000774
182136:0.001110
182178:-0.000174
182179:0.000534
182220:-0.002043
182221:-0.001931
182287:-0.000006
182288:-0.000726
182368:-0.000075
182411:0.000635
182446:-0.000070
182450:-0.000430
182710:0.000228
182711:-0.000430
182722:-0.000929
182834:-0.000105
182980:-0.000082
182981:0.000277
182982:-0.001199
183067:0.000801
183242:-0.000061
183243:-0.001199
183343:-0.000352
183351:0.000259
183510:-0.000057
183512:0.000211
183513:0.000720
183514:-0.000352
183576:-0.000223
183737:0.000644
183774:0.000003
183775:-0.000352
183786:0.000730
183928:-0.000284
183943:-0.000168
184042:0.000235
184043:-0.000246
184044:0.000065
184045:-0.000286
184102:0.000315
184103:-0.003376
184202:-0.000246
184472:0.000033
184574:-0.000180
184576:0.000456
184577:-0.001431
184646:-0.000020
184650:0.000878
184848:0.000358
184866:0.000308
184889:-0.000433
184890:-0.000741
184891:0.000320
184892:0.000903
184947:-0.001717
185009:-0.000625
185072:0.000701
185099:0.000803
185106:-0.000181
185107:-0.000000
185108:-0.000164
185109:-0.001051
185110:-0.000343
185112:0.002138
185225:-0.000401
185332:-0.000585
185370:-0.000246
185371:-0.000343
185445:-0.000213
185447:0.000277
185448:0.000460
185461:-0.000391
185541:-0.002043
185565:0.000670
185638:0.001550
185642:-0.000558
185884:0.000720
185902:0.000102
185903:-0.000558
185950:-0.000276
185951:0.000341
186001:0.000120
186003:0.000130
186004:0.000118
186005:-0.000929
186015:0.001961
186170:0.001951
186174:-0.000293
186179:0.000135
186183:-0.000267
186251:-0.000348
186257:0.000020
186264:0.001399
186283:0.000190
186416:0.000578
186417:-0.000898
186434:0.000160
186435:-0.000293
186457:0.000453
186555:-0.000263
186556:0.000676
186557:0.000152
186558:0.001150
186559:0.000049
186560:0.000080
186562:0.000315
186607:0.002501
186649:-0.000148
186660:0.001249
186704:0.000550
186705:-0.000960
186706:-0.000798
186729:-0.000014
186730:0.000192
186754:-0.000199
186781:0.000007
186783:0.000737
186784:0.000608
186814:-0.000473
186816:0.000642
186863:0.000874
186939:0.000259
186966:0.000072
186967:-0.000798
187003:-0.001481
187016:0.000170
187017:-0.000006
187069:0.000191
187075:-0.000377
187099:0.000019
187100:0.000499
187113:-0.000311
187114:0.000471
187115:-0.000093
187116:-0.000820
187137:0.000800
187139:0.000070
187234:0.000268
187236:-0.000312
187237:0.000016
187240:0.001533
187273:0.000280
187279:0.000132
187331:-0.000473
187348:0.000496
187353:-0.000102
187480:0.000332
187483:-0.002872
187510:-0.000057
187522:-0.001290
187574:0.000559
187649:-0.000558
187669:0.000285
187671:-0.000746
187672:-0.000867
187676:-0.000473
187677:-0.000130
187724:0.001938
187766:0.000297
187768:-0.001040
187769:0.000194
187882:0.001155
187884:-0.000165
187946:-0.000139
187948:0.000094
187949:-0.000680
188001:0.000491
188135:0.000338
188139:-0.001583
188179:-0.000491
188181:0.000105
188182:0.000899
188193:0.001961
188201:-0.000374
188203:0.001021
188225:-0.000134
188234:-0.000335
188298:-0.000427
188300:-0.000166
188301:0.000803
188304:-0.003896
188368:-0.000683
188412:0.000198
188414:-0.001275
188415:0.000550
188417:-0.000320
188584:0.000874
188686:-0.000159
188700:0.002501
188720:0.000473
188721:0.000635
188733:0.000357
188735:-0.001823
188781:0.000057
188782:0.000053
188794:-0.000726
188830:-0.000639
188834:-0.000496
188882:0.000874
188895:0.001359
189084:0.000905
189094:-0.000092
189095:-0.000496
189104:-0.000168
189112:0.001523
189182:-0.000014
189183:-0.000360
189225:0.000602
189252:0.000202
189258:-0.001076
189337:0.000542
189338:-0.001375
189340:0.000240
189356:0.000496
189357:-0.000428
189362:-0.000278
189365:0.000272
189366:0.002278
189374:0.000147
189454:-0.001522
189485:0.000117
189486:-0.000273
189524:0.000676
189530:0.000016
189531:0.000899
189628:-0.000898
189638:-0.000016
189650:0.000266
189726:0.000058
189728:0.000075
189736:0.001521
189750:-0.000029
189766:0.001271
189802:0.001080
189803:0.000398
189885:0.000450
189893:0.000007
189894:0.000499
189895:-0.000117
189896:-0.000377
189898:0.000754
189900:-0.000420
189901:0.000142
189902:-0.000093
189903:-0.000784
189946:0.000192
189990:0.000168
190074:-0.000512
190075:-0.000965
190158:-0.000202
190159:0.000754
190223:0.000562
190262:0.001098
190267:0.000524
190331:0.000673
190351:-0.000297
190417:0.000128
190428:0.000273
190429:-0.000660
190430:-0.000876
190432:-0.001378
190449:0.000561
190450:-0.000262
190451:-0.000672
190452:0.000349
190460:0.000471
190482:-0.000436
190545:0.000061
190604:-0.001717
190650:0.000021
190651:-0.000019
190702:-0.000171
190714:0.000234
190837:-0.001060
190861:-0.000022
190863:0.000453
190883:-0.000253
190884:-0.000121
190896:-0.001657
190922:-0.003376
190958:0.000023
190963:-0.000199
191070:-0.001431
191222:0.000118
191223:-0.000199
191331:-0.000326
191362:0.001249
191395:-0.000528
191427:0.000538
191490:-0.000289
191492:-0.000392
191493:-0.000123
191494:0.001022
191496:-0.001202
191502:0.000895
191536:-0.000027
191537:0.000349
191609:-0.000065
191684:0.000147
191711:-0.000895
191809:0.000710
191810:0.000042
191878:-0.000246
191885:0.000300
191886:0.000295
191925:-0.000121
191927:-0.000950
191981:-0.001274
191983:0.000026
191984:0.000595
192022:0.000164
192074:0.001462
192081:-0.000695
192083:0.000525
192157:-0.000141
192158:0.000926
192180:-0.001753
192255:0.000267
192274:-0.000960
192353:-0.000088
192354:-0.000165
192355:-0.000384
192356:0.000430
192368:0.000874
192429:0.000107
192459:-0.000042
192511:0.000947
192527:-0.000034
192529:0.000175
192530:0.000173
192535:0.000299
192554:0.000034
192556:0.001320
192557:-0.000224
192558:0.001271
192566:0.000644
192701:-0.000475
192702:0.000141
192703:-0.000088
192704:0.001502
192744:0.000362
192830:-0.000109
192842:0.000802
192878:0.000049
192942:0.000006
192989:-0.001120
193086:0.000869
193089:0.000423
193091:0.000874
193097:-0.000675
193111:-0.000470
193121:0.000470
193138:-0.001421
193350:0.000076
193351:0.000874
193401:0.001462
193459:-0.000165
193568:-0.000035
193618:0.000743
193619:-0.002536
193801:0.000500
193810:-0.001823
193812:0.000895
193894:-0.000061
193906:0.000010
194034:0.000253
194055:-0.000330
194066:0.001271
194155:0.000192
194240:-0.000219
194267:-0.000465
194338:-0.000098
194339:0.000045
194414:-0.000024
194415:0.000192
194456:0.000559
194500:-0.000017
194523:0.000419
194586:0.000214
194587:-0.000297
194589:0.000347
194610:0.000328
194684:0.000078
194685:-0.000142
194686:0.001098
194694:0.000020
194784:-0.000246
194785:-0.000343
194819:-0.000660
194863:0.001523
194876:0.000644
194882:0.000045
194885:0.000287
194946:0.000128
194963:0.001131
195056:-0.000558
195061:-0.000159
195117:-0.000391
195119:0.000730
195154:0.000173
195156:-0.000219
195157:0.000194
195199:0.001327
195214:0.000063
195217:0.000253
195221:0.000470
195225:0.001374
195285:-0.000002
195328:-0.000372
195330:0.000130
195331:0.000118
195332:-0.000929
195342:0.001961
195351:0.000328
195518:0.000542
195580:-0.000950
195587:-0.000035
195651:-0.000443
195653:-0.001375
195746:0.000408
195747:-0.000009
195748:-0.000148
195749:-0.000129
195750:-0.001329
195751:-0.000383
195885:0.000700
195984:-0.000218
196050:-0.000369
196056:-0.000526
196181:-0.000223
196182:0.000233
196183:-0.001534
196186:0.000808
196187:0.000147
196274:0.000559
196278:-0.000301
196280:0.000274
196281:0.000197
196283:0.000190
196289:-0.001657
196318:0.001077
196415:-0.000278
196516:0.000018
196542:-0.000173
196543:0.001462
196650:0.000013
196651:0.000173
196713:-0.001258
196808:0.000525
196810:0.000110
196811:0.000499
196867:0.000260
196881:-0.000102
196883:-0.000021
196884:0.000096
196885:0.000032
196931:-0.000752
196932:-0.000528
196936:0.000029
196965:0.000245
196966:-0.000558
196967:0.000701
197004:0.000020
197041:-0.000126
197074:-0.000229
197118:-0.000022
197139:-0.000027
197169:0.000458
197239:0.000559
197303:0.000170
197342:0.000523
197343:0.000405
197347:-0.001421
197349:0.000380
197350:0.000389
197363:0.000326
197366:-0.001168
197487:-0.000405
197488:0.000947
197507:-0.001012
197509:-0.000558
197511:-0.000683
197573:0.000075
197606:0.000396
197607:-0.001421
197655:-0.003673
197656:-0.000165
197685:0.000000
197715:0.000608
197728:0.001246
197779:0.000141
197781:-0.000108
197783:-0.000376
197784:0.000323
197785:0.000895
197806:0.000048
197876:-0.000222
197955:0.000151
197957:-0.000229
197958:0.000019
198039:0.000000
198040:0.000168
198043:0.000072
198044:-0.000798
198045:-0.000284
198138:0.000166
198235:-0.000207
198272:0.000070
198273:-0.000514
198309:0.000968
198311:0.001077
198354:-0.001481
198406:-0.000305
198408:0.000394
198409:-0.000045
198410:0.000405
198417:0.000105
198420:0.000013
198434:-0.000436
198459:0.000557
198505:-0.000264
198506:0.000164
198599:-0.000017
198600:0.000405
198601:0.000130
198602:0.000019
198670:-0.000666
198671:0.000405
198682:-0.000494
198692:-0.000078
198779:0.000349
198841:0.000926
198843:-0.000164
198925:0.000670
198938:-0.000144
198939:0.000355
198940:-0.000301
199007:0.000066
199119:0.000476
199155:-0.000054
199157:0.000401
199158:0.000371
199215:0.000462
199286:0.001879
199352:-0.000463
199353:0.000646
199373:-0.000091
199375:0.000295
199428:0.001521
199470:-0.000281
199471:0.000166
199472:-0.000239
199473:-0.000507
199481:0.000308
199585:0.000182
199586:-0.000293
199624:-0.000436
199673:-0.000167
199711:0.000141
199713:0.000175
199714:0.000173
199719:0.000299
199772:-0.000794
199773:-0.000798
199774:0.000559
199818:-0.000141
199819:0.000926
199843:-0.000259
199844:0.001648
199857:-0.000798
199897:0.000500
199905:-0.000083
199940:0.000801
199964:-0.001030
200002:-0.000462
200003:-0.000129
200004:0.000494
200005:-0.000487
200006:0.000097
200048:0.000670
200051:-0.000208
200052:-0.001131
200090:-0.000091
200136:0.000191
200138:0.001549
200238:-0.000036
200239:0.001110
200266:0.000022
200267:0.000131
200268:-0.000000
200269:-0.000284
200270:-0.001051
200273:0.002138
200310:-0.000308
200323:-0.000377
200408:0.000506
200410:0.000138
200411:0.000802
200418:-0.000246
200484:0.000673
200534:0.000124
200535:0.000646
200537:0.000190
200538:0.000166
200584:-0.000507
200585:-0.000017
200756:-0.000554
200757:-0.001823
200758:0.000073
200759:0.000903
200798:0.000038
200799:0.000166
200810:-0.000078
200823:0.000219
200824:0.000818
200907:0.000918
200937:-0.000494
200980:0.000118
201114:-0.000267
201170:0.001089
201330:-0.000044
201343:0.000652
201379:0.000152
201380:-0.000020
201446:0.000534
201503:0.001879
201556:-0.000159
201600:-0.000032
201601:-0.000740
201602:0.000646
201862:-0.000366
201863:0.000646
201874:0.000260
201935:-0.000044
201936:-0.001753
201937:0.000056
201971:0.000922
201972:0.000381
201990:-0.000436
202033:0.000072
202056:-0.000929
202130:-0.000038
202132:-0.000310
202133:0.000323
202134:-0.000032
202394:-0.000186
202395:-0.000436
202407:0.000500
202491:0.000449
202512:0.000196
202567:-0.001274
202588:-0.000401
202591:-0.001279
202620:-0.000029
202662:-0.000051
202663:0.000681
202664:-0.000058
202665:0.001051
202736:-0.000377
202745:-0.000443
202765:0.001963
202839:-0.000081
202840:-0.002204
202969:0.000323
203035:0.000278
203036:-0.003579
203097:0.000947
203194:-0.000096
203196:-0.000236
203197:-0.000638
203198:0.000644
203202:-0.000960
203209:-0.000008
203210:0.000135
203288:0.000608
203383:-0.000131
203521:-0.000006
203726:-0.000431
203727:-0.000683
203729:0.000320
203730:0.000681
203820:0.000380
203835:0.000874
203987:-0.001753
203988:-0.002338
203990:-0.000106
203991:0.000681
204002:0.000014
204053:0.000101
204112:0.001187
204134:0.000300
204154:-0.000929
204161:-0.002204
204220:-0.000849
204258:0.000433
204262:0.000575
204263:0.000147
204321:0.000700
204367:0.000306
204378:-0.000310
204453:-0.000680
204522:0.000143
204523:-0.000442
204535:-0.000006
204686:0.000118
204716:-0.000102
204719:0.000046
204748:-0.000246
204790:0.000430
204794:-0.000683
204851:0.000192
204884:-0.000307
204919:0.000550
204922:0.000153
204985:0.000081
204986:0.000268
205054:0.000457
205055:-0.000683
205066:0.000032
205117:-0.000276
205119:0.001005
205127:0.001521
205218:0.000228
205235:0.000299
205286:0.001240
205292:0.000115
205293:0.000053
205305:-0.000726
205324:0.000093
205325:0.000529
205326:-0.000714
205352:-0.000244
205353:-0.000129
205354:-0.001329
205451:-0.000260
205564:0.000756
205583:0.000449
205585:0.000058
205586:0.000031
205587:-0.000788
205599:0.000259
205739:-0.000199
205780:-0.000320
205783:-0.000849
205812:0.000006
205816:-0.000801
205819:0.001203
205836:0.001107
205837:-0.000283
205839:0.000423
205847:-0.000675
205854:0.000149
205857:0.000240
205985:-0.001258
206010:-0.000402
206011:-0.000335
206015:0.000939
206051:0.000078
206052:0.000791
206118:-0.000093
206128:-0.000473
206240:0.001961
206289:-0.000313
206386:0.000198
206388:-0.000297
206389:-0.000345
206390:-0.000538
206391:0.000895
206452:-0.000401
206508:0.000140
206509:-0.000752
206515:-0.000403
206518:0.000454
206741:0.000130
206803:0.001662
206918:-0.000145
206921:-0.000908
206938:0.000326
206974:-0.000352
207170:0.000925
207304:0.001359
207353:-0.000019
207450:-0.000387
207452:0.000074
207453:0.000462
207454:0.001438
207455:0.000644
207463:0.000874
207522:0.000168
207714:0.000139
207715:0.000506
207755:-0.000514
207821:0.001006
207822:-0.000207
207834:0.001246
207885:-0.003376
207906:-0.000378
207908:0.000061
207911:-0.000847
207922:-0.001948
207982:0.000148
208054:0.000549
208055:0.000192
208093:0.000493
208094:-0.000683
208139:-0.000482
208140:0.002724
208191:-0.000774
208246:-0.000103
208287:0.000358
208288:0.000574
208365:-0.000569
208463:-0.000733
208465:0.000074
208466:0.000462
208467:0.001378
208468:0.000644
208474:0.000349
208514:0.000106
208515:-0.000020
208518:-0.000428
208520:0.000034
208521:0.000874
208634:0.001246
208637:-0.000045
208638:0.000822
208639:-0.000371
208640:-0.000180
208641:0.000500
208707:0.000259
208753:-0.000062
208778:0.000496
208779:-0.000428
208835:0.000802
208919:-0.000352
208940:-0.000045
208972:-0.000065
208973:0.000256
208974:-0.000330
208975:-0.000181
208976:-0.000032
208977:0.000538
209025:-0.000313
209042:-0.001248
209049:-0.000215
209064:0.000334
209076:0.000010
209173:0.000014
209174:0.000326
209258:-0.000022
209259:-0.000497
209310:-0.000214
209432:0.001207
209481:0.001322
209529:0.000059
209531:-0.000288
209532:-0.001480
209578:-0.000201
209580:0.000028
209581:0.000652
209582:-0.001098
209583:0.000020
209639:0.000938
209842:0.001314
209843:-0.001496
210013:0.000534
210040:0.000046
210059:0.000808
210085:-0.000225
210086:-0.000335
210090:0.000939
210105:0.001502
210110:0.000341
210113:-0.000245
210148:-0.000442
210381:-0.000496
210448:0.000173
210496:-0.000495
210545:-0.000430
210546:-0.000075
210547:0.000635
210622:0.001502
210641:-0.000571
210642:0.000694
210643:0.000170
210644:-0.000275
210645:0.000500
210646:0.000145
210720:0.000066
210758:0.000032
210818:0.000066
210894:-0.000524
210895:-0.000391
210896:-0.000737
210899:-0.001657
210991:-0.000022
211077:-0.001199
211079:0.000196
211090:0.000188
211091:0.000536
211092:-0.000285
211093:-0.000326
211166:-0.000443
211170:0.000124
211174:-0.000264
211176:0.000764
211184:0.001521
211197:-0.000063
211198:0.000118
211199:-0.000507
211200:-0.000017
211214:0.000015
211271:-0.000093
211272:0.001069
211438:-0.000172
211439:-0.000330
211440:-0.000214
211441:-0.000032
211442:0.000538
211609:-0.000352
211629:0.000147
211706:0.000876
211707:0.000341
211710:-0.000024
211753:0.000127
211755:0.000072
211756:-0.000036
211904:-0.000160
211913:0.000070
211968:0.000303
211970:-0.000057
211971:-0.000024
212157:0.000808
212234:0.000538
212238:0.001178
212309:0.000103
212311:-0.000219
212312:0.000194
212358:0.000147
212370:0.001187
212502:0.000473
212518:-0.000089
212519:-0.000062
212603:0.000905
212751:0.000449
212752:-0.000335
212772:0.000170
212773:-0.000006
212774:0.000118
212836:0.000080
212858:0.000032
212865:0.000017
212866:0.000166
212867:-0.000166
212868:-0.000507
212876:0.000308
212977:0.000730
212984:0.000166
213034:0.000085
213035:0.000118
213069:0.000531
213075:0.000194
213091:-0.000016
213205:-0.000343
213207:0.001104
213217:-0.000246
213249:0.000118
213302:0.000241
213304:0.000385
213312:-0.000159
213347:0.000550
213388:0.000096
213421:0.000030
213422:0.000394
213423:0.000075
213431:0.001521
213489:0.000245
213498:-0.000100
213499:-0.000024
213518:-0.000167
213521:-0.000019
213522:0.000900
213694:-0.000192
213695:-0.000130
213737:-0.000558
