Version 7.10.1
Min label:-1.000000
Max label:1.000000
bits:18
0 pairs: 
0 triples: 
lda:0
1 ngram: 5 
0 skip: 
options:
:0
1:2.269138
2:3.572032
3:1.128562
4:-0.894497
5:2.666126
6:3.675666
7:0.372198
8:-2.423542
9:0.320811
10:1.026683
11:-1.316034
12:-2.343512
13:0.191987
14:-0.956095
15:-0.937375
16:1.213968
17:0.331792
18:-1.248149
19:-0.703432
20:1.407082
21:0.993047
22:0.922833
23:-0.351798
24:1.270723
25:1.373822
26:0.452096
27:-0.336027
28:3.546454
560:0.042448
639:-0.044742
2214:-0.053852
2688:0.092758
2848:-0.158533
3324:-0.053480
3752:-0.172606
4388:-0.130252
4389:0.048943
4683:-0.085865
5454:0.049667
5802:0.498084
5803:-0.320079
5880:0.207445
5984:-0.004592
5986:-0.068794
5987:0.017972
5995:0.153468
6424:0.088466
6968:0.017972
7022:0.026216
7240:-0.101057
7241:0.169857
7282:-0.065849
7283:0.026216
7512:0.005097
7514:-0.020150
7784:0.047483
7785:0.193418
7787:0.046829
7788:0.134870
7790:0.164884
7826:0.072276
8455:0.018983
8456:-0.008944
8727:0.072970
9150:-0.143345
9410:0.027983
9411:-0.143345
9574:0.022235
9954:0.134870
10214:-0.008944
10474:-0.002961
10475:-0.008944
10746:0.072970
11006:-0.025662
11007:0.072970
11487:-0.072864
11488:0.072970
11489:0.017867
11490:-0.044742
11492:-0.139235
12045:-0.177125
12342:0.169857
12575:-0.030826
12602:-0.095424
12603:0.169857
12771:-0.032770
12874:0.005097
13134:0.011616
13135:0.005097
13146:-0.122808
13405:0.118577
13618:-0.111857
13666:-0.076052
13890:-0.005483
13938:-0.040158
14164:-0.100715
14198:-0.102832
14199:-0.040158
14207:0.093171
15207:0.167333
15806:0.079330
16066:0.022729
16273:-0.020150
16326:0.082765
16327:0.022729
17130:-0.018819
17390:-0.105775
17391:-0.018819
17934:-0.066563
18106:-0.133621
18194:0.473479
18235:0.153468
18466:-0.132353
18467:-0.111920
18469:-0.123605
18471:-0.053480
18742:-0.099115
19225:-0.141593
19251:0.005097
20317:0.010788
22332:0.164884
22491:0.017972
23023:-0.067882
23330:0.068042
23529:-0.098744
23530:-0.005118
23534:-0.014524
23801:-0.130169
24721:0.092758
24889:0.113445
25161:-0.014524
25705:0.046829
26249:-0.143345
26521:0.006931
26830:-0.143345
27677:-0.112390
29512:-0.030826
30148:0.026850
30287:0.095384
30874:0.046829
31461:-0.320079
32265:0.088466
32415:0.153468
33310:0.095579
33479:-0.064767
34646:0.008224
34647:-0.026948
35117:0.026216
35571:0.023267
35572:-0.061032
35574:-0.112390
35577:-0.029555
35578:0.092758
35579:-0.120253
35582:-0.064767
35584:0.131890
35607:-0.141593
35765:0.022729
35843:-0.100715
36387:0.062360
36388:0.016153
36659:-0.112902
36660:-0.040158
36671:-0.220134
36931:0.016153
37203:-0.040054
37204:-0.020150
37206:-0.032770
37211:-0.039233
37214:0.095384
37245:-0.143345
38309:-0.008944
38311:0.095579
38420:0.084123
38841:0.072970
39054:0.067182
39530:-0.014524
39809:0.075816
39958:0.042448
40437:0.169857
40439:0.084123
40969:0.005097
41503:-0.045649
42033:-0.040158
42035:0.010788
42190:0.477911
42192:0.033793
42193:0.064632
42266:-0.064767
42565:0.016153
43581:0.037407
43582:-0.017122
43586:-0.053480
43631:-0.053852
44161:0.022729
44163:-0.055598
44661:-0.075638
44662:0.026216
44693:0.049667
44695:-0.017122
45144:0.117308
45205:0.072276
45225:-0.018819
45227:-0.235564
45757:-0.005580
45780:-0.029485
46292:0.473479
47057:-0.093296
47058:0.026216
47355:-0.038134
47613:0.087657
47614:-0.111857
47615:-0.116759
47616:-0.130271
47618:-0.100715
47623:-0.130169
47625:-0.272020
47885:0.092823
47888:0.075816
47896:-0.141593
48251:-0.139235
49824:-0.126762
50368:0.080563
50370:-0.054231
51413:0.008999
52479:0.032269
53064:-0.017122
53596:-0.080910
53597:-0.040158
54036:-0.172606
54308:-0.029555
55124:-0.032770
55396:-0.004340
55397:-0.008944
55426:0.072276
55431:0.153468
55668:0.072970
55940:0.016625
55941:-0.037564
55943:-0.099115
55944:0.072276
55946:0.093171
56122:-0.053480
57186:0.064276
57554:0.134870
57912:0.046626
57913:0.010788
57918:0.023949
57919:0.042448
57920:0.067182
57925:0.075720
58697:0.064632
59099:0.170344
59100:-0.000439
59107:0.204459
59229:0.018661
59230:-0.037564
60348:-0.053852
60746:-0.122808
60772:0.067182
61414:-0.098577
62900:-0.082372
63406:0.079330
63883:-0.032770
63908:-0.130169
63964:-0.158533
65534:-0.066563
65718:0.123843
65806:0.075816
66092:-0.280359
66350:-0.061032
66622:-0.021261
66624:-0.000771
66625:-0.029485
66626:-0.122808
66627:0.115526
66628:0.113445
66632:0.118577
66634:0.195739
67632:-0.036083
67633:-0.126762
68164:0.134504
68172:-0.040427
70852:0.026207
70853:0.354147
71141:0.000468
71142:0.144334
71143:-0.018896
71144:0.020767
71146:0.132973
71147:-0.031310
71151:-0.133621
71153:0.123843
71413:-0.272020
71699:-0.055758
71700:0.169857
71971:0.005097
72243:-0.122808
72877:-0.064767
73045:-0.031310
73861:-0.099115
74405:0.026216
74677:-0.024230
75736:0.068042
76015:0.017972
78396:0.048475
78398:-0.003350
78399:-0.019874
78401:0.062688
79517:-0.041201
79787:-0.079013
79788:-0.045649
79792:-0.014524
80415:-0.143004
81350:0.118577
81963:0.016153
81986:0.046829
83105:0.079330
83183:0.022930
83184:-0.041201
83185:-0.086494
83186:0.017972
83191:0.251119
83194:0.153468
83561:-0.055598
83609:-0.172606
83999:-0.053480
84139:-0.000486
84543:-0.029485
84671:0.088466
85087:0.144334
85203:0.079330
85359:-0.089225
85361:0.027869
85362:-0.044742
85364:-0.139235
85389:0.032269
86465:0.068042
86574:0.129255
86576:0.026850
86801:-0.018819
87331:0.155457
87333:-0.128025
87334:-0.113220
87336:-0.054231
87337:-0.003069
87341:-0.032050
87343:-0.030826
87517:-0.085865
88581:-0.020150
88593:0.129255
88595:0.026850
89113:0.048943
89270:-0.045649
89657:-0.014524
89802:-0.020441
89803:0.072970
89878:0.131890
90709:-0.041201
90723:0.115526
90921:0.075816
91241:-0.126762
91785:0.080563
91787:-0.054231
92305:-0.098577
92328:-0.014524
92577:0.016153
92756:0.147466
92849:-0.053480
93381:0.088466
93392:0.115526
93915:0.064276
94433:-0.111857
94669:0.018438
94670:0.110154
94705:0.049667
94720:0.095384
94903:-0.019874
94979:-0.100715
95225:0.005793
95226:-0.041371
95227:0.073962
95228:0.022235
95230:0.064276
95232:-0.042232
95235:0.117308
95237:0.147466
95435:0.070181
95436:0.110154
95497:-0.115884
95498:-0.018819
95509:0.316788
95769:-0.005580
95772:-0.111560
96041:-0.039632
96042:-0.055598
96044:-0.112390
96047:-0.029555
96048:0.092758
96049:-0.120253
96052:-0.064767
96054:0.131890
96554:0.084123
96848:0.153468
97620:0.048943
97890:0.251362
97891:0.052268
97912:-0.064767
100040:-0.141593
100114:-0.032050
101104:-0.220134
101920:-0.082372
102298:-0.082372
102464:0.023949
102774:0.080563
103038:0.093171
103202:0.092758
103280:-0.044742
103824:0.008999
103838:-0.113220
104370:0.040126
104371:-0.020150
104378:-0.039233
105166:0.164884
105436:0.002641
105437:0.064743
105439:-0.177125
106230:-0.031310
106711:0.047419
106712:0.008999
106713:0.012719
106714:-0.019874
106716:0.062688
107826:0.023949
107905:0.016711
107906:-0.143345
108358:0.113445
108449:0.134870
109024:0.035769
109025:0.175193
109083:0.095384
109422:-0.003069
109840:-0.000486
109954:-0.029555
111018:-0.000486
112221:0.064632
112420:-0.036167
113146:0.011283
113614:0.064276
113690:0.079330
113962:-0.112390
114180:-0.100715
114234:-0.076052
114288:0.085546
114289:-0.036167
114506:0.008231
114548:0.008999
114602:0.000653
114778:0.121424
114779:0.084123
114780:-0.021297
114781:0.020767
114783:0.132973
114784:-0.031310
114788:-0.133621
114790:0.123843
115461:-0.020150
115612:-0.026948
115614:0.032269
115723:-0.085865
115993:-0.138960
115994:0.095579
115998:0.068042
116060:-0.339853
116144:0.095579
116416:0.025016
116417:0.008999
116621:0.075720
116840:0.087503
116841:0.022729
117480:0.006814
117481:-0.026948
117740:0.167333
117742:-0.085865
118012:-0.136495
118013:0.095579
118017:0.068042
118272:0.084123
118753:0.064066
118754:0.193418
118756:0.046829
118757:0.134870
118759:0.164884
118806:-0.020150
119336:-0.045649
119338:0.048943
119608:0.231066
119609:0.167333
119815:0.042448
119868:0.010788
120113:0.118577
120140:0.160652
120141:0.084123
120145:0.129255
120345:0.023949
120672:-0.072260
120934:-0.041201
121156:0.190083
121157:-0.055598
121162:-0.029555
121163:0.092758
121164:-0.082372
121169:0.131890
121204:-0.089103
121205:-0.045649
121209:-0.014524
121464:-0.053852
121466:-0.126762
121941:0.064743
121996:-0.055598
122473:0.259062
122474:0.193418
122528:-0.017122
122530:-0.098577
123007:-0.040158
123060:-0.235564
123332:-0.061304
123333:-0.053852
123337:0.080563
123537:0.055426
123539:0.202737
123540:0.020767
123542:0.026850
123543:-0.031310
123547:-0.133621
123549:0.123843
123595:-0.111560
124396:0.027060
124397:-0.017122
124401:-0.053480
124658:-0.111857
125188:-0.038134
125460:0.647207
125461:-0.111560
125462:0.077366
125463:0.022235
125465:0.064276
125470:0.117308
125472:0.147466
125476:0.095579
127127:0.017972
128534:0.068042
128577:-0.143004
128962:0.195739
130687:-0.158533
130795:0.285193
130796:0.008231
130797:-0.030036
130798:0.064743
130800:-0.177125
130801:0.023949
130802:0.042448
130803:0.067182
130808:0.075720
131883:-0.003069
132155:0.115526
132699:0.020767
133243:0.094396
133515:0.029980
133516:0.008999
133517:0.014480
133518:-0.019874
133520:0.062688
134096:-0.010487
134097:1.467533
134411:-0.235564
136121:-0.141593
136320:-0.133621
136804:-0.008944
138034:0.075720
138727:0.498084
138980:0.129255
139893:-0.130169
140044:0.020767
140576:0.197381
140577:0.032269
140584:0.204459
141640:-0.109849
141642:0.025600
141643:-0.044742
141645:-0.139235
142837:-0.062557
142838:-0.022655
142840:-0.135200
142842:-0.053480
143031:-0.057819
143032:-0.053852
143036:0.080563
143381:0.022235
143396:0.075720
143659:0.324418
143925:-0.053852
143927:-0.126762
144197:0.068230
144198:0.010788
144199:-0.023968
144200:0.064743
144202:-0.177125
144203:0.023949
144204:0.042448
144205:0.067182
144210:0.075720
144723:-0.220134
145207:0.049667
145524:0.131890
145739:-0.018819
146046:0.023949
146588:-0.143004
146853:0.207445
147224:0.023949
147383:0.011283
147915:0.316788
148427:-0.019874
148447:-0.066563
148716:0.324418
148820:-0.003069
148979:-0.117785
149820:0.115526
150076:0.067182
150386:-0.054231
150577:-0.036443
150578:0.022235
150580:0.064276
150585:0.117308
150587:0.147466
150892:-0.139235
151436:-0.019874
151667:1.162933
151668:-0.870181
151980:-0.036167
152514:-0.053852
153046:0.023753
153047:0.005097
154323:0.016639
154879:-0.135405
154880:-0.038134
154882:-0.117785
154883:-0.066563
154884:0.316788
154885:0.011283
154886:0.207445
154887:-0.280359
154890:-0.220134
154892:0.324418
155438:0.067182
155572:0.080563
157362:-0.113220
157566:-0.082372
158147:-0.044742
158630:-0.158533
158679:-0.023531
158680:0.247037
159213:0.072970
159266:0.010788
159743:0.007155
159746:-0.099115
159747:0.072276
159749:0.093171
160602:-0.098577
160758:-0.280359
160864:-0.126762
161302:-0.000486
162118:0.064743
162160:-0.019874
162662:0.167333
162664:-0.085865
162692:-0.099115
162934:-0.145122
162935:0.095579
162939:0.068042
163333:0.064632
163358:0.117308
164288:-0.044742
164783:0.075720
164820:0.046829
164908:-0.017122
164956:-0.042232
165352:0.064632
165884:0.020767
166365:-0.147472
166366:0.094396
166370:0.068042
166416:-0.032770
166893:0.067182
167082:0.022235
167377:-0.020150
167480:0.064743
167614:-0.123398
167615:-0.041201
167622:0.251119
167725:0.195739
167764:0.023949
168012:-0.029485
168148:-0.005580
168269:-0.133621
168544:0.017972
168678:-0.146416
168681:-0.112390
168689:-0.064767
169076:-0.113220
169608:-0.112390
169892:-0.029555
170140:0.052504
170141:0.175193
170617:0.010788
170956:-0.000486
171204:0.022235
171736:0.075816
172268:0.179744
172269:-0.005483
172327:0.153468
172800:-0.117785
173010:0.026216
173084:0.011283
173344:-0.236707
173616:-0.075969
173617:-0.097340
173618:-0.103857
173619:-0.113220
173620:0.072276
173621:0.052193
173622:-0.003069
173626:-0.032050
173628:-0.030826
175465:0.064743
175718:0.072276
176099:-0.032050
176250:-0.099115
177846:-0.012566
178407:-0.040176
178408:-0.027186
178410:-0.032770
178415:-0.039233
178418:0.095384
178705:-0.167569
178706:0.492164
178951:0.117308
179237:0.167944
179238:0.084123
179242:0.129255
179865:0.131890
180311:0.132973
180583:0.134870
180929:-0.064767
181671:0.059521
181672:-0.036167
181945:-0.040158
182794:0.075720
183059:0.092758
183589:-0.029555
185026:-0.031310
185185:-0.112390
186251:0.022729
186501:0.075720
186592:0.026850
186781:-0.019317
186783:-0.131239
186784:-0.029485
186785:-0.122808
186786:0.115526
186787:0.113445
186791:0.118577
186793:0.195739
187415:-0.172606
188629:0.131890
188720:0.084123
189524:-0.008944
189693:-0.143004
189839:0.473479
190449:0.019968
190450:-0.097340
190451:-0.113921
190452:-0.113220
190454:0.052193
190455:-0.003069
190459:-0.032050
190461:-0.030826
190993:0.064276
191537:-0.113220
191778:0.129255
191809:0.004380
191810:0.005097
191821:0.324418
191863:-0.019874
192081:-0.045649
192083:0.048943
192353:0.042996
192354:0.058993
192355:-0.004320
192356:0.064632
192361:0.199373
192395:-0.099115
193568:0.020767
193931:-0.280359
193991:-0.044742
194523:0.046829
194836:0.067182
195055:0.064632
195587:0.020767
196119:-0.032770
196808:0.048943
196872:-0.143004
197183:0.064743
197416:0.153468
197655:-0.038134
197715:-0.029485
198247:0.017972
198459:-0.018819
198779:-0.113220
199048:0.062688
199311:-0.112390
199539:-0.019874
199564:0.118577
199843:0.056623
199844:0.010788
199849:0.023949
199850:0.042448
199851:0.067182
199856:0.075720
200048:0.169857
200658:-0.122808
200907:0.022235
201114:-0.045649
201439:0.075816
201454:-0.133621
201935:0.032262
201936:-0.036167
201971:0.010581
201972:-0.055598
201977:-0.029555
201978:0.092758
201979:-0.082372
201984:0.131890
202491:0.265378
202492:0.473479
202494:0.075816
202502:-0.141593
202503:-0.117785
202756:-0.122808
202765:-0.111857
203035:-0.176982
203036:-0.235564
203039:0.079330
203040:0.088466
203041:-0.000486
203042:-0.172606
203043:-0.158533
203048:-0.143004
203288:-0.029485
203582:0.118577
203583:0.032269
203820:-0.148899
203821:-0.085865
203828:0.199373
204354:0.016153
204646:-0.032050
204884:-0.111687
204887:-0.032770
204895:0.095384
206774:0.117308
207838:-0.130169
208474:-0.113220
208914:-0.158533
209186:0.092758
209290:-0.029555
209730:-0.177125
209772:0.062688
210274:0.064632
210468:-0.029555
210546:0.017851
210547:-0.143345
210818:-0.026948
210820:0.032269
211090:-0.002163
211091:0.247037
211368:0.068042
211671:-0.044742
211900:-0.139235
212305:-0.133621
212518:-0.098577
212790:0.175193
213062:-0.053480
213496:0.132973
213630:0.064276
213977:0.034561
213978:-0.160000
213980:-0.099115
213981:0.072276
213983:0.093171
214107:-0.026948
214324:-0.133621
214560:-0.014524
214911:0.496903
214912:-0.916822
215092:-0.177125
215624:0.115526
215881:0.123843
216452:0.118577
216688:0.052193
216834:0.079330
217135:0.095384
217516:-0.032050
217752:-0.053480
218125:-0.064767
218151:0.072970
218284:0.088466
218816:0.064276
219154:-0.025095
219644:0.117308
219686:0.044410
219687:0.110154
219880:-0.100715
220412:0.316788
220606:0.022235
220708:-0.130169
221232:0.093171
221282:0.010066
221391:-0.032770
221502:-0.041201
221772:0.125370
221773:-0.005118
221777:-0.014524
221814:-0.024843
221815:0.247037
222346:0.053535
222348:0.004788
222349:-0.019874
222351:0.062688
222457:0.005097
222510:-0.055598
222878:0.005972
222879:-0.037564
222881:-0.099115
222882:0.072276
222884:0.093171
222987:-0.170478
222990:0.046829
222991:0.134870
222993:0.164884
223042:-0.017122
223410:0.184916
223411:0.032269
223418:0.204459
223621:0.042448
223846:-0.111857
224474:-0.101307
224476:0.018287
224477:-0.044742
224479:-0.139235
225006:0.047730
225007:0.193418
225009:0.046829
225010:0.134870
225012:0.164884
225538:-0.132323
225539:-0.085865
225540:0.017585
225541:0.064632
225546:0.199373
225730:0.026216
226019:0.032924
226020:0.058993
226021:-0.005700
226022:0.064632
226027:0.199373
226070:0.023697
226072:-0.015974
226073:0.020767
226075:0.026850
226076:-0.031310
226080:-0.133621
226082:0.123843
226563:0.147466
226577:0.064743
226602:0.187387
226603:-0.020150
226605:-0.032770
226610:-0.039233
226613:0.095384
227107:-0.032050
227134:-0.118521
227135:0.048943
227668:0.006479
227669:0.064743
227671:-0.177125
228027:0.131890
228195:0.164884
228198:-0.025306
228200:0.011252
228201:-0.029485
228202:-0.122808
228203:0.115526
228204:0.113445
228208:0.118577
228210:0.195739
228467:0.068042
228730:-0.070617
228731:-0.041201
228732:-0.069725
228733:0.017972
228738:0.251119
228739:0.072276
228741:0.153468
229262:-0.054771
229263:-0.126762
229264:-0.081914
229265:-0.113220
229267:-0.054231
229268:-0.003069
229272:-0.032050
229274:-0.030826
229774:-0.099115
229794:-0.078631
229797:-0.112390
229802:-0.040427
229805:-0.064767
230137:-0.082372
230326:-0.157283
230327:-0.098577
230329:-0.140120
230621:-0.041201
230858:0.427532
230862:0.079330
230863:0.088466
231392:0.081955
231393:0.022235
231395:0.064276
231400:0.117308
231402:0.147466
231922:-0.024807
231925:0.075816
231933:-0.141593
232454:-0.029273
232455:-0.111857
232456:-0.106627
232457:0.037183
232459:-0.100715
232464:-0.130169
232466:-0.272020
233861:-0.055598
234393:-0.059060
234665:-0.040158
236254:-0.143345
236864:0.134870
237320:0.095579
237983:0.088466
238061:0.010246
238062:0.016153
238063:-0.007909
238064:-0.029485
238065:-0.122808
238066:0.115526
238067:0.113445
238071:0.118577
238073:0.195739
238605:-0.042232
238709:-0.112390
238962:0.134870
239149:0.052193
239343:0.117308
239421:-0.122808
239494:0.046829
239965:-0.023216
239966:0.072970
240509:0.161353
240510:-0.000439
240517:0.204459
244044:-0.032050
244173:-0.141593
244680:0.020767
245189:0.022729
245339:0.042448
245572:0.095384
246038:0.131890
246255:-0.235564
247151:0.062688
247467:0.092758
248247:0.498084
248248:-0.320079
248270:0.113445
248429:0.075816
248531:-0.172606
248724:0.048943
249063:-0.042232
249066:0.123843
249268:-0.014524
249547:-0.026189
249836:0.115526
250028:0.067754
250103:-0.202887
250104:-0.236707
250107:0.079330
250108:0.088466
250109:-0.000486
250110:-0.172606
250111:-0.158533
250116:-0.143004
250313:-0.036167
250375:0.001411
250376:0.049667
250647:0.079319
250648:0.022729
250659:0.207445
250919:0.029563
250921:-0.098577
251191:0.029238
251192:-0.041201
251193:-0.086494
251194:0.069780
251199:0.251119
251202:0.153468
252258:-0.030826
252768:0.169857
254331:0.095384
254386:0.147466
255450:-0.272020
256086:-0.054231
256254:-0.141593
256812:-0.029485
257342:0.042448
258080:-0.082372
258702:-0.067491
258703:0.026216
259246:0.017597
259247:0.110154
259248:-0.045649
260052:-0.126762
260584:-0.072260
261589:-0.005263
261590:0.247037
