Version 7.10.1
Min label:-0.138000
Max label:1.000000
bits:18
0 pairs: 
0 triples: 
lda:0
1 ngram: 5 
0 skip: 
options:
:0
1:-0.005364
2:-0.002556
3:0.062583
4:0.015045
5:0.050916
6:0.154534
7:0.042061
8:-0.021289
9:0.025018
10:0.047953
11:-0.049889
12:-0.042788
13:0.005661
14:0.003693
15:0.013475
16:0.028106
17:0.052214
18:0.035215
19:-0.016048
20:0.044977
21:0.004777
22:0.001053
23:-0.066639
24:0.038865
25:0.072887
26:0.074929
27:0.016999
28:0.083420
560:-0.000403
639:0.001015
2214:-0.004123
2688:0.000474
2848:-0.009941
3324:-0.001985
3752:-0.004683
4388:-0.016618
4389:-0.000580
4683:-0.007144
5454:-0.000207
5802:0.015366
5803:-0.016510
5880:-0.000226
5984:0.034211
5986:0.005512
5987:0.001779
5989:0.002877
5995:0.009720
6424:-0.001467
6968:0.001779
7022:0.000828
7240:-0.001672
7241:0.004021
7282:-0.006670
7283:0.000828
7512:-0.000699
7514:-0.000577
7784:0.003550
7785:0.000790
7787:0.002552
7788:0.006998
7790:0.008354
7826:0.000951
8455:-0.005032
8456:0.000864
8727:-0.000802
8999:-0.007528
9150:-0.000951
9410:0.006923
9411:-0.000951
9574:-0.003142
9954:0.006998
10214:0.000864
10474:-0.006704
10475:0.000864
10746:-0.000802
11006:-0.010534
11007:-0.000802
11018:-0.007528
11487:-0.006164
11488:-0.000802
11489:-0.003157
11490:0.001015
11492:-0.003616
12045:-0.002604
12342:0.004021
12575:-0.025152
12602:-0.001703
12603:0.004021
12771:-0.004019
12874:-0.001299
13134:-0.001649
13135:-0.001299
13146:-0.001157
13405:0.001691
13406:-0.002499
13618:0.000709
13666:-0.002248
13667:-0.002499
13890:-0.019567
13938:-0.002420
14164:-0.003603
14198:-0.025921
14199:-0.002420
14207:0.001681
14210:-0.002940
15207:0.009259
15806:-0.001055
16066:-0.002950
16273:-0.000577
16326:0.005518
16327:-0.002950
17130:-0.002471
17390:0.004991
17391:-0.002471
17934:-0.014906
18106:-0.012232
18194:0.023275
18235:0.009720
18466:0.011762
18467:-0.003748
18469:0.008408
18471:-0.001985
18742:-0.001526
19225:0.002135
19251:-0.001299
20317:0.001598
22332:0.008354
22491:0.001779
23023:-0.018857
23024:0.004797
23330:0.004610
23529:0.006248
23530:0.003288
23534:0.004939
23801:-0.004737
24721:0.000474
24889:0.004411
25161:0.004939
25433:-0.007528
25705:0.002552
26249:-0.000951
26521:-0.002584
26830:-0.000951
27677:-0.015728
29512:-0.025152
30148:-0.007175
30287:-0.002897
30874:0.002552
31461:-0.016510
32265:-0.001467
32415:0.009720
33310:0.002661
33479:-0.004866
34646:-0.009724
34647:0.010950
35117:0.000828
35571:0.013464
35572:-0.000444
35574:-0.015728
35577:-0.007204
35578:0.000474
35579:-0.009808
35582:-0.004866
35584:0.002485
35607:0.002135
35765:-0.002950
35843:-0.003603
36387:0.003051
36388:0.001991
36659:-0.026449
36660:-0.002420
36671:0.009845
36931:0.001991
37203:0.006904
37204:0.002494
37206:-0.004019
37211:0.018431
37214:-0.002897
37245:-0.000951
38309:0.000864
38311:0.002661
38420:-0.000302
38841:-0.000802
39054:0.005022
39530:0.004939
39809:-0.000497
39958:-0.000403
40437:0.004021
40439:-0.000302
40969:-0.001299
41501:-0.002499
41503:0.004392
42033:-0.002420
42035:0.001598
42190:0.023505
42192:0.008611
42193:-0.001437
42195:-0.000033
42266:-0.004866
42565:0.001991
43581:0.003254
43582:-0.000344
43586:-0.001985
43631:-0.004123
44161:-0.002950
44163:-0.004150
44661:-0.007574
44662:0.000828
44693:-0.000207
44695:-0.000344
45144:0.006650
45205:0.000951
45225:-0.002471
45227:0.001930
45757:0.010675
45780:-0.005789
46292:0.023275
47057:-0.006026
47058:0.000828
47355:0.006564
47613:0.007755
47614:0.000709
47615:-0.013685
47616:-0.006517
47618:-0.003603
47623:-0.004737
47625:-0.014466
47885:0.007499
47888:-0.000497
47896:0.002135
48251:-0.003616
49824:-0.003813
50368:0.006366
50370:-0.013844
51413:0.000566
52479:0.004074
53064:-0.000344
53596:-0.025594
53597:-0.002420
54036:-0.004683
54308:-0.007204
54580:0.002877
55124:-0.004019
55396:-0.007268
55397:0.000864
55426:0.000951
55431:0.009720
55668:-0.000802
55940:-0.006307
55941:0.006507
55943:-0.001526
55944:0.000951
55946:0.001681
56122:-0.001985
57186:0.004102
57554:0.006998
57912:0.002550
57913:0.001598
57918:-0.001167
57919:-0.000403
57920:0.005022
57925:0.003470
58618:-0.007528
58697:-0.001437
59099:0.007826
59100:-0.001540
59107:0.009559
59229:0.012454
59230:0.006507
60348:-0.004123
60746:-0.001157
60772:0.005022
61414:-0.004951
61810:-0.002940
62900:-0.006049
63406:-0.001055
63883:-0.004019
63908:-0.004737
63964:-0.009941
65534:-0.014906
65718:0.000244
65806:-0.000497
66092:-0.025511
66350:-0.000468
66352:0.000401
66622:-0.000962
66624:-0.002147
66625:-0.005789
66626:-0.001157
66627:-0.006579
66628:0.004411
66632:0.001691
66634:-0.005573
67632:-0.039593
67633:-0.003813
68164:-0.026624
68165:0.000401
68172:-0.001898
70852:0.004086
70853:0.027120
71141:-0.000112
71142:0.006752
71143:-0.010733
71144:-0.006882
71145:-0.007528
71146:0.001485
71147:0.000221
71151:-0.012232
71153:0.000244
71413:-0.014466
71699:0.000675
71700:0.004021
71971:-0.001299
72243:-0.001157
72877:-0.004866
73045:0.000221
73861:-0.001526
74405:0.000828
74677:-0.002253
75736:0.004610
76015:0.001779
78396:-0.002683
78398:0.008484
78399:0.002466
78401:0.005359
79255:0.002879
79256:-0.015465
79517:0.000670
79787:-0.014161
79788:0.004392
79792:0.004939
80415:-0.003203
81350:0.001691
81963:0.001991
81986:0.002552
83105:-0.001055
83183:0.031310
83184:0.000670
83185:0.003319
83186:0.001779
83188:0.002877
83191:0.011406
83194:0.009720
83561:-0.004150
83609:-0.004683
83999:-0.001985
84139:-0.002253
84271:-0.002940
84543:-0.005789
84671:-0.001467
85087:0.005161
85203:-0.001055
85359:-0.000352
85361:-0.001485
85362:0.001015
85364:-0.003616
85389:0.004074
86465:0.004610
86574:0.007245
86576:-0.007175
86801:-0.002471
87331:0.005681
87333:-0.031575
87334:-0.013126
87335:-0.002940
87336:-0.013844
87337:0.000913
87341:-0.016449
87343:-0.025152
87517:-0.007144
88581:-0.000577
88593:0.007245
88595:-0.007175
89113:-0.000580
89270:0.004392
89657:0.004939
89802:-0.009616
89803:-0.000802
89878:0.002485
90709:0.000670
90723:-0.006579
90921:-0.000497
91241:-0.003813
91773:0.000401
91785:0.006366
91787:-0.013844
92305:-0.004951
92328:0.004939
92577:0.001991
92756:0.007816
92849:-0.001985
93381:-0.001467
93392:-0.006579
93915:0.004102
94433:0.000709
94669:0.000507
94670:0.002795
94705:-0.000207
94720:-0.002897
94903:0.002466
94979:-0.003603
95225:0.008158
95226:0.013707
95227:0.008515
95228:-0.003142
95230:0.004102
95232:0.004705
95235:0.006650
95237:0.007816
95435:0.002636
95436:0.002795
95497:-0.012625
95498:-0.002471
95509:0.010045
95769:0.010675
95772:0.008219
96041:0.012042
96042:-0.003708
96044:-0.015728
96047:-0.007204
96048:0.000474
96049:-0.009808
96052:-0.004866
96054:0.002485
96554:-0.000302
96848:0.009720
97620:-0.000580
97890:0.014551
97891:0.006940
97912:-0.004866
100040:0.002135
100114:-0.016449
100598:-0.002499
101104:0.009845
101208:-0.002940
101920:-0.006049
102298:-0.006049
102464:-0.001167
102774:0.006366
103038:0.001681
103202:0.000474
103280:0.001015
103306:-0.002940
103824:0.000566
103838:-0.013126
104370:-0.017222
104371:-0.000577
104378:0.018431
105166:0.008354
105436:-0.003295
105437:0.001639
105439:-0.002604
106230:0.000221
106711:0.002854
106712:0.000566
106713:0.009078
106714:0.002466
106716:0.005359
107826:-0.001167
107905:0.007979
107906:-0.000951
108358:0.004411
108449:0.006998
109024:-0.000059
109025:0.004499
109083:-0.002897
109422:0.000913
109840:-0.002253
109954:-0.007204
111018:-0.002253
112221:-0.001437
112420:-0.002525
113146:-0.007476
113614:0.004102
113690:-0.001055
113962:-0.015728
114180:-0.003603
114234:-0.002222
114235:-0.002499
114288:0.006918
114289:-0.002525
114506:-0.005368
114548:0.000566
114602:-0.000174
114778:0.003219
114779:0.000604
114780:-0.011233
114781:-0.006882
114782:-0.007528
114783:0.001485
114784:0.000221
114788:-0.012232
114790:0.000244
115461:0.014089
115462:0.004627
115612:-0.003910
115614:0.004074
115723:-0.007144
115993:-0.006054
115994:0.002661
115998:0.004610
116060:0.019021
116144:0.002661
116416:0.006413
116417:0.000566
116621:0.003470
116840:0.004740
116841:-0.002950
117480:-0.008205
117481:-0.003910
117740:0.009259
117742:-0.007144
118012:-0.005553
118013:0.002661
118017:0.004610
118272:-0.000302
118753:0.004162
118754:0.000790
118756:0.002552
118757:0.006998
118759:0.008354
118804:0.002650
118806:-0.000577
119336:0.004392
119338:-0.000580
119608:0.014407
119609:0.009259
119815:-0.000403
119868:0.001598
120113:0.001691
120140:0.012031
120141:-0.000302
120145:0.007245
120345:-0.001167
120672:0.000642
120673:0.002650
120934:0.000670
121156:0.009778
121157:-0.004150
121162:-0.007204
121163:0.000474
121164:-0.006049
121169:0.002485
121204:-0.014745
121205:0.004392
121209:0.004939
121464:-0.004123
121466:-0.003813
121941:0.001639
121996:-0.004150
121998:0.000401
122473:0.004918
122474:0.000790
122528:-0.000344
122530:-0.004951
123007:-0.002420
123060:0.001930
123332:-0.004611
123333:-0.004123
123337:0.006366
123537:0.019979
123539:-0.001175
123540:-0.006882
123541:-0.007528
123542:-0.007175
123543:0.000221
123547:-0.012232
123549:0.000244
123595:0.008219
124396:-0.014582
124397:-0.000344
124401:-0.001985
124658:0.000709
125188:0.006564
125460:0.086227
125461:0.008219
125462:0.007327
125463:-0.003142
125465:0.004102
125470:0.006650
125472:0.007816
125476:0.002661
127127:0.001779
128534:0.004610
128577:-0.003203
128962:-0.005573
130687:-0.009941
130795:0.026063
130796:-0.005368
130797:-0.002117
130798:0.001639
130800:-0.002604
130801:-0.001167
130802:-0.000403
130803:0.005022
130808:0.003470
131171:0.000401
131883:0.000913
132155:-0.006579
132699:-0.006882
133243:0.003686
133515:0.002962
133516:0.000566
133517:0.008536
133518:0.002466
133520:0.005359
134096:0.002102
134097:0.043735
134411:0.001930
136121:0.002135
136320:-0.012232
136804:0.000864
137414:-0.007528
138034:0.003470
138727:0.015366
138980:0.007245
139512:-0.007528
139893:-0.004737
140044:-0.006882
140576:0.021989
140577:0.004074
140584:0.009559
141640:-0.004396
141642:-0.000005
141643:0.001015
141645:-0.003616
142837:0.014236
142838:0.000286
142840:0.008860
142842:-0.001985
143031:-0.005824
143032:-0.004123
143036:0.006366
143381:-0.003142
143396:0.003470
143659:0.013057
143925:-0.004123
143927:-0.003813
144197:0.004300
144198:0.001598
144199:-0.002148
144200:0.001639
144202:-0.002604
144203:-0.001167
144204:-0.000403
144205:0.005022
144210:0.003470
144723:0.009845
145207:-0.000207
145524:0.002485
145739:-0.002471
146046:-0.001167
146588:-0.003203
146853:-0.000226
147224:-0.001167
147383:-0.007476
147915:0.010045
148427:0.002466
148447:-0.014906
148716:0.013057
148820:0.000913
148979:-0.009651
149820:-0.006579
150076:0.005022
150386:-0.013844
150577:0.002184
150578:-0.003142
150580:0.004102
150585:0.006650
150587:0.007816
150892:-0.003616
151436:0.002466
151667:0.030220
151668:-0.027862
151980:-0.002525
152514:-0.004123
153046:-0.000403
153047:-0.001299
153318:-0.002499
154323:-0.002105
154879:-0.005814
154880:0.006564
154882:-0.009651
154883:-0.014906
154884:0.010045
154885:-0.007476
154886:-0.000226
154887:-0.025511
154890:0.009845
154892:0.013057
155438:0.005022
155572:0.006366
157362:-0.013126
157566:-0.006049
158147:0.001015
158630:-0.009941
158679:0.000073
158680:0.007041
159213:-0.000802
159266:0.001598
159743:-0.018043
159746:-0.001526
159747:0.000951
159749:0.001681
160602:-0.004951
160758:-0.025511
160864:-0.003813
161302:-0.002253
162118:0.001639
162160:0.002466
162662:0.009259
162664:-0.007144
162692:-0.001526
162934:-0.006154
162935:0.002661
162939:0.004610
163333:-0.001437
163358:0.006650
164288:0.001015
164783:0.003470
164820:0.002552
164908:-0.000344
164956:0.004705
165352:-0.001437
165884:-0.006882
166365:-0.010252
166366:0.003686
166370:0.004610
166416:-0.004019
166893:0.005022
167082:-0.003142
167377:-0.000577
167480:0.001639
167614:-0.050163
167615:0.000670
167622:0.011406
167725:-0.005573
167764:-0.001167
168012:-0.005789
168148:0.010675
168269:-0.012232
168544:0.001779
168678:0.034158
168681:-0.015728
168689:-0.004866
169076:-0.013126
169608:-0.015728
169892:-0.007204
170140:0.002137
170141:0.004499
170617:0.001598
170956:-0.002253
171204:-0.003142
171736:-0.000497
172268:0.005585
172269:-0.019567
172327:0.009720
172800:-0.009651
173010:0.000828
173084:-0.007476
173344:-0.005254
173616:-0.023069
173617:-0.004424
173618:-0.026322
173619:-0.013126
173620:0.000124
173621:-0.012271
173622:0.000913
173626:-0.016449
173628:-0.025152
174739:0.002877
175465:0.001639
175718:0.000951
176099:-0.016449
176250:-0.001526
177846:-0.004998
177901:0.002650
178407:0.003746
178408:-0.001812
178410:-0.004019
178415:0.018431
178418:-0.002897
178705:-0.002967
178706:-0.003324
178951:0.006650
179237:0.012063
179238:-0.000302
179242:0.007245
179865:0.002485
180311:0.001485
180583:0.006998
180929:-0.004866
181671:0.006930
181672:-0.002525
181945:-0.002420
182794:0.003470
183059:0.000474
183589:-0.007204
185026:0.000221
185185:-0.015728
186251:-0.002950
186501:0.003470
186592:-0.007175
186781:-0.003127
186783:-0.047486
186784:-0.005789
186785:-0.001157
186786:-0.006579
186787:0.004411
186791:0.001691
186793:-0.005573
187415:-0.004683
188629:0.002485
188720:-0.000302
189524:0.000864
189693:-0.003203
189839:0.023275
190449:0.004510
190450:-0.004424
190451:-0.026894
190452:-0.013126
190453:-0.002940
190454:-0.012271
190455:0.000913
190459:-0.016449
190461:-0.025152
190993:0.004102
191537:-0.013126
191778:0.007245
191809:-0.001677
191810:-0.001299
191821:0.013057
191863:0.002466
192081:0.001163
192083:-0.000580
192353:-0.002833
192354:-0.000890
192355:0.005681
192356:-0.001437
192358:-0.000033
192361:0.004639
192395:-0.001526
193568:-0.006882
193931:-0.025511
193991:0.001015
194523:0.002552
194836:0.005022
195055:-0.001437
195587:-0.006882
196119:-0.004019
196808:-0.000580
196872:-0.003203
197183:0.001639
197416:0.009720
197655:0.006564
197715:-0.005789
198247:0.001779
198459:-0.002471
198779:-0.013126
199048:0.005359
199311:-0.015728
199539:0.002466
199564:0.001691
199843:0.003497
199844:0.001598
199849:-0.001167
199850:-0.000403
199851:0.005022
199856:0.003470
200048:0.004021
200658:-0.001157
200907:-0.003142
201114:0.004392
201439:-0.000497
201454:-0.012232
201935:0.004639
201936:-0.002525
201971:0.006167
201972:-0.004150
201977:-0.007204
201978:0.000474
201979:-0.006049
201984:0.002485
202491:-0.012866
202492:0.023275
202494:-0.000497
202502:0.002135
202503:-0.009651
202756:-0.001157
202765:0.000709
203035:-0.018566
203036:0.001930
203039:-0.001055
203040:-0.001467
203041:-0.002253
203042:-0.004683
203043:-0.009941
203048:-0.003203
203288:-0.005789
203582:0.001691
203583:0.004074
203820:-0.032543
203821:-0.007144
203828:0.004639
204354:0.001991
204646:-0.016449
204884:-0.015232
204887:-0.004019
204895:-0.002897
206774:0.006650
207838:-0.004737
208474:-0.013126
208914:-0.009941
209186:0.000474
209290:-0.007204
209730:-0.002604
209772:0.005359
210274:-0.001437
210468:-0.007204
210546:0.005168
210547:-0.000951
210818:-0.003910
210820:0.004074
210945:-0.000033
211090:0.003196
211091:0.007041
211368:0.004610
211671:0.001015
211900:-0.003616
212305:-0.012232
212518:-0.004951
212790:0.004499
212964:-0.000033
213062:-0.001985
213496:0.001485
213630:0.004102
213977:-0.000807
213978:0.002639
213980:-0.001526
213981:0.000951
213983:0.001681
214107:-0.003910
214324:-0.012232
214560:0.004939
214911:0.041753
214912:-0.052843
215092:-0.002604
215624:-0.006579
215881:0.000244
216156:0.002877
216452:0.001691
216688:-0.012271
216834:-0.001055
217135:-0.002897
217516:-0.016449
217752:-0.001985
218125:-0.004866
218151:-0.000802
218284:-0.001467
218816:0.004102
219154:-0.002286
219644:0.006650
219686:0.002667
219687:0.002795
219880:-0.003603
220412:0.010045
220606:-0.003142
220708:-0.004737
221232:0.001681
221282:-0.002636
221391:-0.004019
221502:0.000670
221772:0.019590
221773:0.007038
221777:0.004939
221814:0.000995
221815:0.007041
222346:-0.003799
222348:0.007663
222349:0.002466
222351:0.005359
222457:-0.001299
222510:-0.004150
222878:-0.005171
222879:0.006507
222881:-0.001526
222882:0.000951
222884:0.001681
222987:0.002366
222990:0.002552
222991:0.006998
222993:0.008354
223042:-0.000344
223410:0.021003
223411:0.004074
223418:0.009559
223621:-0.000403
223846:0.000709
224474:-0.002839
224476:-0.000467
224477:0.001015
224479:-0.003616
225006:0.003038
225007:0.000790
225009:0.002552
225010:0.006998
225012:0.008354
225538:-0.009502
225539:-0.007144
225540:0.007421
225541:-0.001437
225543:-0.000033
225546:0.004639
225730:0.000828
226019:-0.002767
226020:-0.000890
226021:0.005071
226022:-0.001437
226024:-0.000033
226027:0.004639
226070:-0.003443
226071:0.004797
226072:-0.010323
226073:-0.006882
226074:-0.007528
226075:-0.007175
226076:0.000221
226080:-0.012232
226082:0.000244
226563:0.007816
226577:0.001639
226602:0.018593
226603:-0.000577
226605:-0.004019
226610:0.018431
226613:-0.002897
227107:-0.016449
227134:-0.015721
227135:-0.000580
227668:0.000228
227669:0.001639
227671:-0.002604
228027:0.002485
228195:0.008354
228198:-0.004451
228200:-0.000929
228201:-0.005789
228202:-0.001157
228203:-0.006579
228204:0.004411
228208:0.001691
228210:-0.005573
228467:0.004610
228730:-0.004023
228731:0.000670
228732:0.004285
228733:0.001779
228735:0.002877
228738:0.011406
228739:0.000951
228741:0.009720
229262:-0.024227
229263:-0.003813
229264:-0.025959
229265:-0.013126
229266:-0.002940
229267:-0.013844
229268:0.000913
229272:-0.016449
229274:-0.025152
229774:-0.001526
229794:0.005999
229795:0.000401
229797:-0.015728
229802:-0.001898
229805:-0.004866
230137:-0.006049
230326:0.030678
230327:-0.004951
230329:0.006294
230621:0.000670
230858:0.049278
230862:-0.001055
230863:-0.001467
231392:0.006604
231393:-0.003142
231395:0.004102
231400:0.006650
231402:0.007816
231922:0.003181
231925:-0.000497
231933:0.002135
232454:0.003448
232455:0.000709
232456:0.003792
232457:-0.007516
232459:-0.003603
232464:-0.004737
232466:-0.014466
233861:-0.004150
234393:-0.001074
234394:-0.002499
234665:-0.002420
234937:-0.002940
236254:-0.000951
236864:0.006998
237320:0.002661
237983:-0.001467
238061:0.002004
238062:0.001991
238063:-0.002175
238064:-0.005789
238065:-0.001157
238066:-0.006579
238067:0.004411
238071:0.001691
238073:-0.005573
238605:0.004705
238709:-0.015728
238962:0.006998
239149:-0.012271
239343:0.006650
239421:-0.001157
239494:0.002552
239965:-0.010033
239966:-0.000802
240509:0.009134
240510:-0.001540
240517:0.009559
242211:0.000401
244044:-0.016449
244173:0.002135
244680:-0.006882
245189:-0.002950
245339:-0.000403
245572:-0.002897
246038:0.002485
246255:0.001930
247151:0.005359
247467:0.000474
248247:0.015366
248248:-0.016510
248270:0.004411
248429:-0.000497
248531:-0.004683
248724:-0.000580
249063:0.004705
249066:0.000244
249268:0.004939
249547:-0.002194
249836:-0.006579
250028:-0.049524
250103:-0.021254
250104:-0.005254
250107:-0.001055
250108:-0.001467
250109:-0.002253
250110:-0.004683
250111:-0.009941
250116:-0.003203
250313:-0.002525
250375:0.002054
250376:-0.000207
250647:0.006712
250648:-0.002950
250659:-0.000226
250919:0.003081
250921:-0.004951
251191:0.030556
251192:0.000670
251193:0.003310
251194:0.002268
251196:0.002877
251199:0.011406
251202:0.009720
252258:-0.025152
252768:0.004021
254331:-0.002897
254386:0.007816
255450:-0.014466
256086:-0.013844
256254:0.002135
256812:-0.005789
257342:-0.000403
257886:-0.000033
258080:-0.006049
258702:-0.006039
258703:0.000828
259246:0.000471
259247:0.002795
259248:0.004392
260052:-0.003813
260584:0.000553
260585:0.003276
261589:0.003278
261590:0.007041
