Version 7.10.1
Min label:-1.000000
Max label:1.000000
bits:18
0 pairs: 
0 triples: 
lda:0
1 ngram: 5 
0 skip: 
options:
:0
1:0.827595
2:3.761154
3:3.352153
4:1.874961
5:-2.166397
6:2.040177
7:-0.337087
8:-0.085929
9:2.557352
10:2.954432
11:1.464222
12:0.201396
13:1.075631
14:-0.397719
15:-0.917590
16:2.728857
17:2.866553
18:-7.499873
19:3.472248
20:3.045929
21:-1.582094
22:-2.096238
23:-2.997355
24:0.017087
25:11.579688
639:0.068304
2156:0.049652
2214:0.086653
2262:-0.070359
2792:-0.068429
3220:-0.070359
5454:-0.215055
5984:-0.541591
5986:0.029997
5987:0.012933
5989:-0.030773
5990:0.033439
6424:0.132496
6696:0.040086
6968:0.012933
7240:0.045529
7241:0.009736
7512:-0.095303
7784:0.146270
7785:0.086653
7786:-0.172351
7787:-0.013183
7923:-0.008779
8878:-0.006664
9682:-0.078316
9942:0.111136
9943:-0.078316
10486:-0.154732
10981:-0.113243
11487:-0.005051
11490:0.068304
12045:0.018116
12303:-0.057128
12342:0.009736
12602:0.031124
12603:0.009736
12847:0.019141
12874:-0.040165
13134:0.083042
13135:-0.040165
13358:0.008853
13406:-0.044164
13666:0.020409
13667:-0.044164
13938:-0.130500
14162:0.115061
14198:0.037900
14199:-0.130500
14742:0.040086
15207:0.100104
16598:-0.215055
16858:-0.032158
16859:-0.215055
17402:0.138131
17662:0.039776
17922:0.309734
17923:0.039776
18466:-0.106655
18467:0.045364
18472:-0.068429
18473:-0.070359
18474:0.144606
18479:-0.057128
19251:-0.040165
20951:-0.124484
21855:0.049652
22491:0.012933
23023:-0.336124
23031:-0.490263
23529:0.313410
23530:-0.115720
24345:0.113633
24617:0.049652
25705:-0.013183
25977:-0.006052
26249:-0.029002
26521:-0.005422
26558:0.092881
27677:-0.127453
28493:-0.068429
29671:-0.068429
30874:-0.013183
31883:0.019141
32265:0.132496
32833:0.020385
32947:-0.173964
34376:0.086653
35571:0.132150
35572:0.145598
35574:-0.127453
35575:0.040086
35576:0.051402
35577:0.059896
35843:0.115061
36139:0.044954
36659:0.042341
36660:-0.130500
37203:0.297221
37204:0.007226
37208:-0.113243
37777:-0.078316
39809:0.142012
39810:0.086653
39815:0.101685
39816:0.049652
39817:-0.124484
39822:0.061852
39907:0.100104
40437:0.009736
40969:-0.040165
40971:-0.008779
41501:-0.044164
41660:-0.044164
41713:-0.039394
42033:-0.130500
42190:-0.294997
42193:-0.106796
42194:-0.154732
42245:-0.037098
43049:0.325650
43631:0.086653
44161:0.008853
44163:0.022552
44693:-0.215055
44695:-0.039394
45225:-0.160592
45227:-0.037098
45757:0.039776
45780:-0.024765
47057:-0.005279
47230:-0.057128
47613:0.277693
47615:0.095471
47616:0.102650
47617:0.138131
47618:0.115061
47624:0.044954
47887:-0.073594
47888:0.135956
47890:0.020385
47895:0.024538
47897:0.115636
49340:0.113633
49824:0.034447
52749:-0.006664
53064:-0.039394
53596:0.055289
53597:-0.130500
54140:0.040086
54308:0.059896
54580:-0.030773
55457:-0.078316
55940:-0.074142
55941:-0.029002
56067:-0.154732
58086:-0.154732
58165:-0.154732
58546:0.024538
58697:-0.106796
59099:0.102258
59100:-0.078316
60295:0.092824
60296:0.030495
61414:0.112906
62342:0.040086
62368:-0.124484
63376:0.044954
63432:0.113633
63860:0.008853
64392:-0.215055
65002:0.138131
65241:-0.057128
65806:0.065908
65807:0.008853
66350:0.025956
66352:0.197039
66568:0.115061
66622:0.043445
66624:0.043758
66625:-0.024765
66627:0.029870
66633:0.019141
67100:0.138131
67473:0.033439
67632:0.102650
68473:0.018116
69039:-0.030773
71141:0.002153
71142:0.206042
71149:-0.490263
71699:0.030519
71700:0.009736
71971:-0.040165
76015:0.012933
76800:0.030495
77283:0.113633
77332:-0.006052
79255:0.197039
79517:0.027730
79787:-0.160227
79788:-0.076045
81986:-0.013183
83183:0.168535
83184:0.027730
83185:0.020688
83186:0.012933
83188:-0.030773
83189:0.033439
83561:0.022552
84543:-0.024765
84671:0.132496
85087:0.206042
85359:0.094417
85362:0.068304
86801:-0.160592
86985:0.086653
87331:-0.452181
87333:0.055824
87334:0.012843
87336:0.073403
87342:-0.173964
89125:-0.113243
90191:0.018116
90709:0.027730
90921:-0.612120
90980:0.019141
91241:0.034447
91255:-0.030773
91773:0.197039
92305:0.112906
92317:0.051402
93381:0.132496
93392:0.029870
94173:0.008853
94447:0.020385
94965:0.325650
94977:0.115061
95225:0.273963
95226:0.039776
95237:-0.160592
95511:-0.299407
95769:0.039776
96041:0.043005
96042:0.147930
96044:-0.127453
96045:0.040086
96046:0.051402
96047:0.059896
96316:0.019141
96499:-0.005505
96554:0.206013
97380:-0.173964
97890:0.030256
97891:0.100104
98518:0.061852
99582:-0.173964
100572:0.044954
100598:-0.044164
101376:0.024538
101712:0.049652
102242:0.101685
102736:-0.113243
103008:-0.154732
103280:0.068304
103838:0.012843
104096:-0.005422
104370:-0.176732
104371:0.132356
105436:0.029145
105437:0.031892
105439:0.018116
105446:0.095471
106068:-0.070359
106711:0.084121
106712:0.205433
107373:0.100104
108177:-0.078316
108890:0.033439
109422:0.101685
109954:0.059896
110486:-0.068429
112221:-0.106796
113418:0.020385
113962:-0.127453
114234:0.021989
114235:-0.044164
114506:-0.130500
114778:-0.030577
114779:0.206013
114786:-0.490263
115080:-0.029002
115884:-0.006052
116060:0.151527
116948:-0.065092
116949:-0.029002
117112:-0.215055
117210:0.086653
117740:0.100104
118272:0.206013
118753:0.185392
118754:0.086653
118755:-0.172351
118756:-0.013183
118804:-0.008779
119336:-0.067550
119608:0.044659
119609:0.100104
119767:-0.008779
119841:-0.173964
120140:0.034229
120141:0.206013
120624:0.292926
120672:0.017565
120673:-0.008779
120677:-0.113243
120934:0.027730
121156:0.102650
121204:-0.157116
121205:-0.067550
121464:0.086653
121466:0.034447
121941:0.031892
121996:0.022552
121998:0.197039
122473:0.044072
122474:0.086653
122528:-0.039394
122530:0.112906
123060:-0.037098
123537:-0.373971
123864:-0.066923
123865:0.022552
123869:0.051402
124928:0.119500
124929:-0.037098
124933:0.132496
125190:0.325650
125191:0.295905
126491:0.024538
127127:0.012933
127943:0.101685
129121:0.101685
130324:0.030495
130795:0.021637
130796:-0.130500
130797:0.045530
130798:0.031892
130800:0.018116
130807:0.095471
131171:0.197039
131611:-0.070359
131715:0.051402
131883:0.101685
132155:0.029870
132760:-0.029002
132971:0.111136
132972:-0.078316
133515:0.066082
133516:0.205433
133564:0.086653
134411:-0.037098
136778:-0.173964
137469:0.132496
138533:0.020385
141110:0.009736
141163:0.086653
141640:0.082258
141643:0.068304
141695:0.022552
142837:-0.095370
142838:-0.194968
142843:-0.068429
142844:-0.070359
142845:0.144606
142850:-0.057128
143109:0.138131
143925:0.086653
143927:0.034447
144199:0.031125
144200:0.031892
144202:0.018116
144209:0.095471
144992:0.061852
146056:-0.057128
146680:0.061852
148790:-0.124484
148979:1.063758
148980:0.197039
148988:0.115636
149511:-0.016702
149512:0.112906
149519:0.135745
152514:0.086653
153046:0.047016
153047:-0.040165
153318:-0.044164
154323:-0.005422
154879:0.719168
154880:0.315931
154881:0.302572
154882:-1.347826
154884:-0.299407
154891:0.353114
157034:-0.124484
157362:0.012843
158098:0.113633
158147:0.068304
160602:0.076170
160603:0.062320
160864:0.034447
161574:0.051402
162118:0.031892
162662:0.100104
162936:-0.005066
162937:0.030495
163333:-0.106796
163756:0.030495
164288:0.068304
164691:0.061852
164820:-0.013183
164908:-0.039394
165352:-0.106796
166367:-0.004461
166368:0.030495
167453:0.061852
167480:0.031892
167921:-0.113243
168012:-0.024765
168148:0.039776
168489:0.018116
168544:0.012933
168678:-0.308367
168681:-0.127453
168682:0.040086
168684:0.059896
169076:0.012843
169360:0.101685
169608:-0.127453
170424:-0.068429
171736:0.037236
172268:0.102650
172800:0.296719
172801:-0.160592
173072:-0.032032
173073:-0.215055
173344:-0.065133
173616:-0.158195
173617:0.081472
173618:0.032940
173619:0.012843
173621:0.073403
173622:0.101685
173623:0.049652
173624:-0.086447
173627:-0.173964
173629:0.061852
174103:0.115636
174739:-0.030773
175465:0.031892
176733:-0.124484
177901:-0.008779
178407:0.280799
178408:-0.081815
178412:-0.113243
178679:0.044954
178705:0.027730
179237:0.033505
179238:0.206013
179495:-0.124484
180855:0.030495
181436:0.030495
181945:-0.130500
182555:0.040086
183645:0.113633
184121:0.051402
184549:-0.070359
184653:0.040086
185185:-0.127453
185480:0.086653
186251:0.008853
186781:0.020776
186783:-0.443284
186784:-0.024765
186786:0.029870
186792:0.019141
188097:0.061852
189161:-0.057128
189252:0.102193
189253:-0.078316
189796:-0.154732
190449:0.153396
190450:0.081472
190451:0.037337
190452:0.012843
190454:0.073403
190455:0.101685
190456:0.049652
190457:-0.086447
190460:-0.173964
190462:0.061852
191537:0.012843
191809:0.083743
191810:-0.040165
192081:-0.115720
192353:-0.165731
192354:0.116222
192356:-0.106796
192357:-0.154732
193459:0.030495
193991:0.068304
194523:-0.013183
194961:0.020385
195055:-0.106796
195527:-0.299407
197183:0.031892
197715:-0.024765
198187:0.266224
198188:-0.215055
198247:0.012933
198731:0.138131
198779:0.012843
199032:0.019141
199311:-0.127453
200048:0.009736
201439:0.172742
201440:0.086653
201445:0.101685
201446:0.049652
201447:-0.124484
201452:0.061852
201971:0.102650
202493:-0.073472
202494:0.165311
202496:0.020385
202501:0.024538
202503:0.328067
202504:-0.039394
202509:-0.068429
202510:-0.070359
202511:0.113633
202516:-0.057128
203035:0.087088
203036:-0.037098
203040:0.132496
203288:-0.024765
203820:-0.006712
203821:0.072432
205518:0.049652
207306:0.024538
208474:0.012843
209458:0.033439
209730:0.018116
210274:-0.106796
210818:-0.078316
211090:-0.096442
211671:0.068304
212518:0.112906
213977:-0.095160
213978:-0.029002
214028:-0.113243
215092:0.018116
215443:-0.065092
215444:-0.029002
215624:0.029870
216156:-0.030773
216688:0.073403
217220:0.051402
217468:0.044954
218284:0.132496
219217:0.100104
219348:0.020385
219880:0.115061
220176:0.024538
220327:-0.113243
220412:-0.299407
220750:-0.005422
221282:-0.005505
221502:0.027730
221772:-0.176502
221773:-0.067550
221814:-0.122239
222346:0.088454
222347:0.205433
222987:0.177389
222989:-0.177237
222990:-0.013183
223944:0.094403
223945:0.030495
224378:-0.067049
224379:0.022552
224383:0.051402
224474:0.092838
224477:0.068304
225006:0.181273
225007:0.086653
225008:-0.185945
225009:-0.013183
225538:-0.179835
225539:0.072432
225541:-0.106796
225542:-0.154732
226019:-0.188839
226020:0.116222
226022:-0.106796
226023:-0.154732
226070:-0.032972
226078:-0.490263
226554:-0.160592
226577:0.031892
226602:-0.195971
226603:0.132356
227086:0.039776
227668:0.030520
227669:0.031892
227671:0.018116
227678:0.095471
228198:0.042159
228200:0.007870
228201:-0.024765
228203:0.029870
228209:0.019141
228730:-0.287744
228731:0.027730
228732:0.022460
228733:0.012933
228735:-0.030773
228736:0.033439
229262:-0.335789
229263:0.034447
229264:0.051455
229265:0.012843
229267:0.073403
229270:0.037572
229273:-0.173964
229794:0.069972
229795:0.197039
229797:-0.127453
229798:0.040086
229800:0.059896
230167:0.059896
230326:-0.046105
230327:0.112906
230334:0.135745
230621:0.027730
231167:-0.030773
231924:0.215353
231925:-0.512437
231927:0.020385
231932:0.024538
231934:0.115636
232454:0.367311
232457:0.102650
232458:0.138131
232459:0.115061
232465:0.044954
233861:0.022552
234393:0.023803
234394:-0.044164
234665:-0.130500
236228:0.019141
236919:0.051402
238061:0.044086
238063:0.044482
238064:-0.024765
238066:0.029870
238072:0.019141
238709:-0.127453
238877:-0.068429
239149:0.073403
239494:-0.013183
240026:0.097505
240027:0.205433
240239:0.086653
242211:0.197039
244705:0.024538
245300:0.095471
246255:-0.037098
246935:0.049652
247999:-0.070359
248429:0.151449
248430:0.027730
248961:-0.068463
248962:0.034447
248969:0.037572
249843:0.292926
249844:0.008853
250103:-0.003938
250104:-0.065133
250108:0.132496
250375:0.102650
250662:0.095471
250919:-0.252022
250921:0.112906
251191:0.134531
251192:0.027730
251193:0.019112
251194:0.012933
251196:-0.030773
251197:0.033439
252768:0.009736
253674:-0.173964
254918:0.115636
255982:0.353114
256086:0.073403
256812:-0.024765
259193:-0.100672
259248:-0.067550
260052:0.034447
260584:0.015976
260585:-0.008779
260589:-0.113243
261212:-0.057128
261589:-0.093056
